-3.650199249386787415e-02,-6.085162237286567688e-02,-1.295661181211471558e-01,-1.792529225349426270e-01,-5.781792104244232178e-02,-2.155809700489044189e-01,-9.683804959058761597e-02,-2.491530589759349823e-02,-1.488925814628601074e-01,-7.264959812164306641e-02
-4.992792382836341858e-02,-1.647157073020935059e-01,-1.036784127354621887e-01,-9.806478768587112427e-02,-5.314527079463005066e-03,-1.504020243883132935e-01,-1.095206290483474731e-01,-8.743741782382130623e-04,-1.681506261229515076e-02,-1.333393901586532593e-01
-4.448437597602605820e-03,-1.421155482530593872e-01,-1.386165171861648560e-01,-1.302008032798767090e-01,-2.690282650291919708e-03,-5.538312345743179321e-02,-5.531928036361932755e-03,-2.203640490770339966e-01,-1.979763507843017578e-01,-1.007288172841072083e-01
-7.487274706363677979e-02,-9.671323746442794800e-02,-7.912139408290386200e-03,-3.487511351704597473e-02,-1.525108120404183865e-03,-4.470375552773475647e-02,-6.395459175109863281e-03,2.551813144236803055e-03,-1.783646047115325928e-01,-3.857359290122985840e-02
-1.208335608243942261e-01,-1.260175462812185287e-02,-1.531966961920261383e-02,-1.274137794971466064e-01,-9.055396169424057007e-02,-2.444062754511833191e-02,-1.342644356191158295e-02,-8.532096631824970245e-03,-1.115346699953079224e-01,-1.897945441305637360e-02
-1.838436536490917206e-02,-1.344259679317474365e-01,-1.005440056324005127e-01,-2.605012059211730957e-02,-1.187032386660575867e-01,-2.427284270524978638e-01,-1.147082746028900146e-01,-8.495049923658370972e-02,-1.018190979957580566e-01,-8.132255822420120239e-02
-8.040281012654304504e-03,-8.282365649938583374e-02,-8.504400402307510376e-02,-8.968397974967956543e-02,-1.924844384193420410e-01,-2.500430941581726074e-01,-8.069688454270362854e-03,-1.251041442155838013e-01,-4.797625914216041565e-02,-9.925666451454162598e-02
-1.317369639873504639e-01,-7.427525520324707031e-02,-7.877393811941146851e-02,-1.541672088205814362e-02,-8.242520503699779510e-03,-4.006557166576385498e-02,-1.156160607933998108e-02,-6.355433166027069092e-02,-8.022232353687286377e-02,-1.581815928220748901e-01
-3.145870193839073181e-02,-1.299856752157211304e-01,-1.676218807697296143e-01,-7.219808548688888550e-02,-2.208139300346374512e-01,-3.161092847585678101e-02,-6.748496741056442261e-02,-1.158062443137168884e-01,-9.787443280220031738e-02,-1.021808385848999023e-01
-1.875059008598327637e-01,-5.434006825089454651e-02,-4.825536161661148071e-02,-1.223605126142501831e-01,-1.435211300849914551e-01,-1.126219704747200012e-01,-1.233817487955093384e-01,-2.901202999055385590e-02,-1.940169036388397217e-01,-7.221508026123046875e-02
-1.171865537762641907e-01,-1.360036283731460571e-01,-4.556632041931152344e-02,-2.627546526491641998e-02,-1.179638877511024475e-01,-1.103942021727561951e-01,-2.720092609524726868e-02,-7.813066989183425903e-02,-1.311259865760803223e-01,-1.144150644540786743e-01
-1.577185094356536865e-01,-2.085165865719318390e-02,-1.006326451897621155e-01,-4.312288388609886169e-02,-1.751184649765491486e-02,-2.017281502485275269e-01,-2.212682366371154785e-02,-1.602847576141357422e-01,-2.137895114719867706e-02,-1.159641742706298828e-01
-2.815086841583251953e-01,-3.768651932477951050e-02,-9.195932000875473022e-02,7.524769753217697144e-03,2.056391239166259766e-01,-2.556893415749073029e-02,-2.316498160362243652e-01,3.873767564073204994e-03,2.745125591754913330e-01,5.512893199920654297e-02
-2.264854311943054199e-01,-2.525216899812221527e-02,-1.933382153511047363e-01,7.061453163623809814e-02,2.541818022727966309e-01,-2.459044903516769409e-01,-6.406330317258834839e-02,4.304063692688941956e-02,3.076423406600952148e-01,2.285212427377700806e-01
-5.467181559652090073e-03,-2.357050310820341110e-03,-1.400368511676788330e-01,2.054020017385482788e-02,-2.835715189576148987e-02,-2.558936178684234619e-02,1.400171429850161076e-03,2.615533769130706787e-03,-2.072259038686752319e-01,-6.229506689123809338e-04
-1.627466082572937012e-02,-5.685838684439659119e-02,-1.928434334695339203e-02,-3.269805386662483215e-02,-2.111584097146987915e-01,-2.286688238382339478e-02,-2.028942704200744629e-01,-7.151708472520112991e-03,-2.275532335042953491e-01,-2.593703195452690125e-02
-1.206094678491353989e-02,-2.436471171677112579e-02,-5.636422894895076752e-03,-6.628144532442092896e-02,-1.565719768404960632e-02,-1.893182992935180664e-01,-5.641900002956390381e-03,-2.350622117519378662e-01,-8.153168857097625732e-02,-1.887760013341903687e-01
-1.754687875509262085e-01,-1.757290400564670563e-02,-1.192011535167694092e-01,-2.098496258258819580e-01,-5.446934700012207031e-02,-1.338318884372711182e-01,-5.303367972373962402e-02,-2.020436152815818787e-02,-1.919922232627868652e-01,-3.339293599128723145e-02
-6.925208866596221924e-02,-1.260293573141098022e-01,-9.210153669118881226e-02,-7.334881275892257690e-02,-1.017861738801002502e-01,-5.920751020312309265e-02,-1.431933790445327759e-01,-3.635487332940101624e-02,-5.571553483605384827e-02,-3.671446070075035095e-02
-4.476058483123779297e-02,-1.010515615344047546e-01,-1.658355891704559326e-01,-8.489754796028137207e-02,-5.167324468493461609e-02,-6.928230077028274536e-02,-1.073631569743156433e-01,-1.937296688556671143e-01,-1.342620998620986938e-01,-8.808192610740661621e-02
-1.384234279394149780e-01,-5.038445442914962769e-02,-1.524486094713211060e-01,-6.904400140047073364e-02,-5.176933854818344116e-02,-5.273339152336120605e-02,-1.306560486555099487e-01,-6.035873293876647949e-02,-9.412647038698196411e-02,-1.376524269580841064e-01
-5.517814680933952332e-02,-3.881427273154258728e-02,-4.074062407016754150e-02,-1.191511005163192749e-01,-1.067742928862571716e-01,-1.149907410144805908e-01,-8.607722073793411255e-02,-2.648419328033924103e-02,-1.635965406894683838e-01,-6.366494297981262207e-02
-3.680058196187019348e-02,-7.547528296709060669e-02,-1.517674028873443604e-01,-1.033872365951538086e-01,-3.120075725018978119e-02,-8.609646558761596680e-02,-3.794474527239799500e-02,-5.113001540303230286e-02,-3.663781285285949707e-02,-7.042590528726577759e-02
-7.214400172233581543e-02,-3.571241721510887146e-02,-2.440637536346912384e-02,-2.830912172794342041e-02,-1.571402549743652344e-01,-3.287482261657714844e-02,-5.150263011455535889e-02,-1.424091011285781860e-01,-7.602283358573913574e-02,-2.470990456640720367e-02
-1.514982134103775024e-01,-7.965006865561008453e-03,-5.298548191785812378e-02,-3.081210702657699585e-02,-5.887272953987121582e-02,-7.122971117496490479e-02,-8.544661104679107666e-03,-3.800943493843078613e-03,-3.746053203940391541e-02,-2.398060709238052368e-01
-1.398815065622329712e-01,-3.306974470615386963e-02,-4.338185116648674011e-02,-6.287415325641632080e-02,-2.721089497208595276e-02,-3.677899390459060669e-02,-1.201750561594963074e-01,-1.334321200847625732e-01,-1.687166541814804077e-01,-8.152310550212860107e-02
-8.032904006540775299e-04,7.636019028723239899e-03,-2.937483415007591248e-02,-6.354603171348571777e-02,-1.365079432725906372e-01,-1.044788286089897156e-01,9.006557054817676544e-03,-3.309352695941925049e-02,-1.566581428050994873e-01,-2.574263699352741241e-02
9.265486150979995728e-03,-8.912229537963867188e-02,-1.719656586647033691e-01,-1.269116550683975220e-01,-8.561807125806808472e-02,6.861773319542407990e-03,9.297993965446949005e-03,-2.555282786488533020e-02,-6.311875302344560623e-03,-2.151976376771926880e-01
-1.693920642137527466e-01,-1.856363713741302490e-01,-9.492571651935577393e-02,-1.406110543757677078e-02,-7.408204674720764160e-02,-3.045126050710678101e-02,8.578781969845294952e-03,-1.556239277124404907e-02,-7.198620587587356567e-02,-4.923626780509948730e-02
-1.441992912441492081e-02,-4.493043944239616394e-02,-1.655020564794540405e-01,-1.501189731061458588e-02,-2.210271507501602173e-01,-4.433672875165939331e-02,-1.420316752046346664e-02,-7.010781019926071167e-02,-1.274136174470186234e-02,-7.049884647130966187e-02
-4.745522886514663696e-02,-4.064371436834335327e-02,-4.594753682613372803e-02,-1.427987366914749146e-01,-3.106254152953624725e-02,-1.468219906091690063e-01,-1.246831342577934265e-01,-2.692391350865364075e-02,-1.093853861093521118e-01,-4.329493641853332520e-02
-6.212699227035045624e-03,-1.317955553531646729e-01,-6.247808225452899933e-03,-6.772795319557189941e-02,-1.136509850621223450e-01,-8.224779739975929260e-03,-2.337400056421756744e-02,-1.688404083251953125e-01,-1.071950048208236694e-01,-5.432131886482238770e-02
-1.992285847663879395e-01,-1.645272225141525269e-01,-8.743973076343536377e-02,-2.260620146989822388e-02,-1.867489144206047058e-02,-1.497180461883544922e-01,-6.057893484830856323e-02,-6.660934537649154663e-02,-3.125391900539398193e-02,-5.373929068446159363e-02
1.939041614532470703e-01,-3.068510256707668304e-02,-1.674711555242538452e-01,-6.191885471343994141e-02,-1.534024327993392944e-01,-5.876116156578063965e-01,-2.911921590566635132e-02,-6.482991576194763184e-02,-2.861464768648147583e-02,-2.351362556219100952e-01
5.231933593750000000e-01,-1.221414804458618164e-01,1.012263819575309753e-01,-2.099671959877014160e-01,-4.602403193712234497e-02,-8.550441265106201172e-01,-1.470561176538467407e-01,-3.213405236601829529e-02,3.602361977100372314e-01,-3.152368217706680298e-02
5.348358750343322754e-01,-2.719835937023162842e-01,-7.217241823673248291e-02,-4.665229320526123047e-01,-1.952395439147949219e-01,-8.274660110473632812e-01,-1.295817196369171143e-01,-3.952911496162414551e-01,-2.563686966896057129e-01,6.308651566505432129e-01
4.653027951717376709e-01,-3.389623165130615234e-01,-4.890263825654983521e-02,-5.547313094139099121e-01,-3.206649422645568848e-01,-4.324529767036437988e-01,-6.717770546674728394e-02,-7.191514372825622559e-01,-3.800420165061950684e-01,7.455418109893798828e-01
6.166440844535827637e-01,3.559737801551818848e-01,1.222524121403694153e-01,-5.436084866523742676e-01,-3.681388497352600098e-01,-3.000559508800506592e-01,-1.939769387245178223e-01,-5.120790004730224609e-01,-3.325620889663696289e-01,1.725449264049530029e-01
5.930944085121154785e-01,8.981769680976867676e-01,-6.656907200813293457e-01,-7.010312080383300781e-01,-4.696141481399536133e-01,-1.707151830196380615e-01,-2.081992477178573608e-01,-1.288556456565856934e-01,-1.067753955721855164e-01,-4.476127028465270996e-02
6.188422441482543945e-01,1.350689530372619629e+00,-7.619976997375488281e-01,-5.825293660163879395e-01,-5.914570093154907227e-01,-7.589921951293945312e-01,-1.059269607067108154e-01,3.972061872482299805e-01,2.108031064271926880e-01,-4.898586869239807129e-01
1.860339045524597168e-01,1.166187167167663574e+00,-3.647004663944244385e-01,-8.832492679357528687e-02,3.001131117343902588e-01,-6.896171569824218750e-01,4.131739437580108643e-01,5.835183262825012207e-01,4.564293026924133301e-01,-7.212812304496765137e-01
-1.707558929920196533e-01,7.288407683372497559e-01,6.585879325866699219e-01,4.599490761756896973e-01,1.583800017833709717e-01,-8.573654294013977051e-01,3.486839532852172852e-01,6.542193293571472168e-01,4.098357856273651123e-01,-9.648632258176803589e-02
-3.488568663597106934e-01,9.483823925256729126e-02,7.861738204956054688e-01,7.834514379501342773e-01,-4.366100206971168518e-02,7.208529859781265259e-03,5.458230525255203247e-02,2.405057847499847412e-01,-9.116365015506744385e-02,-1.724115759134292603e-01
-5.370744466781616211e-01,1.672669351100921631e-01,1.531296819448471069e-01,-4.533977806568145752e-02,-3.093793094158172607e-01,1.607623845338821411e-01,-1.480416953563690186e-01,-5.064084529876708984e-01,-2.060144841670989990e-01,3.544292226433753967e-02
2.078638225793838501e-01,4.643855690956115723e-01,1.918844729661941528e-01,-2.764989435672760010e-01,-4.289069399237632751e-02,-4.920819997787475586e-01,5.840110033750534058e-02,7.097677588462829590e-01,-1.413798481225967407e-01,-2.320185601711273193e-01
1.431255489587783813e-01,5.809155702590942383e-01,2.642172574996948242e-01,-1.119034737348556519e-01,-3.050145879387855530e-02,-8.439536690711975098e-01,-3.361384868621826172e-01,8.033044338226318359e-01,-3.740372136235237122e-02,2.038080245256423950e-02
4.574229568243026733e-02,-5.100987851619720459e-03,3.568100929260253906e-01,-6.622858047485351562e-01,-1.230659633874893188e-01,9.022712707519531250e-02,-3.371858298778533936e-01,5.739145278930664062e-01,5.194157958030700684e-01,3.308969736099243164e-02
3.141934797167778015e-02,-6.699466705322265625e-02,4.134888947010040283e-02,-2.143183052539825439e-01,-4.154159128665924072e-02,-1.628358662128448486e-01,-1.256531476974487305e-01,2.582438290119171143e-01,3.746647834777832031e-01,4.917649626731872559e-01
2.754010558128356934e-01,-1.303817238658666611e-02,-2.114788629114627838e-02,5.165949836373329163e-02,-1.216092612594366074e-02,-8.216810822486877441e-01,-2.124011218547821045e-01,4.888220429420471191e-01,6.281301379203796387e-01,7.403550148010253906e-01
2.593306899070739746e-01,-2.167698554694652557e-02,-1.517528891563415527e-01,-5.116077065467834473e-01,-3.001716732978820801e-02,-2.483989000320434570e-01,-5.240504443645477295e-02,-9.056572616100311279e-02,3.686625361442565918e-01,5.591988563537597656e-01
1.624638289213180542e-01,-8.800018578767776489e-02,-2.583615481853485107e-02,-5.372895598411560059e-01,-2.234151586890220642e-02,8.965506404638290405e-02,-2.678822539746761322e-02,-1.950583420693874359e-02,1.092328056693077087e-01,3.370806872844696045e-01
2.828139625489711761e-02,-1.947921663522720337e-01,-9.992258995771408081e-02,1.765157561749219894e-03,-9.842205047607421875e-02,-4.306294023990631104e-01,-3.777578240260481834e-03,-3.986487537622451782e-02,4.342777281999588013e-02,-3.654003888368606567e-02
-3.275529714301228523e-03,1.241279207170009613e-02,-1.697468161582946777e-01,-8.467148989439010620e-02,-1.533330976963043213e-01,-4.096140339970588684e-02,-8.388895541429519653e-02,-6.511999666690826416e-02,1.266041956841945648e-02,-1.999659091234207153e-02
-3.210159763693809509e-02,-1.956152021884918213e-01,-2.391864955425262451e-01,-3.945084288716316223e-02,-6.442671269178390503e-02,-1.309322565793991089e-01,-6.100503355264663696e-02,-1.193695794790983200e-02,-1.141359657049179077e-02,-4.433081671595573425e-02
7.780976011417806149e-04,3.151701297610998154e-03,-1.543754991143941879e-02,-6.712942570447921753e-02,1.667347364127635956e-02,-3.899556398391723633e-02,-1.355205774307250977e-01,-1.515954583883285522e-01,3.255591727793216705e-03,-1.099109183996915817e-02
-1.503903418779373169e-01,-1.453068386763334274e-02,-1.567971855401992798e-01,-1.217874065041542053e-01,-2.088033407926559448e-01,-1.774401962757110596e-01,-2.922969404608011246e-03,-4.123946651816368103e-03,-1.450282037258148193e-01,-1.015569046139717102e-01
-5.527783557772636414e-02,-1.095622405409812927e-01,-1.395682692527770996e-01,-9.331236779689788818e-02,-2.331968098878860474e-01,-4.829937592148780823e-02,-7.120274752378463745e-02,-1.571118533611297607e-01,-7.506840676069259644e-02,-7.208523154258728027e-02
-9.732072800397872925e-02,-7.311534136533737183e-02,-2.396876513957977295e-01,-3.596872463822364807e-02,-2.229627966880798340e-01,-5.667360499501228333e-02,-3.020609170198440552e-02,-2.877920120954513550e-02,-1.355265527963638306e-01,-1.117936894297599792e-01
-6.949080526828765869e-02,-1.435677856206893921e-01,-6.369381397962570190e-02,-2.246696203947067261e-01,-3.230568766593933105e-02,-1.730230003595352173e-01,-1.484277695417404175e-01,-3.260872885584831238e-02,-4.441456496715545654e-02,-4.664781317114830017e-02
-1.787000596523284912e-01,1.491865515708923340e-01,2.946038842201232910e-01,-3.980256915092468262e-01,-1.563526131212711334e-02,8.974730968475341797e-02,-5.546999722719192505e-02,-1.380664482712745667e-02,-5.978771671652793884e-02,-3.640921041369438171e-02
2.726584672927856445e-01,1.065085753798484802e-01,4.252893626689910889e-01,-7.137666344642639160e-01,-2.083570882678031921e-02,4.525505304336547852e-01,-2.396637797355651855e-01,-5.039851181209087372e-03,5.231941342353820801e-01,-9.808474779129028320e-02
1.634227335453033447e-01,-2.239959537982940674e-01,3.471462130546569824e-01,-1.048268079757690430e-01,1.764902658760547638e-02,-5.089665055274963379e-01,-1.282254010438919067e-01,-2.138128429651260376e-01,2.071726620197296143e-01,1.671013832092285156e-01
4.691693186759948730e-01,3.159376680850982666e-01,9.915708899497985840e-01,-5.296323299407958984e-01,-4.849143698811531067e-02,-6.820910573005676270e-01,-5.324684083461761475e-02,2.143028676509857178e-01,-8.552231192588806152e-01,7.170794606208801270e-01
-1.591441482305526733e-01,5.567601919174194336e-01,8.652646541595458984e-01,-5.740443468093872070e-01,-2.537128329277038574e-02,-8.379489183425903320e-02,-2.969011850655078888e-02,-1.480135321617126465e-01,-6.333993673324584961e-01,3.730518519878387451e-01
-2.488823048770427704e-02,5.642890930175781250e-01,1.746790707111358643e-01,-4.263319671154022217e-01,3.766442835330963135e-01,-4.107062816619873047e-01,-3.223312199115753174e-01,-5.233361124992370605e-01,2.118927687406539917e-01,-2.029255628585815430e-01
6.824952960014343262e-01,7.685238122940063477e-01,3.633269965648651123e-01,4.367210343480110168e-02,5.385411381721496582e-01,-6.601918935775756836e-01,1.295844614505767822e-01,-1.452965140342712402e-01,-4.796553254127502441e-01,-4.769981205463409424e-01
1.020920395851135254e+00,1.381344556808471680e+00,3.478610515594482422e-01,2.743343077600002289e-02,9.119809269905090332e-01,-1.509439706802368164e+00,8.324842453002929688e-01,-1.101103276014328003e-01,-2.220501452684402466e-01,1.811393201351165771e-01
5.271776318550109863e-01,2.119330406188964844e+00,-3.325642943382263184e-01,2.625576555728912354e-01,6.754800081253051758e-01,-1.420788407325744629e+00,9.640819430351257324e-01,6.556152105331420898e-01,5.072839856147766113e-01,9.436798840761184692e-02
1.300679326057434082e+00,1.754817962646484375e+00,4.947721958160400391e-01,-1.148693710565567017e-01,8.918328285217285156e-01,-2.552377223968505859e+00,8.661660552024841309e-01,4.598064720630645752e-01,2.348912060260772705e-01,1.747418493032455444e-01
-2.880664169788360596e-02,-6.869274377822875977e-02,-4.732972756028175354e-02,-4.001663327217102051e-01,-4.134623706340789795e-01,9.830276668071746826e-02,-7.487369775772094727e-01,-2.818083167076110840e-01,8.401425555348396301e-03,-1.215443946421146393e-02
3.137563169002532959e-01,8.707212805747985840e-01,3.289197385311126709e-01,1.185431003570556641e+00,5.802752971649169922e-01,-2.057684659957885742e+00,7.977956533432006836e-01,3.594329357147216797e-01,3.163063824176788330e-01,-4.620323777198791504e-01
-2.646831274032592773e+00,-3.931971311569213867e+00,-5.025505423545837402e-01,-7.870549708604812622e-02,-1.055783629417419434e+00,1.585776507854461670e-01,-4.502442836761474609e+00,-1.831475086510181427e-02,1.045883167535066605e-02,-1.157090961933135986e-01
-7.708361148834228516e+00,-1.401980996131896973e+00,-8.674721717834472656e-01,5.739423260092735291e-02,-6.923626065254211426e-01,2.172065228223800659e-01,-1.374839186668395996e+00,4.909266903996467590e-02,6.487622112035751343e-02,-1.611607335507869720e-02
5.029639601707458496e-01,5.698236227035522461e-01,-4.423740804195404053e-01,7.883548140525817871e-01,1.126204133033752441e+00,-1.890176415443420410e+00,1.345470905303955078e+00,3.709837198257446289e-01,6.879225969314575195e-01,9.131127595901489258e-01
8.482994437217712402e-01,5.862066149711608887e-01,1.675010919570922852e-01,-6.363261938095092773e-01,9.285696148872375488e-01,-8.590250015258789062e-01,1.060308933258056641e+00,7.162148356437683105e-01,5.720796585083007812e-01,1.398969411849975586e+00
-7.564514130353927612e-02,-2.751873970031738281e+00,-5.405236035585403442e-02,-1.597662270069122314e-02,-1.029601842164993286e-01,8.900667540729045868e-03,-2.603165805339813232e-01,-5.641205981373786926e-02,-4.756573587656021118e-02,-4.875238239765167236e-02
-3.224816918373107910e-02,-4.665740966796875000e+00,-3.373286873102188110e-02,-2.034957055002450943e-03,-3.550618141889572144e-02,6.175329908728599548e-04,-5.829716324806213379e-01,-3.041380457580089569e-02,-3.057044930756092072e-02,-2.059209346771240234e-02
-2.346893027424812317e-02,-3.810265064239501953e+00,-9.342085570096969604e-02,1.756780897267162800e-03,-2.076945640146732330e-02,-5.247447174042463303e-03,-1.241198301315307617e+00,-2.841954678297042847e-02,-3.135175257921218872e-02,-1.006609294563531876e-02
6.560593843460083008e-01,3.159376680850982666e-01,5.799187421798706055e-01,-1.823963761329650879e+00,5.881220698356628418e-01,5.560127496719360352e-01,1.506376266479492188e-01,9.059162735939025879e-01,5.049690008163452148e-01,6.595498323440551758e-01
1.204648837447166443e-01,1.061043068766593933e-01,4.858384728431701660e-01,-7.522431612014770508e-01,3.766380548477172852e-01,1.333170980215072632e-01,3.930629789829254150e-02,5.547977685928344727e-01,6.403961181640625000e-01,-2.074613422155380249e-01
-9.412417560815811157e-02,-6.985370069742202759e-02,3.083923161029815674e-01,-1.598451733589172363e-01,1.667450927197933197e-02,-4.674267470836639404e-01,1.052575632929801941e-01,2.694354653358459473e-01,4.108990430831909180e-01,-1.843617558479309082e-01
-5.328316241502761841e-02,-3.212420642375946045e-02,-2.002696841955184937e-01,-1.281536817550659180e-01,-1.508225202560424805e-01,-5.255177021026611328e-01,1.325538009405136108e-01,1.865917891263961792e-01,2.155205160379409790e-01,4.336223006248474121e-01
-6.437893956899642944e-02,-2.125970460474491119e-02,-5.374956876039505005e-02,-3.229426965117454529e-02,-7.907234132289886475e-03,-7.156633585691452026e-02,-6.652610003948211670e-02,-1.196259781718254089e-01,-2.959513664245605469e-02,-6.686145812273025513e-02
-2.150725014507770538e-02,-8.231279999017715454e-02,-2.308296039700508118e-02,-2.511979080736637115e-02,-3.010173700749874115e-02,-9.730496257543563843e-02,-2.471658885478973389e-01,-1.531586982309818268e-02,-2.261718362569808960e-02,-4.396616294980049133e-02
-8.221063762903213501e-02,-2.145994454622268677e-02,-6.342257559299468994e-02,-7.940606772899627686e-02,-1.882837116718292236e-01,-1.065500006079673767e-01,-1.654322259128093719e-02,-5.461255833506584167e-02,-5.646876990795135498e-02,-1.188382431864738464e-01
-1.615843772888183594e-01,-5.282991752028465271e-02,-8.872961252927780151e-02,-2.052044719457626343e-01,-3.099030256271362305e-02,-9.407430142164230347e-02,-7.777786999940872192e-02,-2.911525405943393707e-02,-2.027544975280761719e-01,-5.703400075435638428e-02
-2.487097084522247314e-01,1.147119235247373581e-02,-9.529671818017959595e-02,-6.897507607936859131e-02,-1.856000423431396484e-01,-4.387333616614341736e-02,1.361678447574377060e-02,-6.420562863349914551e-01,-2.094769775867462158e-01,2.309749722480773926e-01
-2.759924530982971191e-02,1.860384643077850342e-01,3.602929413318634033e-01,-1.249756217002868652e-01,-2.945674210786819458e-02,-1.410786211490631104e-01,-1.041450202465057373e-01,-5.299395918846130371e-01,-6.130999922752380371e-01,2.719020843505859375e-01
4.501977264881134033e-01,2.723433077335357666e-01,-8.570644259452819824e-02,2.630786895751953125e-01,-5.879632830619812012e-01,-2.109713256359100342e-01,8.822244592010974884e-03,4.313598275184631348e-01,-5.149329304695129395e-01,1.478952914476394653e-01
1.770340651273727417e-01,4.308562576770782471e-01,-3.132920265197753906e-01,5.428618937730789185e-02,-4.529756605625152588e-01,-7.513428330421447754e-01,1.793806068599224091e-02,4.576531350612640381e-01,3.762023746967315674e-01,5.917615294456481934e-01
-1.474494934082031250e-01,5.804423689842224121e-01,3.111434578895568848e-01,-1.251208931207656860e-01,-7.114979624748229980e-02,-5.105694532394409180e-01,-3.309376239776611328e-01,-5.272176861763000488e-02,1.272752434015274048e-01,5.104800462722778320e-01
-4.871314764022827148e-01,1.012535691261291504e+00,3.300559520721435547e-01,2.782219350337982178e-01,-1.203007623553276062e-01,-3.967475593090057373e-01,-1.340401321649551392e-01,-1.264351606369018555e-01,1.298957020044326782e-01,1.924531310796737671e-01
5.711832046508789062e-01,1.325309157371520996e+00,7.940248847007751465e-01,7.743197083473205566e-01,-1.463786810636520386e-01,-8.400388360023498535e-01,3.346160054206848145e-01,-1.063823476433753967e-01,-6.143092513084411621e-01,6.941816955804824829e-02
-2.533474564552307129e-02,-2.060029357671737671e-01,-3.518268838524818420e-02,-3.527519479393959045e-02,-3.342317044734954834e-02,-6.408794433809816837e-05,-3.963051140308380127e-01,-2.299129590392112732e-02,7.781821768730878830e-03,-4.352405667304992676e-02
-1.581570878624916077e-02,-4.009483754634857178e-02,-1.847909018397331238e-02,-2.205650322139263153e-02,-7.755346130579710007e-03,4.876507818698883057e-02,-7.321683764457702637e-01,-5.755510181188583374e-03,4.763540253043174744e-02,-1.002180203795433044e-02
1.538762152194976807e-01,1.486373096704483032e-01,1.534284204244613647e-01,8.708207309246063232e-02,1.640945076942443848e-01,2.662764787673950195e-01,1.413211375474929810e-01,1.667406708002090454e-01,-1.372764945030212402e+00,8.688472211360931396e-02
-1.061210781335830688e-01,-1.695644706487655640e-01,-7.670356333255767822e-02,-1.355315595865249634e-01,-6.902994960546493530e-02,7.400729507207870483e-02,-2.779433131217956543e-01,-7.432848215103149414e-02,4.607056453824043274e-02,-7.587856799364089966e-02
-2.476745992898941040e-01,-2.942419648170471191e-01,-2.704250440001487732e-02,-1.757895797491073608e-01,-2.281104400753974915e-02,1.922609061002731323e-01,-4.812527894973754883e-01,-2.854641526937484741e-02,1.209285482764244080e-01,-2.834550291299819946e-02
-9.128715991973876953e-01,-2.056282520294189453e+00,-8.469488471746444702e-02,-1.272609084844589233e-01,-7.939518243074417114e-02,2.176368534564971924e-01,-3.275999426841735840e-01,-8.427875488996505737e-02,7.706943154335021973e-02,-8.279305696487426758e-02
-1.910016059875488281e+00,-6.765165328979492188e+00,-4.766634479165077209e-02,-2.551993541419506073e-02,-4.158919677138328552e-02,3.029473721981048584e-01,-1.766729503870010376e-01,-3.947200998663902283e-02,1.229121312499046326e-01,-4.193441197276115417e-02
-1.017273783683776855e+00,-7.815236091613769531e+00,-9.671685695648193359e-01,2.897241525352001190e-02,-3.321208432316780090e-02,2.974609732627868652e-01,-7.664781063795089722e-02,-1.969260536134243011e-02,1.200189590454101562e-01,-2.758983150124549866e-02
-1.311328768730163574e+00,-3.580643892288208008e+00,-6.976313889026641846e-02,1.785397902131080627e-02,-8.182885497808456421e-02,1.889077126979827881e-01,-1.010077297687530518e-01,-5.980891361832618713e-02,4.122876748442649841e-02,-7.502392679452896118e-02
-1.159794688224792480e+00,-6.942526102066040039e-01,-3.353818878531455994e-02,6.623150408267974854e-02,-4.963406547904014587e-02,1.402132362127304077e-01,-1.049753278493881226e-01,-3.291003778576850891e-02,3.332528099417686462e-02,-4.475167021155357361e-02
-1.398369818925857544e-01,-1.527550667524337769e-01,-3.331972658634185791e-02,6.676650047302246094e-02,-4.662923514842987061e-02,5.592795461416244507e-02,-2.414869368076324463e-01,-3.604226186871528625e-02,6.518580485135316849e-03,-3.896643593907356262e-02
-6.546194106340408325e-02,-6.845632940530776978e-02,-5.171493440866470337e-02,3.631219267845153809e-02,-6.197369843721389771e-02,-1.004257518798112869e-02,-2.663455009460449219e-01,-5.637303739786148071e-02,-3.004768677055835724e-02,-4.666140675544738770e-02
-4.118661954998970032e-02,-5.291811376810073853e-02,-3.995675593614578247e-02,2.418528497219085693e-02,-4.309771582484245300e-02,-1.602994091808795929e-02,-1.839610487222671509e-01,-4.534774273633956909e-02,-2.013442851603031158e-02,-2.851367369294166565e-02
-5.113904178142547607e-02,-1.146994754672050476e-01,-5.392102897167205811e-02,-2.729572169482707977e-02,-5.492236837744712830e-02,-4.119144380092620850e-02,-1.499338597059249878e-01,-5.900420993566513062e-02,-4.572523012757301331e-02,-5.014368891716003418e-02
5.005304142832756042e-02,5.482346415519714355e-01,9.156371355056762695e-01,-6.642186045646667480e-01,4.490761458873748779e-01,-4.766752719879150391e-01,4.865269958972930908e-01,1.081457614898681641e+00,-2.495494633913040161e-01,-4.215126037597656250e-01
-3.540119826793670654e-01,-3.349947035312652588e-01,6.583010554313659668e-01,-9.456336498260498047e-01,4.726952910423278809e-01,-2.897363007068634033e-01,1.115103006362915039e+00,1.129444956779479980e+00,8.870879411697387695e-01,1.938658356666564941e-01
-1.070567369461059570e-01,-6.282120347023010254e-01,8.892836421728134155e-02,-3.817048072814941406e-01,-8.612068369984626770e-03,-4.900559186935424805e-01,1.623078137636184692e-01,4.552325308322906494e-01,8.369956612586975098e-01,4.164387881755828857e-01
-1.356985270977020264e-01,-1.873195171356201172e-02,-1.748210340738296509e-01,2.510237395763397217e-01,-1.186311542987823486e-01,1.410584151744842529e-01,-6.276538223028182983e-02,-2.133834213018417358e-01,2.671045660972595215e-01,-6.459677219390869141e-01
-4.159318283200263977e-02,-3.657977283000946045e-02,-1.704309284687042236e-01,-8.881284296512603760e-02,-8.613576740026473999e-02,-1.013846769928932190e-01,-1.450730860233306885e-01,-3.599980846047401428e-02,-1.904524117708206177e-01,-4.484349116683006287e-02
-9.460861235857009888e-02,-1.121724992990493774e-01,-5.897710099816322327e-02,-9.696418046951293945e-02,-6.823453307151794434e-02,-1.718403398990631104e-02,-5.425540357828140259e-02,-1.468946784734725952e-02,-1.731836795806884766e-02,-2.593617886304855347e-02
-6.497790664434432983e-02,-2.272653132677078247e-01,-2.968550659716129303e-02,-6.014252454042434692e-02,-5.813375115394592285e-01,-2.802024222910404205e-02,3.250869512557983398e-01,-7.075309008359909058e-02,3.220687508583068848e-01,6.250657886266708374e-02
-1.930960803292691708e-03,-1.844015717506408691e-01,2.048902809619903564e-01,1.262918263673782349e-01,-6.161982417106628418e-01,-6.213345378637313843e-02,3.601144552230834961e-01,-5.928905010223388672e-01,3.544531166553497314e-01,3.711085915565490723e-01
3.359712958335876465e-01,-6.002497076988220215e-01,2.214187532663345337e-01,-3.009206056594848633e-01,1.996205151081085205e-01,-4.896654188632965088e-01,8.228656649589538574e-02,-5.687510371208190918e-01,1.624729931354522705e-01,5.955729484558105469e-01
8.147844076156616211e-01,-1.014421701431274414e+00,-3.075926303863525391e-01,1.233010217547416687e-01,-2.525201737880706787e-01,-4.663740098476409912e-02,-7.926651835441589355e-02,-4.843949973583221436e-01,-8.341341279447078705e-03,6.815329790115356445e-01
4.761411547660827637e-01,-3.628675639629364014e-01,-1.428636610507965088e-01,3.791583776473999023e-01,-2.560664415359497070e-01,-1.658754348754882812e-01,4.862130284309387207e-01,8.136535435914993286e-02,-4.915722012519836426e-01,2.625534534454345703e-01
1.474178582429885864e-01,5.594590902328491211e-01,1.170967593789100647e-01,4.683888256549835205e-01,-5.716636180877685547e-01,-6.030161380767822266e-01,5.037150382995605469e-01,1.237995177507400513e-01,1.536922603845596313e-01,2.290355041623115540e-03
-4.111353680491447449e-02,-6.353200227022171021e-02,-4.551716148853302002e-02,-6.526312232017517090e-02,-1.139769516885280609e-02,-2.736072614789009094e-02,-7.163504362106323242e-01,-3.804723918437957764e-02,-1.191878132522106171e-02,-4.310601577162742615e-02
-5.047375708818435669e-02,-1.459468454122543335e-01,-5.236230045557022095e-02,-1.695409864187240601e-01,4.273319616913795471e-03,-2.470419555902481079e-02,-6.273612976074218750e-01,-4.511477425694465637e-02,1.470245234668254852e-02,-5.794452503323554993e-02
-3.516476601362228394e-02,-1.181008890271186829e-01,-2.804073132574558258e-02,-6.673819571733474731e-02,6.108616665005683899e-02,1.575795002281665802e-02,-4.245405793190002441e-01,-1.702064834535121918e-02,9.095459431409835815e-02,-4.067890718579292297e-02
1.979789324104785919e-02,-3.693790733814239502e-02,-9.279277920722961426e-01,-9.511820040643215179e-03,1.712583154439926147e-01,1.217592507600784302e-01,-2.452915757894515991e-01,5.710912123322486877e-02,2.131898701190948486e-01,2.559043653309345245e-02
-9.194296598434448242e-02,-1.497518718242645264e-01,-3.883744031190872192e-02,-9.798160940408706665e-02,1.006546840071678162e-01,7.486689090728759766e-02,-1.855963021516799927e-01,-2.774085476994514465e-02,1.875052601099014282e-01,-8.326567709445953369e-02
-1.184111535549163818e-01,-1.708426326513290405e-01,4.917165730148553848e-03,-8.489380776882171631e-02,1.379847079515457153e-01,1.555104404687881470e-01,-9.103026986122131348e-02,2.421670593321323395e-02,2.776356637477874756e-01,-7.692252844572067261e-02
-4.796901643276214600e-01,-3.027935326099395752e-01,5.204335227608680725e-02,-6.320174038410186768e-02,1.584716588258743286e-01,2.659572064876556396e-01,-7.475086301565170288e-02,8.929929882287979126e-02,3.470737636089324951e-01,-7.208585739135742188e-02
-7.217111587524414062e-01,-8.510199189186096191e-01,5.790483579039573669e-02,-6.877335906028747559e-02,1.138226091861724854e-01,3.090847730636596680e-01,-9.000562131404876709e-02,1.017196625471115112e-01,3.533380627632141113e-01,-8.708412200212478638e-02
-8.205268979072570801e-01,-2.659039974212646484e+00,1.054405719041824341e-01,2.529474534094333649e-02,1.091128736734390259e-01,3.526753783226013184e-01,-4.297290742397308350e-02,1.321458071470260620e-01,3.830078244209289551e-01,-1.609538495540618896e-02
-6.709862351417541504e-01,-2.242228507995605469e+00,9.092640131711959839e-02,9.998232126235961914e-02,4.331704229116439819e-02,2.677576243877410889e-01,-5.386870726943016052e-02,3.789135441184043884e-02,3.269973397254943848e-01,3.130807727575302124e-02
-8.181828856468200684e-01,-1.183421611785888672e+00,8.840230852365493774e-02,1.815939992666244507e-01,7.297429256141185760e-03,1.750143617391586304e-01,-3.983758017420768738e-02,-3.351406380534172058e-02,2.651716172695159912e-01,1.064941510558128357e-01
-9.486553668975830078e-01,-6.956962347030639648e-01,6.384813785552978516e-02,2.146724611520767212e-01,-1.387035008519887924e-02,9.270631521940231323e-02,-3.068648651242256165e-02,-6.506459414958953857e-02,1.842930614948272705e-01,1.301214993000030518e-01
-1.702683568000793457e-01,-3.449082672595977783e-01,1.309069991111755371e-02,1.745502948760986328e-01,-4.492463544011116028e-02,7.271915092132985592e-04,-5.462122708559036255e-02,-9.627011418342590332e-02,8.330722153186798096e-02,9.647795557975769043e-02
1.146247610449790955e-02,1.240937318652868271e-02,-8.734430074691772461e-01,2.224458903074264526e-01,4.597806930541992188e-02,6.019843369722366333e-02,3.920126333832740784e-02,-1.668220572173595428e-02,1.136824786663055420e-01,1.471848785877227783e-01
-8.331113308668136597e-02,-7.122270762920379639e-02,-4.743505641818046570e-02,5.668225139379501343e-02,-6.136601418256759644e-02,-5.571568384766578674e-02,-5.972343310713768005e-02,-1.048596203327178955e-01,-3.099047206342220306e-02,-1.135879647335968912e-04
-2.620630525052547455e-02,-1.791914701461791992e-01,-4.014011025428771973e-01,5.235776305198669434e-02,-2.646237425506114960e-02,-2.098125033080577850e-02,-1.676732487976551056e-02,-4.310511797666549683e-02,-9.519930928945541382e-03,1.094290893524885178e-02
1.940953433513641357e-01,2.352344840764999390e-01,3.269249498844146729e-01,-1.235505342483520508e+00,3.406148031353950500e-02,7.705225795507431030e-02,-1.707077324390411377e-01,1.180603027343750000e+00,4.322522580623626709e-01,-5.499497801065444946e-02
-3.257057368755340576e-01,-1.968006603419780731e-02,-9.898269176483154297e-02,6.454277783632278442e-02,1.521055772900581360e-02,3.553500026464462280e-02,4.232846200466156006e-02,3.073829784989356995e-02,-2.555558383464813232e-01,-4.160874783992767334e-01
-1.980194300413131714e-01,2.113614976406097412e-01,-1.517969667911529541e-01,-1.030607581138610840e+00,2.547105550765991211e-01,9.467616081237792969e-01,5.347479581832885742e-01,6.097885370254516602e-01,-1.751276999711990356e-01,-5.320307612419128418e-01
1.638356894254684448e-01,7.784361839294433594e-01,-3.419700562953948975e-01,-4.036831557750701904e-01,1.084092035889625549e-01,8.121826648712158203e-01,4.882900416851043701e-01,-3.911610227078199387e-03,6.323502063751220703e-01,-8.812816739082336426e-01
-1.091686859726905823e-01,3.117835819721221924e-01,-1.577192097902297974e-01,2.953769862651824951e-01,-2.251176387071609497e-01,3.003138899803161621e-01,5.704920738935470581e-02,-1.603626012802124023e-01,1.141806319355964661e-01,-4.747449159622192383e-01
-2.698016166687011719e-02,-1.031848862767219543e-01,-1.674693673849105835e-01,-1.462886929512023926e-01,-1.248324140906333923e-01,-3.245977312326431274e-02,-8.865684270858764648e-02,-2.599470317363739014e-02,-1.447619348764419556e-01,-7.362835854291915894e-02
-1.327809970825910568e-02,-2.868337789550423622e-03,-1.191742867231369019e-01,-2.944075874984264374e-02,-1.924688220024108887e-01,-5.605662614107131958e-02,-8.135827258229255676e-03,-5.716885626316070557e-02,-8.151353336870670319e-03,-1.147418990731239319e-01
-1.682200133800506592e-01,-1.555712372064590454e-01,3.592843413352966309e-01,4.649241566658020020e-01,-2.983761727809906006e-01,-6.132443547248840332e-01,-1.294752061367034912e-01,-7.126760482788085938e-01,7.858295738697052002e-02,7.451114654541015625e-01
-7.171256095170974731e-02,-4.898883998394012451e-01,6.337929964065551758e-01,2.430161386728286743e-01,-3.244559466838836670e-01,-5.174910426139831543e-01,-5.991273522377014160e-01,9.134648442268371582e-01,4.330168664455413818e-01,3.296954790130257607e-03
-9.354897588491439819e-02,-2.405186444520950317e-01,3.952556550502777100e-01,2.643994688987731934e-01,-2.655757069587707520e-01,-3.846830129623413086e-01,-1.122933626174926758e-01,3.096142709255218506e-01,-2.211046069860458374e-01,6.091548204421997070e-01
-6.460890769958496094e-01,-2.740664780139923096e-01,-1.766467392444610596e-01,2.748532295227050781e-01,-2.865009009838104248e-01,2.416432350873947144e-01,1.599383056163787842e-01,2.374227344989776611e-01,-1.980424076318740845e-01,5.016140267252922058e-02
-4.664089158177375793e-02,-5.471013486385345459e-02,-5.679279193282127380e-02,-1.255303472280502319e-01,6.838585250079631805e-03,-4.060945287346839905e-02,-2.187614738941192627e-01,-4.975936934351921082e-02,-2.195006608963012695e-02,-5.580611899495124817e-02
-3.534950315952301025e-02,-4.945667460560798645e-02,-4.334334284067153931e-02,-4.596703052520751953e-01,7.268613576889038086e-02,-2.336228825151920319e-02,-2.139033526182174683e-01,-3.341435641050338745e-02,3.171741589903831482e-02,-4.873919486999511719e-02
-4.769013449549674988e-02,-7.468846440315246582e-02,-4.708322137594223022e-02,-6.355551481246948242e-01,1.470794528722763062e-01,-2.198728732764720917e-02,-3.559279739856719971e-01,-4.072901606559753418e-02,8.990871906280517578e-02,-6.901831924915313721e-02
-1.103520579636096954e-02,-5.708503350615501404e-02,1.221380545757710934e-03,-8.071712851524353027e-01,2.795777618885040283e-01,4.001928120851516724e-02,-1.564043015241622925e-01,-9.415557608008384705e-03,2.079229652881622314e-01,-4.348244518041610718e-02
-9.474009275436401367e-02,-1.495618820190429688e-01,-2.897766046226024628e-02,-4.137997031211853027e-01,3.124087452888488770e-01,1.669815555214881897e-02,-1.191266849637031555e-01,-7.551150023937225342e-02,2.273555546998977661e-01,-1.180059686303138733e-01
-1.499264538288116455e-01,-1.926708668470382690e-01,6.408087909221649170e-03,-2.541140317916870117e-01,3.777785301208496094e-01,5.176845192909240723e-02,-1.206475347280502319e-01,-7.247167080640792847e-02,2.829813659191131592e-01,-1.635190397500991821e-01
-1.834051311016082764e-01,-2.206422239542007446e-01,8.408545702695846558e-02,-2.018124312162399292e-01,4.345986843109130859e-01,1.547462344169616699e-01,-4.739130660891532898e-02,5.279878154397010803e-03,3.488464653491973877e-01,-1.794545203447341919e-01
-2.473421692848205566e-01,-3.374962806701660156e-01,1.554403901100158691e-01,-2.024659365415573120e-01,4.247632622718811035e-01,2.226515561342239380e-01,3.635950386524200439e-02,9.984384477138519287e-02,3.685114681720733643e-01,-2.169844210147857666e-01
-2.816675603389739990e-01,-4.822182655334472656e-01,2.738398313522338867e-01,-7.079437375068664551e-02,4.460653662681579590e-01,2.939686775207519531e-01,1.829292327165603638e-01,2.595917582511901855e-01,4.420291781425476074e-01,-1.523518562316894531e-01
-3.927538990974426270e-01,-7.022903561592102051e-01,2.623034715652465820e-01,1.050293818116188049e-02,3.391930162906646729e-01,1.813675761222839355e-01,1.994719058275222778e-01,2.058186978101730347e-01,3.941795229911804199e-01,-1.290889233350753784e-01
-2.283380180597305298e-01,-7.301924824714660645e-01,2.882454395294189453e-01,1.645204126834869385e-01,2.723156809806823730e-01,8.365947008132934570e-02,2.492757588624954224e-01,7.777424901723861694e-02,3.929324448108673096e-01,5.580127239227294922e-02
-1.961583644151687622e-01,-6.489393115043640137e-01,2.487140148878097534e-01,2.353703379631042480e-01,1.548143178224563599e-01,-3.641348332166671753e-02,2.334192246198654175e-01,-1.074366569519042969e-01,3.240843415260314941e-01,1.930215209722518921e-01
-1.781324148178100586e-01,-5.598399639129638672e-01,1.739153563976287842e-01,2.494629174470901489e-01,3.660610318183898926e-02,-1.197156384587287903e-01,1.841338127851486206e-01,-2.082192003726959229e-01,2.144291996955871582e-01,2.164350152015686035e-01
-1.824150234460830688e-01,-2.150223702192306519e-01,8.773397654294967651e-02,2.164114564657211304e-01,-4.697878658771514893e-02,-1.619756221771240234e-01,1.131610125303268433e-01,-3.043371140956878662e-01,9.685499221086502075e-02,1.329659372568130493e-01
-1.304428577423095703e-01,-1.283357441425323486e-01,3.860266134142875671e-02,1.964031010866165161e-01,-5.273652821779251099e-02,-1.291323602199554443e-01,8.170476555824279785e-02,-4.634312689304351807e-01,4.035633057355880737e-02,8.472343534231185913e-02
-6.397287547588348389e-02,-4.545043408870697021e-02,1.943931728601455688e-02,1.718517988920211792e-01,-1.758072897791862488e-02,-6.383517384529113770e-02,7.754903286695480347e-02,-4.460130035877227783e-01,1.733336038887500763e-02,5.637004226446151733e-02
-6.614056974649429321e-02,-5.371326208114624023e-02,-4.136713594198226929e-02,9.117645025253295898e-02,-4.758156463503837585e-02,-6.843144446611404419e-02,2.054575830698013306e-02,-5.233101844787597656e-01,-4.241104423999786377e-02,-1.288072485476732254e-02
-6.369307637214660645e-02,-4.819010198116302490e-02,-6.238138675689697266e-02,3.125061839818954468e-02,-4.983668401837348938e-02,-6.126061454415321350e-02,-1.244287006556987762e-02,-1.136899232864379883e+00,-5.915821343660354614e-02,-3.606548905372619629e-02
-3.877171128988265991e-02,-1.096265483647584915e-02,-3.372025862336158752e-02,3.053118847310543060e-02,-3.349232971668243408e-01,-1.646189391613006592e-02,9.290430694818496704e-03,-1.314041018486022949e+00,-1.953058876097202301e-02,-1.023038104176521301e-02
-4.743583127856254578e-02,1.171110291033983231e-02,-1.724440902471542358e-01,2.485005185008049011e-02,-3.410063218325376511e-04,6.717362906783819199e-03,9.900370612740516663e-03,-9.023591279983520508e-01,4.282414447516202927e-03,-1.376664191484451294e-01
1.031930327415466309e+00,2.540797591209411621e-01,1.662976384162902832e+00,-1.125175476074218750e+00,-4.647800624370574951e-01,1.241121888160705566e+00,-1.229031085968017578e+00,2.959878183901309967e-02,1.106642603874206543e+00,1.235930621623992920e-01
-1.418057233095169067e-01,4.964867830276489258e-01,6.155115365982055664e-02,-6.108812093734741211e-01,5.007259175181388855e-02,3.224039971828460693e-01,-5.217685103416442871e-01,-2.208333760499954224e-01,2.474540024995803833e-01,1.797866821289062500e-01
-3.425039350986480713e-02,-1.902489811182022095e-01,-1.679356396198272705e-01,-3.485831990838050842e-02,-8.394701033830642700e-02,-9.837117046117782593e-02,-4.502646997570991516e-02,-8.327427506446838379e-02,-1.219627782702445984e-01,-5.886527150869369507e-02
-9.623147547245025635e-03,2.120511829853057861e-01,-2.124055474996566772e-02,-6.762732267379760742e-01,-1.230194568634033203e-01,-7.823918014764785767e-03,2.242655903100967407e-01,-6.793917715549468994e-02,1.341278403997421265e-01,2.258656024932861328e-01
3.725466132164001465e-01,-3.972934484481811523e-01,4.028010666370391846e-01,2.592138350009918213e-01,1.786471307277679443e-01,-4.654698967933654785e-01,-3.239673972129821777e-01,-8.325888514518737793e-01,-1.000787317752838135e-01,3.790494799613952637e-01
-4.699126183986663818e-01,3.435504138469696045e-01,7.350906133651733398e-01,1.513897180557250977e-01,-2.550112605094909668e-01,-2.171328850090503693e-02,-5.898462533950805664e-01,2.896453998982906342e-02,3.948633074760437012e-01,2.514723241329193115e-01
-8.817421644926071167e-02,6.343730092048645020e-01,-2.270368039608001709e-01,6.208997368812561035e-01,-6.536874771118164062e-01,-2.360622882843017578e-01,8.645275235176086426e-02,5.676600933074951172e-01,-5.145550966262817383e-01,6.158563494682312012e-01
1.564732789993286133e-01,-4.226675033569335938e-01,-8.004630208015441895e-01,2.381113171577453613e-02,2.057093679904937744e-01,-2.514385282993316650e-01,-3.383083641529083252e-01,1.456335335969924927e-01,-5.013217329978942871e-01,1.323727220296859741e-01
2.309160493314266205e-02,-1.320625189691781998e-03,-5.840834379196166992e-01,-3.293829560279846191e-01,1.297712773084640503e-01,9.630781598389148712e-03,-1.683065146207809448e-01,3.559590317308902740e-03,5.372097343206405640e-02,-7.453203666955232620e-03
9.851584210991859436e-03,-2.489595673978328705e-02,-1.567572727799415588e-02,-9.961808919906616211e-01,2.118924707174301147e-01,-2.372595015913248062e-03,-2.771078050136566162e-01,-8.993218652904033661e-03,1.013144478201866150e-01,-3.033023141324520111e-02
2.274599485099315643e-02,-3.297386318445205688e-02,1.778122037649154663e-02,-1.611292958259582520e+00,3.403932154178619385e-01,1.869860291481018066e-02,-3.184156492352485657e-02,-6.442223675549030304e-03,1.981530487537384033e-01,-3.882780298590660095e-02
1.587647199630737305e-02,-7.199759781360626221e-02,4.469159990549087524e-02,-2.148174762725830078e+00,4.437420964241027832e-01,3.004275634884834290e-02,-4.292709752917289734e-02,-4.322992637753486633e-02,2.631687223911285400e-01,-7.206752896308898926e-02
-3.713948279619216919e-02,-1.505028307437896729e-01,7.143025100231170654e-02,-1.023442745208740234e+00,4.874030351638793945e-01,3.007521294057369232e-02,-3.603574633598327637e-02,-1.046523973345756531e-01,2.777067422866821289e-01,-1.459320187568664551e-01
-4.029877111315727234e-02,-1.549921780824661255e-01,1.826390624046325684e-01,-4.043597280979156494e-01,5.455492138862609863e-01,1.314566582441329956e-01,9.751559793949127197e-02,-5.896250531077384949e-02,3.329601585865020752e-01,-1.597979217767715454e-01
-6.646890193223953247e-02,-1.735538542270660400e-01,2.830846905708312988e-01,-2.263806760311126709e-01,5.294633507728576660e-01,2.408575117588043213e-01,2.563638389110565186e-01,2.832674421370029449e-02,3.402575552463531494e-01,-2.005647271871566772e-01
-8.532028645277023315e-02,-1.722683310508728027e-01,3.683390319347381592e-01,-1.372856497764587402e-01,4.999022185802459717e-01,2.878543138504028320e-01,4.047680795192718506e-01,1.994381844997406006e-01,3.404919207096099854e-01,-2.267905920743942261e-01
-1.335405856370925903e-01,-2.013487815856933594e-01,3.840406835079193115e-01,-2.111365320160984993e-03,4.402798414230346680e-01,2.041541486978530884e-01,4.571319520473480225e-01,3.267994225025177002e-01,3.033692538738250732e-01,-2.347956299781799316e-01
-1.321823000907897949e-01,-1.727631837129592896e-01,4.093350768089294434e-01,1.732784062623977661e-01,4.293573796749114990e-01,7.222251594066619873e-02,4.909340739250183105e-01,3.330102562904357910e-01,3.195972144603729248e-01,-1.007913127541542053e-01
-1.225679665803909302e-01,-1.411337703466415405e-01,4.156751930713653564e-01,2.802034020423889160e-01,3.969034254550933838e-01,-6.430239975452423096e-02,4.955963492393493652e-01,1.448389291763305664e-01,3.374379575252532959e-01,1.279892921447753906e-01
-1.667878329753875732e-01,-1.705881208181381226e-01,3.471327722072601318e-01,2.675554752349853516e-01,2.533462047576904297e-01,-2.171004265546798706e-01,4.204311966896057129e-01,-1.558139175176620483e-01,2.772825658321380615e-01,2.371760159730911255e-01
-1.658087670803070068e-01,-1.538054347038269043e-01,3.142217099666595459e-01,2.735979557037353516e-01,1.259744465351104736e-01,-2.643091976642608643e-01,3.723262548446655273e-01,-2.868090867996215820e-01,2.310918271541595459e-01,2.531611621379852295e-01
-1.623037308454513550e-01,-1.237632259726524353e-01,2.491620630025863647e-01,2.751890718936920166e-01,2.090277150273323059e-02,-2.427854239940643311e-01,3.164593577384948730e-01,-6.110066771507263184e-01,1.577160954475402832e-01,1.680385619401931763e-01
-1.084335669875144958e-01,-5.946297571063041687e-02,1.932496279478073120e-01,2.871623635292053223e-01,-1.502412371337413788e-02,-1.682168841361999512e-01,2.639528810977935791e-01,-1.504256129264831543e+00,1.080213859677314758e-01,1.140933781862258911e-01
-1.051958650350570679e-01,-6.084795668721199036e-02,6.907220929861068726e-02,2.262483686208724976e-01,-5.793352797627449036e-02,-1.335372924804687500e-01,1.649447083473205566e-01,-1.943105101585388184e+00,9.231608361005783081e-03,1.467609405517578125e-02
-4.754313826560974121e-02,-1.422157604247331619e-02,2.305812574923038483e-02,2.035947144031524658e-01,-3.138754889369010925e-02,-6.477136909961700439e-02,1.250205487012863159e-01,-2.030745267868041992e+00,-1.195448264479637146e-02,6.570988334715366364e-03
-4.744152352213859558e-02,-2.458479814231395721e-02,-3.542083501815795898e-02,1.127441376447677612e-01,-3.684221953153610229e-02,-5.134670436382293701e-02,5.067978426814079285e-02,-2.542136192321777344e+00,-4.566308856010437012e-02,-1.972758583724498749e-02
-2.842399664223194122e-02,-1.743235811591148376e-02,-3.013548552989959717e-01,6.628201901912689209e-02,-2.004021592438220978e-02,-2.067536674439907074e-02,2.655722759664058685e-02,-6.907048225402832031e+00,-3.302985057234764099e-02,-9.685453027486801147e-03
-4.754978418350219727e-02,-3.672277182340621948e-02,-1.427620500326156616e-01,-1.227261871099472046e-02,-3.944212570786476135e-02,-4.220444336533546448e-02,-2.336496300995349884e-02,-4.849976539611816406e+00,-4.913606867194175720e-02,-3.152836859226226807e-02
1.262715697288513184e+00,1.061905384063720703e+00,3.943528831005096436e-01,-1.522060275077819824e+00,-2.417360842227935791e-01,5.965976715087890625e-01,-1.131286621093750000e+00,1.471823547035455704e-02,1.475740313529968262e+00,3.373025357723236084e-01
3.539740741252899170e-01,6.429706215858459473e-01,1.137489080429077148e-01,-4.554281532764434814e-01,-1.310838162899017334e-01,6.449813246726989746e-01,-7.368432879447937012e-01,-6.600339710712432861e-02,-2.536454796791076660e-01,2.313011586666107178e-01
-1.306226849555969238e-01,-4.951016046106815338e-03,-1.860454827547073364e-01,-5.556198302656412125e-03,-6.778114475309848785e-04,-8.268930763006210327e-02,-2.074895948171615601e-01,-1.562159806489944458e-01,-7.041454082354903221e-04,-2.284754626452922821e-02
3.034174442291259766e-02,6.046816110610961914e-01,-1.502955704927444458e-01,-8.890773653984069824e-01,3.634918034076690674e-01,-3.673074245452880859e-01,3.733851015567779541e-01,-1.338168084621429443e-01,4.456501007080078125e-01,-3.025887012481689453e-01
3.040014505386352539e-01,-6.662120819091796875e-01,5.087007880210876465e-01,-7.578373551368713379e-01,1.289255768060684204e-01,1.565398871898651123e-01,-1.091650053858757019e-01,-7.400130629539489746e-01,4.860058128833770752e-01,-9.810394793748855591e-02
-6.881217360496520996e-01,3.409459888935089111e-01,6.802756190299987793e-01,-3.041502274572849274e-02,-1.201196983456611633e-01,-3.986232876777648926e-01,-5.787696838378906250e-01,2.424775362014770508e-01,-2.015640884637832642e-01,7.102897763252258301e-01
5.896969139575958252e-02,4.803942516446113586e-02,-1.877198517322540283e-01,-4.285168275237083435e-02,7.697659730911254883e-02,4.170180484652519226e-02,-1.682484894990921021e-01,1.124336011707782745e-02,-5.668652057647705078e-01,1.307726185768842697e-02
8.697820454835891724e-02,6.568580865859985352e-02,2.441702224314212799e-02,-4.995111525058746338e-01,-6.568673849105834961e-01,2.228965982794761658e-02,-1.035882681608200073e-01,3.171979263424873352e-02,7.010535150766372681e-02,3.867708891630172729e-02
5.058459565043449402e-02,2.023935690522193909e-02,-9.291213937103748322e-03,-1.303564906120300293e+00,1.710307449102401733e-01,-2.994920825585722923e-03,-1.947486847639083862e-01,-1.293411012738943100e-02,6.140396371483802795e-02,-1.647844538092613220e-02
4.026396200060844421e-02,-5.856943782418966293e-03,-1.570768654346466064e-02,-3.071133613586425781e+00,2.356439828872680664e-01,-3.409372642636299133e-02,-5.879459530115127563e-02,-4.744537547230720520e-02,9.902447462081909180e-02,-6.145576015114784241e-02
1.113353893160820007e-01,2.581735514104366302e-02,7.493297010660171509e-02,-4.138041496276855469e+00,3.699545264244079590e-01,1.267826836556196213e-02,-1.518255285918712616e-02,-2.453526481986045837e-02,2.079751938581466675e-01,-5.699630826711654663e-02
1.121476814150810242e-01,-2.798044309020042419e-02,1.132530272006988525e-01,-3.719911336898803711e+00,3.931557536125183105e-01,2.594733610749244690e-03,-3.529788693413138390e-03,-9.886810928583145142e-02,2.050366997718811035e-01,-1.387787610292434692e-01
1.822629272937774658e-01,1.627253368496894836e-02,2.584150433540344238e-01,-1.067570209503173828e+00,4.464427530765533447e-01,1.139407828450202942e-01,1.705460399389266968e-01,-7.983446121215820312e-02,2.562602758407592773e-01,-1.376408487558364868e-01
1.573573797941207886e-01,2.272512204945087433e-02,3.475676178932189941e-01,-3.637497127056121826e-01,3.795889317989349365e-01,2.107616364955902100e-01,3.287210464477539062e-01,-7.492239773273468018e-02,2.233748584985733032e-01,-1.998561620712280273e-01
1.303409039974212646e-01,6.862136721611022949e-02,4.144262373447418213e-01,-1.640646010637283325e-01,2.934080958366394043e-01,3.025280833244323730e-01,4.825859069824218750e-01,2.601976878941059113e-02,1.890342235565185547e-01,-2.341935336589813232e-01
9.460960328578948975e-02,1.070667579770088196e-01,4.154112339019775391e-01,2.170835249125957489e-02,2.164645940065383911e-01,2.641716599464416504e-01,5.224008560180664062e-01,2.233060747385025024e-01,1.374714076519012451e-01,-2.561064064502716064e-01
9.540349245071411133e-02,1.636921763420104980e-01,4.199285805225372314e-01,2.485179603099822998e-01,2.263883054256439209e-01,1.497159153223037720e-01,4.928881525993347168e-01,4.352127909660339355e-01,1.321044266223907471e-01,-1.852075010538101196e-01
8.949349075555801392e-02,1.789463460445404053e-01,3.906331360340118408e-01,3.557903766632080078e-01,2.632652223110198975e-01,-2.650408446788787842e-02,4.270766973495483398e-01,4.261919260025024414e-01,1.421749889850616455e-01,-8.492063730955123901e-03
6.056515127420425415e-02,1.613846719264984131e-01,3.517001569271087646e-01,3.349083662033081055e-01,2.706669569015502930e-01,-1.905796527862548828e-01,3.529545962810516357e-01,1.637258827686309814e-01,1.567533612251281738e-01,2.042065113782882690e-01
3.945033997297286987e-02,1.625975221395492554e-01,3.516625165939331055e-01,2.964498400688171387e-01,2.329555451869964600e-01,-2.812933921813964844e-01,3.365641534328460693e-01,-1.344260871410369873e-01,2.147831916809082031e-01,3.349940478801727295e-01
-2.503432519733905792e-02,1.659636348485946655e-01,3.616227507591247559e-01,2.612796425819396973e-01,1.350315362215042114e-01,-3.100631833076477051e-01,3.432110548019409180e-01,-3.014027178287506104e-01,2.337692826986312866e-01,2.915614247322082520e-01
-8.255765587091445923e-02,1.464255303144454956e-01,3.632646501064300537e-01,2.624364495277404785e-01,3.045562840998172760e-02,-2.815762162208557129e-01,3.433269858360290527e-01,-7.043844461441040039e-01,2.092139273881912231e-01,1.662524193525314331e-01
-9.430205821990966797e-02,1.081424579024314880e-01,3.192524313926696777e-01,2.940130829811096191e-01,-3.996167331933975220e-02,-2.128535658121109009e-01,2.956542372703552246e-01,-3.215028047561645508e+00,1.379822194576263428e-01,6.515801697969436646e-02
-1.427971720695495605e-01,5.570954643189907074e-03,1.543696671724319458e-01,2.356188297271728516e-01,-1.216264665126800537e-01,-1.981183439493179321e-01,1.646714806556701660e-01,-5.016440391540527344e+00,-2.818755805492401123e-03,-5.106716603040695190e-02
-8.721156418323516846e-02,-2.633163472637534142e-03,6.660503149032592773e-02,2.197514176368713379e-01,-8.900586515665054321e-02,-1.118998602032661438e-01,1.180291995406150818e-01,-2.419722318649291992e+00,-3.328183665871620178e-02,-4.253627732396125793e-02
-1.230527088046073914e-02,3.576438501477241516e-02,3.178684040904045105e-02,1.972615122795104980e-01,-1.706863008439540863e-02,-1.705211400985717773e-02,1.075627356767654419e-01,-6.767011642456054688e+00,-1.057788170874118805e-02,3.064980171620845795e-02
-4.362013563513755798e-02,-1.856511645019054413e-02,-8.620872348546981812e-02,7.782948762178421021e-02,-4.497455805540084839e-02,-3.902293741703033447e-02,1.897336915135383606e-02,-6.889450550079345703e+00,-5.118552967905998230e-02,-3.782260231673717499e-03
-3.801334276795387268e-02,-2.505341358482837677e-02,-4.016371816396713257e-02,3.044800832867622375e-03,-1.444304138422012329e-01,-3.438659384846687317e-02,-1.412841584533452988e-02,-4.688723087310791016e+00,-4.111378267407417297e-02,-1.761222630739212036e-02
1.011759877204895020e+00,4.795457124710083008e-01,-4.652817249298095703e-01,-1.184134006500244141e+00,6.050022244453430176e-01,5.269128084182739258e-02,-8.656340837478637695e-01,3.750775754451751709e-01,1.381827950477600098e+00,3.858187198638916016e-01
1.156299747526645660e-02,1.177563220262527466e-01,5.611867308616638184e-01,-3.347776830196380615e-01,4.128914475440979004e-01,5.640183091163635254e-01,-3.065277040004730225e-01,1.427391823381185532e-02,1.575329452753067017e-01,-1.470018625259399414e-01
-5.195913463830947876e-02,-5.974781513214111328e-01,-9.041596949100494385e-02,3.131004273891448975e-01,-3.523495048284530640e-02,2.719768285751342773e-01,-2.405161038041114807e-02,-1.362973004579544067e-01,3.153851330280303955e-01,1.404359489679336548e-01
-8.567675948143005371e-02,-5.038443207740783691e-01,-1.023653745651245117e-01,-6.909404993057250977e-01,6.545329093933105469e-01,-3.656280413269996643e-02,-5.031184554100036621e-01,2.378370463848114014e-01,2.812702953815460205e-01,-7.862898111343383789e-01
-1.641132533550262451e-01,3.414192497730255127e-01,1.056364893913269043e+00,-2.553481757640838623e-01,-2.899602651596069336e-01,-4.635752141475677490e-01,6.700816154479980469e-01,-3.315987810492515564e-02,-6.093754768371582031e-01,-3.204766511917114258e-01
5.408677458763122559e-02,3.884451463818550110e-02,-4.457584321498870850e-01,-2.617230266332626343e-02,4.278973862528800964e-02,-6.040587648749351501e-02,-3.082628361880779266e-02,1.865364983677864075e-02,-7.459161281585693359e-01,-5.246760789304971695e-03
-5.501040816307067871e-01,1.281188130378723145e-01,-2.980415523052215576e-01,5.418597254902124405e-03,1.495050787925720215e-01,1.135837137699127197e-01,-2.138935029506683350e-02,1.991127990186214447e-02,-2.083491235971450806e-01,5.311184376478195190e-02
1.601105630397796631e-01,1.243060454726219177e-01,8.587143570184707642e-02,-8.550112843513488770e-01,1.761756390333175659e-01,-8.138394355773925781e-02,-4.627596139907836914e-01,7.980117946863174438e-02,-8.073222637176513672e-01,6.672335416078567505e-02
1.170053407549858093e-01,7.209157198667526245e-02,1.911011524498462677e-02,-2.153032064437866211e+00,1.690868437290191650e-01,3.399812849238514900e-03,-3.003984093666076660e-01,-5.315061658620834351e-03,7.508479058742523193e-02,-1.172386016696691513e-02
1.412544995546340942e-01,7.148568332195281982e-02,5.227767303586006165e-02,-3.832569837570190430e+00,1.985513269901275635e-01,-2.245845645666122437e-02,-4.630581289529800415e-02,-5.269116908311843872e-02,9.054961800575256348e-02,-7.209318131208419800e-02
2.686983346939086914e-01,1.293865740299224854e-01,1.860972344875335693e-01,-4.392591953277587891e+00,2.885289788246154785e-01,2.804053761065006256e-02,2.573821134865283966e-02,-4.358722642064094543e-02,1.602350026369094849e-01,-7.792412489652633667e-02
3.448031544685363770e-01,1.567676365375518799e-01,2.975331842899322510e-01,-2.019537210464477539e+00,2.901465892791748047e-01,8.090927451848983765e-02,1.368738114833831787e-01,-8.419817686080932617e-02,1.522384583950042725e-01,-1.373087465763092041e-01
3.027409613132476807e-01,1.574462205171585083e-01,3.349020481109619141e-01,-7.748990654945373535e-01,1.551461666822433472e-01,1.170817613601684570e-01,2.420324087142944336e-01,-1.807545572519302368e-01,4.764013364911079407e-02,-2.429121583700180054e-01
2.392348945140838623e-01,2.433471977710723877e-01,3.814093768596649170e-01,-2.422370016574859619e-01,3.933550789952278137e-02,2.295811325311660767e-01,3.857188522815704346e-01,-1.732906848192214966e-01,-1.435844320803880692e-02,-2.893165051937103271e-01
2.179798483848571777e-01,3.820871412754058838e-01,4.174121022224426270e-01,3.439561650156974792e-02,-2.264697337523102760e-03,3.296515345573425293e-01,4.810991585254669189e-01,3.451077791396528482e-04,-4.073857795447111130e-03,-2.329676449298858643e-01
1.798917800188064575e-01,4.247908592224121094e-01,3.664090037345886230e-01,3.117641806602478027e-01,-2.983356267213821411e-02,2.442145794630050659e-01,3.894824981689453125e-01,2.564206719398498535e-01,-2.173412591218948364e-02,-1.947945356369018555e-01
1.964781880378723145e-01,4.347437918186187744e-01,3.362973332405090332e-01,4.937001764774322510e-01,3.730977699160575867e-02,9.274962544441223145e-02,2.683098912239074707e-01,5.171079635620117188e-01,-7.272843504324555397e-04,-6.475006788969039917e-02
2.057585269212722778e-01,3.893083333969116211e-01,2.832171320915222168e-01,4.672293961048126221e-01,1.236962005496025085e-01,-7.820958644151687622e-02,1.606376320123672485e-01,4.969922006130218506e-01,1.048131845891475677e-02,1.564959138631820679e-01
2.119776159524917603e-01,3.199314475059509277e-01,2.196507751941680908e-01,3.240212202072143555e-01,1.623308509588241577e-01,-2.279023975133895874e-01,8.354797214269638062e-02,1.915488094091415405e-01,3.607225418090820312e-02,3.518937528133392334e-01
2.066722065210342407e-01,3.162576258182525635e-01,2.179327309131622314e-01,2.102045416831970215e-01,1.596246808767318726e-01,-2.995443642139434814e-01,1.067701205611228943e-01,-1.294289082288742065e-01,1.355195045471191406e-01,4.053688049316406250e-01
1.652462333440780640e-01,3.941739201545715332e-01,3.095497190952301025e-01,1.955782920122146606e-01,1.227460354566574097e-01,-2.749823927879333496e-01,2.307595759630203247e-01,-2.765354514122009277e-01,2.579955160617828369e-01,3.199992477893829346e-01
3.371777012944221497e-02,3.648349940776824951e-01,3.844371140003204346e-01,2.056835293769836426e-01,1.311685889959335327e-02,-2.640551924705505371e-01,2.912705242633819580e-01,-8.728339076042175293e-01,2.553184032440185547e-01,1.319093704223632812e-01
-6.169239059090614319e-02,2.602042853832244873e-01,4.045675694942474365e-01,2.396515011787414551e-01,-8.799865096807479858e-02,-2.281057387590408325e-01,2.550450861454010010e-01,-4.642889499664306641e+00,1.589363515377044678e-01,2.999395597726106644e-03
-6.265815347433090210e-02,1.647798866033554077e-01,3.537721335887908936e-01,2.729591429233551025e-01,-8.963147550821304321e-02,-1.408226191997528076e-01,2.076865881681442261e-01,-4.982908248901367188e+00,7.697242498397827148e-02,-1.031596958637237549e-02
-4.793863371014595032e-02,7.642198354005813599e-02,2.122757136821746826e-01,2.352042198181152344e-01,-7.350830733776092529e-02,-7.787199318408966064e-02,1.370866298675537109e-01,-3.261626243591308594e+00,1.134518999606370926e-02,-2.258545719087123871e-03
3.338229283690452576e-02,9.119126200675964355e-02,-1.610548257827758789e+00,2.334962338209152222e-01,-7.780031114816665649e-02,2.682854048907756805e-02,1.436299532651901245e-01,-2.842293500900268555e+00,3.699569404125213623e-02,9.043196588754653931e-02
-5.883381515741348267e-02,-2.772193402051925659e-02,-2.197810113430023193e-01,5.314412713050842285e-02,-9.306304156780242920e-02,-6.299738585948944092e-02,-4.996661096811294556e-03,-1.211412191390991211e+00,-6.411345303058624268e-02,-5.458498839288949966e-03
-2.653246931731700897e-02,-7.066344376653432846e-03,-2.804597094655036926e-02,1.476648356765508652e-02,-5.680982470512390137e-01,-2.548611722886562347e-02,1.038312446326017380e-03,-2.598004043102264404e-01,-7.763855159282684326e-02,3.231760347262024879e-03
2.466441690921783447e-01,1.030570983886718750e+00,1.898832321166992188e-01,-1.738568902015686035e+00,3.772526606917381287e-02,5.815528631210327148e-01,-1.009472131729125977e+00,7.344146370887756348e-01,1.791442036628723145e+00,-2.163701057434082031e-01
4.776853322982788086e-01,-6.589416861534118652e-01,1.948353946208953857e-01,7.913398146629333496e-01,5.474671125411987305e-01,5.748861432075500488e-01,-4.399748444557189941e-01,-1.077040284872055054e-01,4.963203072547912598e-01,-5.297569036483764648e-01
3.875016793608665466e-02,-5.749495029449462891e-01,-1.833993494510650635e-01,2.108355462551116943e-01,6.115137413144111633e-02,-1.987008005380630493e-02,-1.540261227637529373e-02,2.089499831199645996e-01,-1.036622598767280579e-01,1.217326596379280090e-01
-2.337565869092941284e-01,-5.705146789550781250e-01,8.798541873693466187e-02,5.500299930572509766e-01,7.359232306480407715e-01,2.067946456372737885e-02,-5.093991756439208984e-01,3.953593373298645020e-01,-6.396847218275070190e-02,3.664857745170593262e-01
3.013016888871788979e-03,9.057321399450302124e-02,9.329205006361007690e-02,-2.801392376422882080e-01,4.840885475277900696e-02,-4.446387290954589844e-01,-2.145293354988098145e-02,7.004804909229278564e-02,-1.007754921913146973e+00,-2.335896044969558716e-01
1.234247535467147827e-01,9.685648232698440552e-02,-5.707287192344665527e-01,5.006308108568191528e-02,1.040943935513496399e-01,-1.000600904226303101e-01,3.876884281635284424e-02,7.561618834733963013e-02,-1.249127626419067383e+00,-3.760878369212150574e-02
5.711516737937927246e-02,2.588866464793682098e-02,2.639847574755549431e-03,-2.348272204399108887e-01,3.124312683939933777e-02,-1.319270813837647438e-03,-1.441784948110580444e-01,-1.718742586672306061e-02,1.282816519960761070e-03,-1.596744209527969360e-01
1.143401935696601868e-01,6.651883572340011597e-02,2.002756297588348389e-02,-1.168657183647155762e+00,7.728753238916397095e-02,5.417312961071729660e-03,-2.731651961803436279e-01,1.383105060085654259e-03,2.773949131369590759e-02,-4.173223078250885010e-01
1.538092643022537231e-01,7.837010920047760010e-02,4.557085409760475159e-02,-2.558505296707153320e+00,1.026769131422042847e-01,-1.006333623081445694e-02,-2.982962131500244141e-01,-3.733536228537559509e-02,4.073761776089668274e-02,-4.863282665610313416e-02
2.853064239025115967e-01,1.514192223548889160e-01,1.878627985715866089e-01,-3.018057584762573242e+00,1.692794114351272583e-01,3.253059834241867065e-02,7.410853169858455658e-03,-3.437372669577598572e-02,1.012974008917808533e-01,-5.023078620433807373e-02
3.557101786136627197e-01,1.533803641796112061e-01,2.743111550807952881e-01,-1.994856357574462891e+00,1.421616822481155396e-01,1.290888059884309769e-02,1.975914090871810913e-02,-1.119315624237060547e-01,5.149872228503227234e-02,-1.394091844558715820e-01
3.994972705841064453e-01,2.100006639957427979e-01,3.647485673427581787e-01,-1.084789276123046875e+00,8.221650123596191406e-02,6.619638204574584961e-02,1.312879472970962524e-01,-1.878035068511962891e-01,-2.647613920271396637e-02,-2.282922714948654175e-01
3.634794950485229492e-01,3.292702734470367432e-01,4.271538257598876953e-01,-2.294404506683349609e-01,-2.252546371892094612e-03,2.030821293592453003e-01,2.998396158218383789e-01,-2.171804457902908325e-01,-9.915066510438919067e-02,-2.611995637416839600e-01
2.561732232570648193e-01,4.552247822284698486e-01,4.132496416568756104e-01,-3.559649689123034477e-03,-7.363457977771759033e-02,3.478739559650421143e-01,4.128171801567077637e-01,-1.653009206056594849e-01,-1.285914033651351929e-01,-2.418899387121200562e-01
1.481121778488159180e-01,4.769049882888793945e-01,3.231383562088012695e-01,3.114804625511169434e-01,-1.212111711502075195e-01,3.294302523136138916e-01,3.328577280044555664e-01,-1.746901497244834900e-02,-1.450446397066116333e-01,-1.937116980552673340e-01
9.912019968032836914e-02,4.167127311229705811e-01,2.324531525373458862e-01,5.300004482269287109e-01,-9.538942575454711914e-02,1.752744466066360474e-01,1.473920047283172607e-01,2.622283995151519775e-01,-1.391453295946121216e-01,-1.236920952796936035e-01
1.060833111405372620e-01,3.420445919036865234e-01,1.670883148908615112e-01,5.428115725517272949e-01,4.225874785333871841e-03,-9.799638064578175545e-04,3.739275969564914703e-03,5.350411534309387207e-01,-1.126420348882675171e-01,3.933130204677581787e-02
1.511487066745758057e-01,2.621229290962219238e-01,1.039393171668052673e-01,3.825379312038421631e-01,1.068193316459655762e-01,-1.345635354518890381e-01,-7.259454578161239624e-02,5.064274072647094727e-01,-7.976033538579940796e-02,3.087276518344879150e-01
2.357367873191833496e-01,2.303228974342346191e-01,5.236919596791267395e-02,2.012219578027725220e-01,1.766947954893112183e-01,-2.150597274303436279e-01,-5.732808262109756470e-02,2.091786563396453857e-01,-2.566552022472023964e-03,4.915819168090820312e-01
3.198987543582916260e-01,3.069790899753570557e-01,6.295885890722274780e-02,8.876214176416397095e-02,1.783514171838760376e-01,-2.379996925592422485e-01,5.071137472987174988e-02,-9.876920282840728760e-02,1.455509662628173828e-01,4.780853390693664551e-01
2.259717881679534912e-01,3.697509169578552246e-01,1.062323823571205139e-01,2.431485243141651154e-02,4.586428776383399963e-02,-2.881136536598205566e-01,1.452614963054656982e-01,-3.157349824905395508e-01,2.246248871088027954e-01,2.286627143621444702e-01
1.474846601486206055e-01,4.430948793888092041e-01,3.189795315265655518e-01,1.299563348293304443e-01,-1.045962423086166382e-02,-2.055929154157638550e-01,2.799445986747741699e-01,-1.201972961425781250e+00,3.105110228061676025e-01,8.128160983324050903e-02
9.779369458556175232e-03,3.303545713424682617e-01,4.414652884006500244e-01,1.837987601757049561e-01,-9.934514760971069336e-02,-1.759961694478988647e-01,2.424089759588241577e-01,-6.564917564392089844e+00,2.019025683403015137e-01,-2.099638432264328003e-02
-7.499217987060546875e-02,1.577728241682052612e-01,4.314287006855010986e-01,1.688848584890365601e-01,-1.419552713632583618e-01,-1.556298583745956421e-01,1.327468007802963257e-01,-3.597361803054809570e+00,5.524975806474685669e-02,-6.184010580182075500e-02
-8.267455548048019409e-02,4.200843349099159241e-02,2.872168719768524170e-01,1.427812725305557251e-01,-1.223093718290328979e-01,-1.131994351744651794e-01,6.018156558275222778e-02,-2.375135183334350586e+00,-2.453874982893466949e-02,-4.324937239289283752e-02
-4.833737015724182129e-02,1.534658949822187424e-02,1.321150064468383789e-01,1.241332665085792542e-01,-1.599988639354705811e-01,-5.123382806777954102e-01,4.194567725062370300e-02,-1.114120244979858398e+00,-3.028353676199913025e-02,8.089156821370124817e-03
-2.820180729031562805e-02,9.814043296501040459e-04,9.280428290367126465e-03,5.793348327279090881e-02,-6.706497818231582642e-02,-1.537201255559921265e-01,1.508971024304628372e-02,-5.470670461654663086e-01,-2.906027808785438538e-02,1.938981190323829651e-02
-1.459585130214691162e-02,2.707241801545023918e-03,-2.685590088367462158e-02,1.228974759578704834e-02,-5.150694027543067932e-02,-1.967307180166244507e-01,-1.949651390314102173e-01,-4.750884175300598145e-01,-4.858445003628730774e-02,5.011747591197490692e-03
2.961904108524322510e-01,1.150216907262802124e-01,1.342776417732238770e-01,2.344358265399932861e-01,-1.437532007694244385e-01,1.632624417543411255e-01,-6.859505772590637207e-01,-1.780012547969818115e-01,3.708017170429229736e-01,-9.240460991859436035e-01
5.837779641151428223e-01,-8.017157316207885742e-01,3.766382038593292236e-01,7.170758247375488281e-01,4.093196392059326172e-01,8.433877229690551758e-01,-4.837519824504852295e-01,3.739607930183410645e-01,2.391329109668731689e-01,-1.049591183662414551e+00
-2.913372814655303955e-01,-5.079044103622436523e-01,-8.306935429573059082e-03,2.297555357217788696e-01,2.171608805656433105e-01,6.105930358171463013e-02,-4.719347134232521057e-02,2.363189756870269775e-01,-3.230769187211990356e-02,1.352477520704269409e-01
-3.178123235702514648e-01,-9.135012030601501465e-01,5.421379208564758301e-01,6.765149831771850586e-01,7.570564150810241699e-01,5.181886553764343262e-01,-5.413179397583007812e-01,3.869659304618835449e-01,-1.253700107336044312e-01,3.043297231197357178e-01
3.484845906496047974e-02,-3.529328107833862305e-01,1.618491858243942261e-02,-1.370580196380615234e-01,-4.824318923056125641e-03,-2.712887823581695557e-01,-1.825646311044692993e-01,-9.598806500434875488e-02,-6.529176235198974609e-01,-3.257391750812530518e-01
7.794531434774398804e-02,4.638197645545005798e-02,-2.410923987627029419e-01,-2.801264524459838867e-01,5.407264083623886108e-02,3.259307891130447388e-02,-4.479237273335456848e-02,-2.115392237901687622e-01,-8.420535922050476074e-01,-3.245166242122650146e-01
6.151455268263816833e-02,2.402807027101516724e-02,1.041807408910244703e-04,-2.222635895013809204e-01,1.695896685123443604e-02,-3.859080607071518898e-03,-1.156570017337799072e-01,-2.015312574803829193e-02,1.275265589356422424e-03,-9.436147660017013550e-02
1.308491080999374390e-01,5.944992229342460632e-02,4.062039777636528015e-02,-1.073289990425109863e+00,4.544231668114662170e-02,7.651017513126134872e-03,-2.745617330074310303e-01,-1.742578111588954926e-02,1.925046928226947784e-02,-1.258791517466306686e-02
2.357150465250015259e-01,1.128218844532966614e-01,1.600456237792968750e-01,-1.567199826240539551e+00,9.635725617408752441e-02,3.801676258444786072e-02,-1.710405349731445312e-01,-1.157672423869371414e-02,6.176719442009925842e-02,-1.096567045897245407e-02
3.079982399940490723e-01,1.045446172356605530e-01,2.534212768077850342e-01,-1.616367816925048828e+00,6.748718768358230591e-02,1.107575604692101479e-03,-3.080550394952297211e-02,-9.377124905586242676e-02,1.393106672912836075e-02,-9.574095904827117920e-02
3.792636096477508545e-01,1.347706913948059082e-01,3.548530638217926025e-01,-8.692243099212646484e-01,2.976571023464202881e-02,-6.706148851662874222e-04,-1.398933771997690201e-02,-1.815619617700576782e-01,-6.966312974691390991e-02,-1.952446252107620239e-01
3.658261597156524658e-01,2.126310318708419800e-01,4.048220515251159668e-01,-2.524043321609497070e-01,-3.207470476627349854e-02,8.531948179006576538e-02,9.879088401794433594e-02,-2.522092461585998535e-01,-1.797633022069931030e-01,-2.836817800998687744e-01
2.822496891021728516e-01,3.724250197410583496e-01,4.227069914340972900e-01,-5.800964310765266418e-02,-3.662271425127983093e-02,3.000577390193939209e-01,3.030178248882293701e-01,-2.209916561841964722e-01,-2.013517320156097412e-01,-2.530483901500701904e-01
1.164222210645675659e-01,4.003055393695831299e-01,3.225940465927124023e-01,2.531791925430297852e-01,-5.543527752161026001e-02,3.935317099094390869e-01,3.522454202175140381e-01,-1.624756157398223877e-01,-2.148832231760025024e-01,-2.027779966592788696e-01
-8.452596142888069153e-03,2.869760692119598389e-01,1.722558289766311646e-01,5.089233517646789551e-01,-6.557694822549819946e-02,2.734676897525787354e-01,1.936800181865692139e-01,-2.485446631908416748e-02,-2.224696725606918335e-01,-1.472204625606536865e-01
2.454362995922565460e-02,2.197760790586471558e-01,1.328391730785369873e-01,6.262627840042114258e-01,7.093983143568038940e-02,1.335238665342330933e-01,6.191942468285560608e-02,3.382200896739959717e-01,-1.248616874217987061e-01,3.566655563190579414e-03
9.297556243836879730e-03,1.010582819581031799e-01,4.160794615745544434e-02,4.383796155452728271e-01,1.574956923723220825e-01,-5.144576728343963623e-02,-7.944566011428833008e-02,5.753623247146606445e-01,-1.170128062367439270e-01,1.969546526670455933e-01
7.421604543924331665e-02,5.524144321680068970e-02,-2.339958027005195618e-02,2.084309160709381104e-01,2.449847310781478882e-01,-1.272611469030380249e-01,-9.201197326183319092e-02,5.346607565879821777e-01,-7.179141789674758911e-02,4.785682857036590576e-01
2.152683287858963013e-01,9.462717175483703613e-02,-7.912925630807876587e-02,3.486632555723190308e-02,2.611980438232421875e-01,-1.645299047231674194e-01,-6.736819166690111160e-03,2.068271636962890625e-01,2.963811531662940979e-02,5.865229368209838867e-01
3.335288465023040771e-01,2.431999295949935913e-01,-9.805116802453994751e-02,-5.289909988641738892e-02,1.780905574560165405e-01,-1.875987648963928223e-01,1.246025562286376953e-01,-1.237102299928665161e-01,1.722532808780670166e-01,4.357946217060089111e-01
3.369694054126739502e-01,4.277589917182922363e-01,4.665996413677930832e-03,-2.459512092173099518e-02,6.027477607131004333e-02,-1.592964231967926025e-01,2.639274895191192627e-01,-2.622231841087341309e-01,3.209104835987091064e-01,1.702590733766555786e-01
2.132378518581390381e-01,4.544524848461151123e-01,1.973152160644531250e-01,5.276203900575637817e-02,-5.841527506709098816e-02,-1.286598443984985352e-01,2.766200006008148193e-01,-1.918241739273071289e+00,3.338688910007476807e-01,-1.861753314733505249e-02
5.037348717451095581e-02,3.134601712226867676e-01,4.153007268905639648e-01,1.213827729225158691e-01,-1.250631809234619141e-01,-1.083677485585212708e-01,1.946240812540054321e-01,-5.598436355590820312e+00,2.092632502317428589e-01,-9.241445362567901611e-02
-8.446788042783737183e-02,1.047285348176956177e-01,4.697196185588836670e-01,8.850476890802383423e-02,-1.707935482263565063e-01,-1.375984698534011841e-01,5.137787759304046631e-02,-3.195291757583618164e+00,3.171624988317489624e-02,-1.254737973213195801e-01
-7.837294042110443115e-02,1.478713564574718475e-02,4.000349640846252441e-01,8.695386350154876709e-02,-2.845058739185333252e-01,-9.795652329921722412e-02,6.666725967079401016e-03,-1.751642346382141113e+00,-2.276684902608394623e-02,-7.261888682842254639e-02
-6.519659608602523804e-02,-2.149902284145355225e-02,1.838353425264358521e-01,5.126064643263816833e-02,-2.338351905345916748e-01,-7.125797122716903687e-02,-4.470085799694061279e-01,-8.998305797576904297e-01,-5.281972140073776245e-02,-3.818824887275695801e-02
1.018308281898498535e+00,7.240120172500610352e-01,-9.756177663803100586e-01,-1.506538271903991699e+00,1.120360493659973145e+00,-1.384204477071762085e-01,-1.200465336441993713e-01,6.050316691398620605e-01,1.035061836242675781e+00,-4.859621524810791016e-01
6.161698698997497559e-01,1.403238475322723389e-01,6.004460453987121582e-01,2.139844186604022980e-02,-9.532324224710464478e-02,-2.856935560703277588e-01,-6.068847179412841797e-01,1.506335884332656860e-01,-6.408910453319549561e-02,-4.728956818580627441e-01
6.020871996879577637e-01,3.699822127819061279e-01,1.225240349769592285e+00,-1.744813024997711182e-01,-6.941898912191390991e-02,-3.504013717174530029e-01,-3.991823196411132812e-01,-5.553473234176635742e-01,1.020863428711891174e-01,-8.056832551956176758e-01
3.817211091518402100e-01,-5.414171218872070312e-01,4.321677386760711670e-01,3.932828903198242188e-01,-2.005880475044250488e-01,7.214980721473693848e-01,-3.600071668624877930e-01,-4.616372287273406982e-01,-3.243727087974548340e-01,-8.359859585762023926e-01
-5.636982917785644531e-01,-2.246308326721191406e-01,-1.543886121362447739e-02,1.464290469884872437e-01,1.372290104627609253e-01,-4.916452616453170776e-02,-1.222840473055839539e-01,1.245282143354415894e-01,-1.785404980182647705e-01,8.377413451671600342e-02
-1.523290702607482672e-04,-6.829338073730468750e-01,6.024837493896484375e-01,6.809013485908508301e-01,-2.730044722557067871e-01,4.971692264080047607e-01,-6.601564288139343262e-01,3.977266848087310791e-01,4.810595810413360596e-01,4.682150483131408691e-01
-6.145439147949218750e-01,-7.120753526687622070e-01,8.772981166839599609e-01,9.058282375335693359e-01,-1.474712491035461426e-01,6.620693206787109375e-01,3.770771622657775879e-01,2.510159015655517578e-01,-1.329434812068939209e-01,5.792667269706726074e-01
-4.762824177742004395e-01,1.710096187889575958e-02,-5.218137428164482117e-02,3.877469897270202637e-01,-2.780434489250183105e-01,-3.058152198791503906e-01,2.939419746398925781e-01,-7.089196890592575073e-02,3.368265926837921143e-01,-1.501716673374176025e-01
3.443433716893196106e-02,-1.696352963335812092e-03,-1.468120664358139038e-01,-3.607504069805145264e-02,-9.569238871335983276e-03,-2.410202659666538239e-02,-2.375596910715103149e-01,-1.953884810209274292e-01,-1.722900569438934326e-02,-5.686410889029502869e-02
1.070094481110572815e-01,1.976338401436805725e-02,5.755688250064849854e-02,-1.761999875307083130e-01,1.005815155804157257e-02,-5.610170774161815643e-03,-1.834509074687957764e-01,-7.838869094848632812e-02,1.698331470834091306e-04,-2.433419600129127502e-02
1.954897195100784302e-01,3.643307089805603027e-02,1.880771219730377197e-01,-5.420356392860412598e-01,2.130288444459438324e-02,-9.918333962559700012e-03,-1.762538403272628784e-01,-1.892232298851013184e-01,-6.984254810959100723e-03,-5.298447608947753906e-02
3.427640199661254883e-01,9.347640722990036011e-02,3.739788234233856201e-01,-4.348469674587249756e-01,4.172059148550033569e-02,1.229725964367389679e-02,-3.737624287605285645e-01,-1.448778957128524780e-01,-2.159099839627742767e-02,-9.747089445590972900e-02
3.767620027065277100e-01,1.252070814371109009e-01,4.431465566158294678e-01,-1.908397674560546875e-01,-1.577048748731613159e-02,2.919816598296165466e-02,-4.481499269604682922e-02,-2.233284115791320801e-01,-1.432705521583557129e-01,-2.164186388254165649e-01
3.393655419349670410e-01,2.622026801109313965e-01,4.593236446380615234e-01,-8.765947073698043823e-02,4.573768004775047302e-03,2.131118476390838623e-01,1.259629726409912109e-01,-2.244114577770233154e-01,-2.096030116081237793e-01,-2.487413585186004639e-01
1.511723548173904419e-01,3.098810315132141113e-01,3.394102156162261963e-01,1.708813756704330444e-01,3.681400790810585022e-02,3.808766305446624756e-01,2.900700569152832031e-01,-2.009656578302383423e-01,-2.497201859951019287e-01,-2.335557341575622559e-01
2.945624105632305145e-02,2.711785733699798584e-01,2.363244891166687012e-01,5.263983011245727539e-01,1.472690403461456299e-01,4.459396600723266602e-01,3.753655254840850830e-01,-8.924148231744766235e-02,-7.395241856575012207e-01,-1.106265187263488770e-01
-8.835561573505401611e-02,7.176934182643890381e-02,5.167731642723083496e-02,6.061830520629882812e-01,1.898716390132904053e-01,2.209178954362869263e-01,2.087229788303375244e-01,2.196147479116916656e-02,-1.973699927330017090e-01,-6.745412200689315796e-02
-1.127012968063354492e-01,-6.092453375458717346e-02,-4.183208197355270386e-02,4.736970961093902588e-01,2.721453905105590820e-01,5.912713240832090378e-03,2.571950480341911316e-02,3.295942246913909912e-01,-1.684876531362533569e-01,3.394657745957374573e-02
-1.086813062429428101e-01,-1.288156360387802124e-01,-1.081350594758987427e-01,2.081418335437774658e-01,3.326925337314605713e-01,-1.128969714045524597e-01,-7.055076956748962402e-02,5.707730650901794434e-01,-1.434125304222106934e-01,3.101260066032409668e-01
-1.045785751193761826e-02,-1.042922809720039368e-01,-1.405425965785980225e-01,2.684222720563411713e-02,3.664902746677398682e-01,-1.194196864962577820e-01,-1.583697833120822906e-02,5.127332806587219238e-01,-6.726069748401641846e-02,5.551152229309082031e-01
1.932169795036315918e-01,6.093889102339744568e-02,-1.510047018527984619e-01,-5.165691301226615906e-02,3.307141661643981934e-01,-8.321984857320785522e-02,1.528080701828002930e-01,1.711282879114151001e-01,8.286194503307342529e-02,5.820145606994628906e-01
3.316516280174255371e-01,2.842690944671630859e-01,-1.834877878427505493e-01,-1.058332175016403198e-01,1.725036948919296265e-01,-8.231336623430252075e-02,2.575310170650482178e-01,-1.648333072662353516e-01,2.242594659328460693e-01,2.909949123859405518e-01
3.923547565937042236e-01,5.027360916137695312e-01,-6.953701376914978027e-02,-2.243849821388721466e-02,5.895785614848136902e-02,-3.934626467525959015e-03,3.273946642875671387e-01,-2.442454248666763306e-01,3.832130730152130127e-01,2.843970432877540588e-02
2.325332313776016235e-01,4.301896095275878906e-01,1.014791131019592285e-01,3.721487894654273987e-02,-8.292308449745178223e-02,2.835157094523310661e-03,2.164092063903808594e-01,-2.225515365600585938e+00,3.294847905635833740e-01,-1.370255053043365479e-01
6.006314232945442200e-02,2.431792616844177246e-01,3.718338310718536377e-01,9.894447773694992065e-02,-1.329487264156341553e-01,8.107742294669151306e-03,9.687891602516174316e-02,-4.386752128601074219e+00,1.815816462039947510e-01,-1.545814722776412964e-01
-3.855325281620025635e-02,7.724158465862274170e-02,5.469788312911987305e-01,1.016371250152587891e-01,-1.236791387200355530e-01,-1.506792288273572922e-02,7.135547697544097900e-03,-1.977021932601928711e+00,5.273327976465225220e-02,-1.131498143076896667e-01
-8.206972479820251465e-02,-3.256459161639213562e-02,4.690756201744079590e-01,4.276002198457717896e-02,-2.730611264705657959e-01,-6.236030533909797668e-02,-5.498008430004119873e-02,-7.547862529754638672e-01,-4.084063321352005005e-02,-9.818136692047119141e-02
-4.981580376625061035e-02,-3.569896891713142395e-02,2.766467928886413574e-01,1.914224773645401001e-02,-5.142939686775207520e-01,-4.277665168046951294e-02,-4.055258631706237793e-02,-3.936248719692230225e-01,-3.980497643351554871e-02,-5.300176143646240234e-02
-2.182784304022789001e-02,-3.962798118591308594e-01,8.825083076953887939e-02,1.881024800240993500e-02,-1.497935503721237183e-01,7.564222905784845352e-04,4.527012817561626434e-03,-6.713401526212692261e-02,-8.170121000148355961e-04,-1.215750500559806824e-01
4.217324033379554749e-02,-3.596216738224029541e-01,7.036188244819641113e-01,-9.261718988418579102e-01,-1.456848531961441040e-01,4.170204699039459229e-01,9.164743870496749878e-02,-7.162777334451675415e-02,1.403027772903442383e-01,-5.032166838645935059e-01
-1.353096961975097656e-01,-1.572327464818954468e-01,1.361785411834716797e+00,5.464131236076354980e-01,4.695440828800201416e-01,-6.580968499183654785e-01,2.164752036333084106e-01,-6.003831028938293457e-01,-7.890115976333618164e-01,1.871752738952636719e-01
3.869259953498840332e-01,-3.548298478126525879e-01,4.890414476394653320e-01,4.604117572307586670e-01,-1.103372424840927124e-01,-5.176045894622802734e-01,-5.928542017936706543e-01,8.863200992345809937e-02,-2.892221510410308838e-01,-3.822238147258758545e-01
-5.923932790756225586e-01,2.413034625351428986e-02,-1.341209262609481812e-01,-1.217193976044654846e-01,-9.156846255064010620e-02,-8.307679742574691772e-02,-9.037243574857711792e-02,-4.763936623930931091e-02,-5.936625227332115173e-02,-1.421530097723007202e-01
-6.004689931869506836e-01,6.704222559928894043e-01,3.420741260051727295e-01,7.349048256874084473e-01,-5.616011470556259155e-02,3.195542097091674805e-01,-4.853000938892364502e-01,2.944648563861846924e-01,-1.814142912626266479e-01,3.396346271038055420e-01
-6.578179597854614258e-01,-5.558410882949829102e-01,3.855825960636138916e-01,1.256533026695251465e+00,-7.404142618179321289e-02,6.443971395492553711e-01,1.628829687833786011e-01,2.572266757488250732e-01,7.757142782211303711e-01,4.162176549434661865e-01
7.954709976911544800e-02,-3.965768814086914062e-01,2.631884440779685974e-02,5.405548587441444397e-02,-1.830936223268508911e-01,-6.611717343330383301e-01,5.512011051177978516e-02,-2.924677133560180664e-01,5.799759179353713989e-02,5.851108208298683167e-02
4.622421786189079285e-02,4.021241795271635056e-03,1.462349481880664825e-02,-7.704068906605243683e-03,6.572767626494169235e-03,-2.099336832761764526e-01,-2.744599282741546631e-01,-1.891726702451705933e-01,9.915533009916543961e-04,-2.425964176654815674e-02
5.299866944551467896e-02,-4.366673156619071960e-02,6.398211419582366943e-02,-1.118350848555564880e-01,-4.355822131037712097e-02,-4.660886898636817932e-02,-2.458108961582183838e-01,-1.969355344772338867e-01,-4.888992756605148315e-02,-7.110951840877532959e-02
2.184420675039291382e-01,4.479934275150299072e-02,3.022631704807281494e-01,-1.532854586839675903e-01,2.987614832818508148e-02,2.250443398952484131e-02,-2.779391705989837646e-01,-1.731449961662292480e-01,7.288073655217885971e-03,-3.706428036093711853e-02
2.411730289459228516e-01,-1.429498754441738129e-02,3.751886487007141113e-01,-1.848174184560775757e-01,-8.170431107282638550e-02,-6.547966599464416504e-02,-1.650708466768264771e-01,-5.881077647209167480e-01,-1.464037299156188965e-01,-2.100921273231506348e-01
3.755795061588287354e-01,1.524840444326400757e-01,5.078672170639038086e-01,-8.784381300210952759e-02,5.347235128283500671e-03,1.101755872368812561e-01,-5.611120164394378662e-02,-2.860212624073028564e-01,-1.568763256072998047e-01,-2.068821191787719727e-01
2.828620970249176025e-01,2.420519143342971802e-01,4.110393524169921875e-01,9.241934865713119507e-02,7.714444398880004883e-02,3.056968748569488525e-01,9.740202873945236206e-02,-2.159804552793502808e-01,-2.286536395549774170e-01,-2.255288958549499512e-01
7.403396070003509521e-02,2.132674157619476318e-01,2.294906377792358398e-01,3.838868737220764160e-01,1.926422119140625000e-01,4.355036020278930664e-01,2.726223468780517578e-01,-1.831392496824264526e-01,-6.762589216232299805e-01,-1.928817778825759888e-01
-1.044625565409660339e-01,4.413475468754768372e-02,1.925106719136238098e-02,5.526700019836425781e-01,2.923644483089447021e-01,3.256440758705139160e-01,3.166638016700744629e-01,-1.394080072641372681e-01,-3.607203066349029541e-01,-1.502325236797332764e-01
-1.359870731830596924e-01,-7.075220346450805664e-02,-7.535427063703536987e-02,5.337130427360534668e-01,4.239954948425292969e-01,1.274833828210830688e-01,2.862993776798248291e-01,2.826443314552307129e-02,-1.805297881364822388e-01,-3.756182640790939331e-02
-1.452877521514892578e-01,-1.520279049873352051e-01,-1.349857747554779053e-01,3.091572523117065430e-01,4.865602254867553711e-01,-4.125261306762695312e-02,1.710047870874404907e-01,3.688422441482543945e-01,-1.349889039993286133e-01,1.424675434827804565e-01
-1.162886023521423340e-01,-1.632896512746810913e-01,-1.685888618230819702e-01,9.034626185894012451e-02,5.012738108634948730e-01,-7.206761837005615234e-02,1.240964382886886597e-01,6.066243648529052734e-01,-9.463966637849807739e-02,4.675024747848510742e-01
-4.409266263246536255e-02,-1.254156827926635742e-01,-2.349618077278137207e-01,-5.090405046939849854e-02,4.324661493301391602e-01,-5.935940146446228027e-02,1.589687168598175049e-01,4.657344818115234375e-01,-4.693237319588661194e-02,5.634167790412902832e-01
1.509065628051757812e-01,1.087066680192947388e-01,-2.605638504028320312e-01,-9.778488427400588989e-02,3.310590386390686035e-01,2.781170653179287910e-03,2.698793113231658936e-01,5.196877196431159973e-02,8.939611166715621948e-02,4.372089505195617676e-01
3.359998762607574463e-01,3.878055810928344727e-01,-2.546679675579071045e-01,-8.399022370576858521e-02,1.859079599380493164e-01,7.328140735626220703e-02,2.956575453281402588e-01,-2.188592702150344849e-01,2.549788057804107666e-01,7.663396745920181274e-02
3.945170044898986816e-01,5.173706412315368652e-01,-1.312917172908782959e-01,1.556083466857671738e-02,7.776580750942230225e-02,1.685320138931274414e-01,2.340077459812164307e-01,-2.709878683090209961e-01,3.743000030517578125e-01,-1.361806243658065796e-01
2.384237796068191528e-01,3.585339188575744629e-01,5.304678156971931458e-02,8.835232257843017578e-02,-3.766420856118202209e-02,1.929516047239303589e-01,8.493036776781082153e-02,-1.729062676429748535e+00,2.896910011768341064e-01,-2.004254311323165894e-01
5.175714567303657532e-02,1.376361697912216187e-01,3.327295482158660889e-01,1.098363250494003296e-01,-9.865765273571014404e-02,1.652976125478744507e-01,-2.429096028208732605e-02,-1.694005012512207031e+00,1.288676410913467407e-01,-1.765985339879989624e-01
-7.164732366800308228e-02,-2.122545801103115082e-02,5.222257971763610840e-01,6.072462722659111023e-02,-1.338179111480712891e-01,7.600731402635574341e-02,-9.727240353822708130e-02,-6.805870532989501953e-01,-1.305204909294843674e-02,-1.487449705600738525e-01
-1.101746633648872375e-01,-8.799856901168823242e-02,4.861320257186889648e-01,-4.591030068695545197e-03,-2.766515314579010010e-01,-8.579792454838752747e-03,-2.899877429008483887e-01,-3.014533817768096924e-01,-7.839091867208480835e-02,-1.268970519304275513e-01
-5.283962190151214600e-02,-5.661943182349205017e-02,3.325248658657073975e-01,-6.771426647901535034e-03,-4.124427437782287598e-01,-1.326031424105167389e-02,-4.416168332099914551e-01,-8.283609151840209961e-02,-3.975676372647285461e-02,-6.181214377284049988e-02
-5.765373632311820984e-02,-2.515113353729248047e-01,7.797049731016159058e-02,-3.128826245665550232e-02,-1.636551320552825928e-01,-3.165251389145851135e-02,-5.112869665026664734e-02,-6.432741880416870117e-02,-3.528382256627082825e-02,-1.468435823917388916e-01
-2.152115106582641602e-02,4.144934713840484619e-01,-2.207104116678237915e-01,-8.618880510330200195e-01,3.687339127063751221e-01,-3.004661202430725098e-01,5.974889993667602539e-01,-1.486400067806243896e-01,-4.026980698108673096e-01,2.984599173069000244e-01
8.497371673583984375e-01,3.579418063163757324e-01,8.542025685310363770e-01,-1.332074850797653198e-01,5.343229770660400391e-01,-1.001463532447814941e+00,2.803773246705532074e-02,-1.149783357977867126e-01,-4.947471320629119873e-01,4.860170185565948486e-01
5.208393335342407227e-01,6.572114825248718262e-01,3.238607347011566162e-01,4.939572811126708984e-01,-1.725373715162277222e-01,-3.878984749317169189e-01,-6.610767245292663574e-01,2.290070652961730957e-01,4.054883420467376709e-01,-5.356360077857971191e-01
-1.070739403367042542e-01,-6.214806437492370605e-02,-2.064000628888607025e-02,-4.769209027290344238e-02,-2.733818627893924713e-02,-2.013768069446086884e-02,-1.987379230558872223e-02,-2.597849071025848389e-01,-1.037591695785522461e-01,-4.263351485133171082e-02
-2.665117084980010986e-01,6.344348192214965820e-01,-2.572954893112182617e-01,5.792930126190185547e-01,-3.820844292640686035e-01,2.837378978729248047e-01,-3.404648229479789734e-02,6.552586704492568970e-02,-2.786120176315307617e-01,-1.524988859891891479e-01
-2.938024401664733887e-01,4.856549203395843506e-01,-1.476175040006637573e-01,8.614901304244995117e-01,-1.909192204475402832e-01,4.318449199199676514e-01,9.856858104467391968e-02,2.986413836479187012e-01,4.481776654720306396e-01,-1.740457713603973389e-01
-8.041021823883056641e-01,2.375934123992919922e-01,1.084437146782875061e-01,2.424266934394836426e-01,-1.506885588169097900e-01,-4.132902622222900391e-01,8.122885227203369141e-01,6.487809419631958008e-01,5.069582462310791016e-01,4.977626204490661621e-01
1.378944963216781616e-01,8.872902393341064453e-02,-9.694198369979858398e-01,9.386640787124633789e-02,1.030557006597518921e-01,8.686117827892303467e-02,-3.131522983312606812e-02,-1.239475011825561523e-01,1.063896715641021729e-01,7.795906066894531250e-02
9.582051634788513184e-02,3.839241573587059975e-03,1.748206615447998047e-01,-1.419087033718824387e-02,-4.038837272673845291e-03,-4.001712659373879433e-05,-3.855331242084503174e-01,-1.569146960973739624e-01,3.263287944719195366e-04,-3.490269184112548828e-02
1.759149879217147827e-01,1.552504254505038261e-03,3.478130698204040527e-01,-6.053505092859268188e-02,-3.392294049263000488e-02,-1.649403199553489685e-02,-4.011813998222351074e-01,-2.468398958444595337e-01,-3.512406721711158752e-02,-9.181831777095794678e-02
2.899927496910095215e-01,3.385689854621887207e-02,4.971543252468109131e-01,-7.211548835039138794e-02,-4.762931168079376221e-02,1.923017948865890503e-02,-4.735214412212371826e-01,-4.389163553714752197e-01,-9.948443621397018433e-02,-1.733054667711257935e-01
3.484014272689819336e-01,1.305735558271408081e-01,4.933732450008392334e-01,2.251091785728931427e-02,-2.355006057769060135e-03,1.701380610466003418e-01,-1.075024232268333435e-01,-3.278927206993103027e-01,-1.688666045665740967e-01,-2.196598798036575317e-01
2.810254395008087158e-01,2.017978280782699585e-01,3.346464931964874268e-01,2.632436752319335938e-01,1.247775703668594360e-01,3.783995509147644043e-01,5.246083438396453857e-02,-2.033863365650177002e-01,-2.105740606784820557e-01,-1.981759220361709595e-01
8.264233171939849854e-02,1.322395503520965576e-01,1.057435199618339539e-01,4.788567721843719482e-01,2.641120851039886475e-01,4.323729276657104492e-01,2.220806330442428589e-01,-1.800031512975692749e-01,-2.188360989093780518e-01,-1.719965189695358276e-01
-5.926265567541122437e-02,-4.433611873537302017e-03,-8.926700800657272339e-02,5.115218162536621094e-01,3.822040855884552002e-01,2.662545144557952881e-01,3.450248539447784424e-01,-1.267274767160415649e-01,-1.823211163282394409e-01,-1.261937618255615234e-01
-4.506230354309082031e-02,-3.693417459726333618e-02,-1.189010292291641235e-01,4.147322773933410645e-01,5.197046399116516113e-01,1.115325838327407837e-01,4.447976946830749512e-01,6.604675203561782837e-02,-7.402410358190536499e-02,4.531019926071166992e-02
-8.393590152263641357e-02,-1.044906452298164368e-01,-1.965640485286712646e-01,1.752668470144271851e-01,5.060449242591857910e-01,-1.016393303871154785e-02,3.862654268741607666e-01,3.895015716552734375e-01,-6.975845992565155029e-02,3.108459115028381348e-01
-7.008171826601028442e-02,-1.160465180873870850e-01,-2.491193860769271851e-01,3.359332680702209473e-02,4.604412019252777100e-01,2.243630960583686829e-02,3.319588303565979004e-01,5.816770195960998535e-01,-4.527638480067253113e-02,5.492255091667175293e-01
2.221016958355903625e-02,7.212002761662006378e-03,-2.917037308216094971e-01,-2.618279494345188141e-02,3.949110507965087891e-01,1.027228310704231262e-01,3.396118283271789551e-01,4.235402345657348633e-01,2.146089635789394379e-02,5.487905740737915039e-01
2.282655686140060425e-01,3.171551227569580078e-01,-2.837662994861602783e-01,-4.020544234663248062e-03,3.506727516651153564e-01,2.124868333339691162e-01,3.626395761966705322e-01,1.318860054016113281e-02,1.816742271184921265e-01,2.802987992763519287e-01
3.728395998477935791e-01,4.833542406558990479e-01,-2.983608543872833252e-01,2.516226144507527351e-03,2.424623519182205200e-01,2.443590611219406128e-01,2.185465842485427856e-01,-2.491060942411422729e-01,2.746998369693756104e-01,-1.181975975632667542e-01
4.038599133491516113e-01,4.655187726020812988e-01,-1.712535917758941650e-01,1.042136177420616150e-01,1.922644227743148804e-01,3.173692226409912109e-01,7.357122749090194702e-02,-2.844230830669403076e-01,3.292764723300933838e-01,-2.283843457698822021e-01
2.577173113822937012e-01,2.563654482364654541e-01,5.160779878497123718e-02,1.753658801317214966e-01,1.044279262423515320e-01,3.511256873607635498e-01,-4.743374884128570557e-02,-9.552116394042968750e-01,2.327052950859069824e-01,-2.058157473802566528e-01
3.199592977762222290e-02,2.568039484322071075e-02,3.095214366912841797e-01,1.257847696542739868e-01,-3.143374994397163391e-02,2.866749167442321777e-01,-1.324631422758102417e-01,-9.619621038436889648e-01,5.573030188679695129e-02,-2.643555402755737305e-01
-5.963556468486785889e-02,-5.745679512619972229e-02,5.342559814453125000e-01,6.615165621042251587e-02,-7.979760318994522095e-02,2.033417522907257080e-01,-1.210812330245971680e-01,-4.430655539035797119e-01,-3.339631855487823486e-02,-1.421779990196228027e-01
-1.063212677836418152e-01,-1.137634441256523132e-01,4.885362982749938965e-01,-3.640956059098243713e-02,-1.245794147253036499e-01,6.905549764633178711e-02,-3.039772510528564453e-01,-2.731545567512512207e-01,-9.235182404518127441e-02,-1.309371441602706909e-01
-8.768115192651748657e-02,-1.022311747074127197e-01,3.147624433040618896e-01,-6.820965558290481567e-02,-4.340603351593017578e-01,-1.119812950491905212e-02,-1.587013602256774902e-01,-1.107634380459785461e-01,-8.185269683599472046e-02,-1.035774797201156616e-01
-4.927219823002815247e-02,-6.322107464075088501e-02,9.511849284172058105e-02,-4.337761923670768738e-02,-2.173876464366912842e-01,-1.772967353463172913e-02,-7.053091377019882202e-02,-7.290489226579666138e-02,-3.625660389661788940e-02,-5.685779452323913574e-02
1.372390240430831909e-01,8.560882806777954102e-01,-3.118587732315063477e-01,-1.842647343873977661e-01,-4.194926097989082336e-02,-3.632963001728057861e-01,3.837510943412780762e-02,4.687549173831939697e-01,-8.722797036170959473e-01,5.317694321274757385e-02
6.753573417663574219e-01,7.122048139572143555e-01,7.362962365150451660e-01,2.751351892948150635e-01,5.389925837516784668e-02,-7.193322777748107910e-01,-8.200448751449584961e-01,-2.635006010532379150e-01,-5.555799007415771484e-01,1.097231172025203705e-02
