-3.650199249386787415e-02,-6.085162237286567688e-02,-1.295661181211471558e-01,-1.792529225349426270e-01,-5.781792104244232178e-02,-2.155809700489044189e-01,-9.683804959058761597e-02,-2.491530589759349823e-02,-1.488925814628601074e-01,-7.264959812164306641e-02
-4.992792382836341858e-02,-1.647157073020935059e-01,-1.036784127354621887e-01,-9.806478768587112427e-02,-5.314527079463005066e-03,-1.504020243883132935e-01,-1.095206290483474731e-01,-8.743741782382130623e-04,-1.681506261229515076e-02,-1.333393901586532593e-01
-4.448437597602605820e-03,-1.421155482530593872e-01,-1.386165171861648560e-01,-1.302008032798767090e-01,-2.690282650291919708e-03,-5.538312345743179321e-02,-5.531928036361932755e-03,-2.203640490770339966e-01,-1.979763507843017578e-01,-1.007288172841072083e-01
-7.487274706363677979e-02,-9.671323746442794800e-02,-7.912139408290386200e-03,-3.487511351704597473e-02,-1.525108120404183865e-03,-4.470375552773475647e-02,-6.395459175109863281e-03,2.551813144236803055e-03,-1.783646047115325928e-01,-3.857359290122985840e-02
-1.208335608243942261e-01,-1.260175462812185287e-02,-1.531966961920261383e-02,-1.274137794971466064e-01,-9.055396169424057007e-02,-2.444062754511833191e-02,-1.342644356191158295e-02,-8.532096631824970245e-03,-1.115346699953079224e-01,-1.897945441305637360e-02
-1.838436536490917206e-02,-1.344259679317474365e-01,-1.005440056324005127e-01,-2.605012059211730957e-02,-1.187032386660575867e-01,-2.427284270524978638e-01,-1.147082746028900146e-01,-8.495049923658370972e-02,-1.018190979957580566e-01,-8.132255822420120239e-02
-8.040281012654304504e-03,-8.282365649938583374e-02,-8.504400402307510376e-02,-8.968397974967956543e-02,-1.924844384193420410e-01,-2.500430941581726074e-01,-8.069688454270362854e-03,-1.251041442155838013e-01,-4.797625914216041565e-02,-9.925666451454162598e-02
-1.317369639873504639e-01,-7.427525520324707031e-02,-7.877393811941146851e-02,-1.541672088205814362e-02,-8.242520503699779510e-03,-4.006557166576385498e-02,-1.156160607933998108e-02,-6.355433166027069092e-02,-8.022232353687286377e-02,-1.581815928220748901e-01
-3.145870193839073181e-02,-1.299856752157211304e-01,-1.676218807697296143e-01,-7.219808548688888550e-02,-2.208139300346374512e-01,-3.161092847585678101e-02,-6.748496741056442261e-02,-1.158062443137168884e-01,-9.787443280220031738e-02,-1.021808385848999023e-01
-1.875059008598327637e-01,-5.434006825089454651e-02,-4.825536161661148071e-02,-1.223605126142501831e-01,-1.435211300849914551e-01,-1.126219704747200012e-01,-1.233817487955093384e-01,-2.901202999055385590e-02,-1.940169036388397217e-01,-7.221508026123046875e-02
-1.171865537762641907e-01,-1.360036283731460571e-01,-4.556632041931152344e-02,-2.627546526491641998e-02,-1.179638877511024475e-01,-1.103942021727561951e-01,-2.720092609524726868e-02,-7.813066989183425903e-02,-1.311259865760803223e-01,-1.144150644540786743e-01
-1.577185094356536865e-01,-2.085165865719318390e-02,-1.006326451897621155e-01,-4.312288388609886169e-02,-1.751184649765491486e-02,-2.017281502485275269e-01,-2.212682366371154785e-02,-1.602847576141357422e-01,-2.137895114719867706e-02,-1.159641742706298828e-01
-2.813570201396942139e-01,-3.735429793596267700e-02,-9.196033328771591187e-02,7.524923421442508698e-03,2.058824449777603149e-01,-2.577007561922073364e-02,-2.317735105752944946e-01,4.036224447190761566e-03,2.746198475360870361e-01,5.533528327941894531e-02
-2.263336926698684692e-01,-2.489760704338550568e-02,-1.933403760194778442e-01,7.061503827571868896e-02,2.544299960136413574e-01,-2.461055964231491089e-01,-6.419229507446289062e-02,4.322052747011184692e-02,3.078688681125640869e-01,2.287342250347137451e-01
-5.467181559652090073e-03,-2.357050310820341110e-03,-1.400368511676788330e-01,2.054020017385482788e-02,-2.835715189576148987e-02,-2.558936178684234619e-02,1.400171429850161076e-03,2.615533769130706787e-03,-2.072259038686752319e-01,-6.229506689123809338e-04
-1.627466082572937012e-02,-5.685838684439659119e-02,-1.928434334695339203e-02,-3.269805386662483215e-02,-2.111584097146987915e-01,-2.286688238382339478e-02,-2.028942704200744629e-01,-7.151708472520112991e-03,-2.275532335042953491e-01,-2.593703195452690125e-02
-1.206094678491353989e-02,-2.436471171677112579e-02,-5.636422894895076752e-03,-6.628144532442092896e-02,-1.565719768404960632e-02,-1.893182992935180664e-01,-5.641900002956390381e-03,-2.350622117519378662e-01,-8.153168857097625732e-02,-1.887760013341903687e-01
-1.754687875509262085e-01,-1.757290400564670563e-02,-1.192011535167694092e-01,-2.098496258258819580e-01,-5.446934700012207031e-02,-1.338318884372711182e-01,-5.303367972373962402e-02,-2.020436152815818787e-02,-1.919922232627868652e-01,-3.339293599128723145e-02
-6.925208866596221924e-02,-1.260293573141098022e-01,-9.210153669118881226e-02,-7.334881275892257690e-02,-1.017861738801002502e-01,-5.920751020312309265e-02,-1.431933790445327759e-01,-3.635487332940101624e-02,-5.571553483605384827e-02,-3.671446070075035095e-02
-4.476058483123779297e-02,-1.010515615344047546e-01,-1.658355891704559326e-01,-8.489754796028137207e-02,-5.167324468493461609e-02,-6.928230077028274536e-02,-1.073631569743156433e-01,-1.937296688556671143e-01,-1.342620998620986938e-01,-8.808192610740661621e-02
-1.384234279394149780e-01,-5.038445442914962769e-02,-1.524486094713211060e-01,-6.904400140047073364e-02,-5.176933854818344116e-02,-5.273339152336120605e-02,-1.306560486555099487e-01,-6.035873293876647949e-02,-9.412647038698196411e-02,-1.376524269580841064e-01
-5.517814680933952332e-02,-3.881427273154258728e-02,-4.074062407016754150e-02,-1.191511005163192749e-01,-1.067742928862571716e-01,-1.149907410144805908e-01,-8.607722073793411255e-02,-2.648419328033924103e-02,-1.635965406894683838e-01,-6.366494297981262207e-02
-3.680058196187019348e-02,-7.547528296709060669e-02,-1.517674028873443604e-01,-1.033872365951538086e-01,-3.120075725018978119e-02,-8.609646558761596680e-02,-3.794474527239799500e-02,-5.113001540303230286e-02,-3.663781285285949707e-02,-7.042590528726577759e-02
-7.214400172233581543e-02,-3.571241721510887146e-02,-2.440637536346912384e-02,-2.830912172794342041e-02,-1.571402549743652344e-01,-3.287482261657714844e-02,-5.150263011455535889e-02,-1.424091011285781860e-01,-7.602283358573913574e-02,-2.470990456640720367e-02
-1.514982134103775024e-01,-7.965006865561008453e-03,-5.298548191785812378e-02,-3.081210702657699585e-02,-5.887272953987121582e-02,-7.122971117496490479e-02,-8.544661104679107666e-03,-3.800943493843078613e-03,-3.746053203940391541e-02,-2.398060709238052368e-01
-1.398815065622329712e-01,-3.306974470615386963e-02,-4.338185116648674011e-02,-6.287415325641632080e-02,-2.721089497208595276e-02,-3.677899390459060669e-02,-1.201750561594963074e-01,-1.334321200847625732e-01,-1.687166541814804077e-01,-8.152310550212860107e-02
-8.032904006540775299e-04,7.636019028723239899e-03,-2.937483415007591248e-02,-6.354603171348571777e-02,-1.365079432725906372e-01,-1.044788286089897156e-01,9.006557054817676544e-03,-3.309352695941925049e-02,-1.566581428050994873e-01,-2.574263699352741241e-02
9.265486150979995728e-03,-8.912229537963867188e-02,-1.719656586647033691e-01,-1.269116550683975220e-01,-8.561807125806808472e-02,6.861773319542407990e-03,9.297993965446949005e-03,-2.555282786488533020e-02,-6.311875302344560623e-03,-2.151976376771926880e-01
-1.693920642137527466e-01,-1.856363713741302490e-01,-9.492571651935577393e-02,-1.406110543757677078e-02,-7.408204674720764160e-02,-3.045126050710678101e-02,8.578781969845294952e-03,-1.556239277124404907e-02,-7.198620587587356567e-02,-4.923626780509948730e-02
-1.441992912441492081e-02,-4.493043944239616394e-02,-1.655020564794540405e-01,-1.501189731061458588e-02,-2.210271507501602173e-01,-4.433672875165939331e-02,-1.420316752046346664e-02,-7.010781019926071167e-02,-1.274136174470186234e-02,-7.049884647130966187e-02
-4.745522886514663696e-02,-4.064371436834335327e-02,-4.594753682613372803e-02,-1.427987366914749146e-01,-3.106254152953624725e-02,-1.468219906091690063e-01,-1.246831342577934265e-01,-2.692391350865364075e-02,-1.093853861093521118e-01,-4.329493641853332520e-02
-6.212699227035045624e-03,-1.317955553531646729e-01,-6.247808225452899933e-03,-6.772795319557189941e-02,-1.136509850621223450e-01,-8.224779739975929260e-03,-2.337400056421756744e-02,-1.688404083251953125e-01,-1.071950048208236694e-01,-5.432131886482238770e-02
-1.992285847663879395e-01,-1.645272225141525269e-01,-8.743973076343536377e-02,-2.260620146989822388e-02,-1.867489144206047058e-02,-1.497164815664291382e-01,-6.057893484830856323e-02,-6.660934537649154663e-02,-3.125474229454994202e-02,-5.373929068446159363e-02
1.939041614532470703e-01,-3.068510256707668304e-02,-1.674711555242538452e-01,-6.191885471343994141e-02,-1.534024327993392944e-01,-5.876116156578063965e-01,-2.911921590566635132e-02,-6.482991576194763184e-02,-2.861660160124301910e-02,-2.351362556219100952e-01
5.268532633781433105e-01,-1.250665187835693359e-01,1.013169065117835999e-01,-2.099671959877014160e-01,-4.608860984444618225e-02,-8.587017059326171875e-01,-1.470561176538467407e-01,-3.213412687182426453e-02,3.605816960334777832e-01,-3.026913478970527649e-02
5.400791764259338379e-01,-3.059369027614593506e-01,-7.222031801939010620e-02,-4.839375913143157959e-01,-2.124296128749847412e-01,-8.321210741996765137e-01,-1.294223219156265259e-01,-4.240971207618713379e-01,-2.441088110208511353e-01,6.295144557952880859e-01
4.726181924343109131e-01,-3.706715703010559082e-01,-4.771552979946136475e-02,-5.723382830619812012e-01,-3.419336974620819092e-01,-4.356980919837951660e-01,-6.817500293254852295e-02,-7.439947128295898438e-01,-3.716561794281005859e-01,7.448841929435729980e-01
6.247835159301757812e-01,3.283762335777282715e-01,1.300999373197555542e-01,-5.611987113952636719e-01,-3.901507258415222168e-01,-3.082521855831146240e-01,-1.954700052738189697e-01,-5.372530221939086914e-01,-3.214999735355377197e-01,1.719371676445007324e-01
5.786786079406738281e-01,8.854776024818420410e-01,-6.846064329147338867e-01,-7.184889316558837891e-01,-4.904061555862426758e-01,-1.525749415159225464e-01,-2.021886557340621948e-01,-1.529418379068374634e-01,-9.380520880222320557e-02,-4.483003169298171997e-02
6.037543416023254395e-01,1.356192946434020996e+00,-7.587251067161560059e-01,-6.084472537040710449e-01,-6.091302037239074707e-01,-7.364617586135864258e-01,-1.004209071397781372e-01,3.867349028587341309e-01,1.972457617521286011e-01,-4.894931912422180176e-01
1.834806501865386963e-01,1.178636550903320312e+00,-3.505599200725555420e-01,-9.653220325708389282e-02,3.026444017887115479e-01,-6.807445287704467773e-01,4.330841600894927979e-01,5.829435586929321289e-01,4.410530030727386475e-01,-7.199152708053588867e-01
-1.788380295038223267e-01,7.293336987495422363e-01,6.592195630073547363e-01,4.534155428409576416e-01,1.598337143659591675e-01,-8.446735143661499023e-01,3.571727871894836426e-01,6.544305682182312012e-01,4.094418883323669434e-01,-9.639160335063934326e-02
-3.603827655315399170e-01,7.958979159593582153e-02,7.866428494453430176e-01,7.877079844474792480e-01,-4.607594758272171021e-02,1.740332692861557007e-02,7.968663424253463745e-02,2.406760007143020630e-01,-8.412684500217437744e-02,-1.858005076646804810e-01
-5.494984984397888184e-01,1.787967085838317871e-01,1.531580984592437744e-01,-6.501485407352447510e-02,-3.100974559783935547e-01,1.692909896373748779e-01,-1.586931347846984863e-01,-5.062106847763061523e-01,-2.004108577966690063e-01,2.772998251020908356e-02
2.265145480632781982e-01,4.890175163745880127e-01,1.919957399368286133e-01,-2.978708446025848389e-01,-4.342357069253921509e-02,-4.921621084213256836e-01,4.914715141057968140e-02,7.258609533309936523e-01,-1.391556262969970703e-01,-2.364997416734695435e-01
1.616920530796051025e-01,6.055468916893005371e-01,2.647328972816467285e-01,-1.339158117771148682e-01,-3.079848363995552063e-02,-8.333421349525451660e-01,-3.400856554508209229e-01,8.104360103607177734e-01,-3.562316298484802246e-02,1.780532859265804291e-02
6.698559224605560303e-02,-4.758385941386222839e-03,3.822768628597259521e-01,-6.922959089279174805e-01,-1.240097954869270325e-01,1.196753829717636108e-01,-3.519718050956726074e-01,5.844413042068481445e-01,5.216579437255859375e-01,2.092922851443290710e-02
7.025390118360519409e-02,-6.665919721126556396e-02,5.801494047045707703e-02,-2.116188704967498779e-01,-4.228822886943817139e-02,-1.700022071599960327e-01,-1.507531553506851196e-01,2.739415466785430908e-01,3.765646517276763916e-01,4.710774719715118408e-01
3.127129077911376953e-01,-1.258446183055639267e-02,-2.147057466208934784e-02,6.520552188158035278e-02,-1.229030452668666840e-02,-8.495925664901733398e-01,-2.319492101669311523e-01,5.143538713455200195e-01,6.513429880142211914e-01,7.396047115325927734e-01
2.788672149181365967e-01,-2.154827676713466644e-02,-1.570105850696563721e-01,-4.903382062911987305e-01,-3.000140935182571411e-02,-2.778595983982086182e-01,-5.194682255387306213e-02,-7.602001726627349854e-02,3.766092360019683838e-01,5.595028400421142578e-01
1.624748408794403076e-01,-8.799966424703598022e-02,-2.733582071959972382e-02,-5.133869051933288574e-01,-2.234221436083316803e-02,6.573992222547531128e-02,-2.678840234875679016e-02,-1.950583420693874359e-02,1.089408248662948608e-01,3.371377885341644287e-01
2.828076481819152832e-02,-1.947921663522720337e-01,-9.992258995771408081e-02,1.765554421581327915e-03,-9.842205047607421875e-02,-4.306359291076660156e-01,-3.777578240260481834e-03,-3.986487537622451782e-02,4.343226179480552673e-02,-3.653912246227264404e-02
-3.275529714301228523e-03,1.241279207170009613e-02,-1.697468161582946777e-01,-8.467148989439010620e-02,-1.533330976963043213e-01,-4.096140339970588684e-02,-8.388895541429519653e-02,-6.511999666690826416e-02,1.266041956841945648e-02,-1.999659091234207153e-02
-3.210159763693809509e-02,-1.956152021884918213e-01,-2.391864955425262451e-01,-3.945084288716316223e-02,-6.442671269178390503e-02,-1.309322565793991089e-01,-6.100503355264663696e-02,-1.193695794790983200e-02,-1.141359657049179077e-02,-4.433081671595573425e-02
7.780976011417806149e-04,3.151701297610998154e-03,-1.543754991143941879e-02,-6.712942570447921753e-02,1.667347364127635956e-02,-3.899556398391723633e-02,-1.355205774307250977e-01,-1.515954583883285522e-01,3.255591727793216705e-03,-1.099109183996915817e-02
-1.503903418779373169e-01,-1.453068386763334274e-02,-1.567971855401992798e-01,-1.217874065041542053e-01,-2.088033407926559448e-01,-1.774401962757110596e-01,-2.922969404608011246e-03,-4.123946651816368103e-03,-1.450282037258148193e-01,-1.015569046139717102e-01
-5.527783557772636414e-02,-1.095622405409812927e-01,-1.395682692527770996e-01,-9.331236779689788818e-02,-2.331968098878860474e-01,-4.829937592148780823e-02,-7.120274752378463745e-02,-1.571118533611297607e-01,-7.506840676069259644e-02,-7.208523154258728027e-02
-9.732072800397872925e-02,-7.311534136533737183e-02,-2.396876513957977295e-01,-3.596872463822364807e-02,-2.229627966880798340e-01,-5.667360499501228333e-02,-3.020609170198440552e-02,-2.877920120954513550e-02,-1.355265527963638306e-01,-1.117936894297599792e-01
-6.949080526828765869e-02,-1.435677856206893921e-01,-6.369381397962570190e-02,-2.246696203947067261e-01,-3.230568766593933105e-02,-1.730230003595352173e-01,-1.484277695417404175e-01,-3.260872885584831238e-02,-4.441456496715545654e-02,-4.664781317114830017e-02
-1.787000596523284912e-01,1.491865515708923340e-01,2.946038842201232910e-01,-3.980256915092468262e-01,-1.563526131212711334e-02,8.974730968475341797e-02,-5.546999722719192505e-02,-1.380664482712745667e-02,-5.978771671652793884e-02,-3.640921041369438171e-02
2.929987907409667969e-01,1.073004305362701416e-01,4.260095059871673584e-01,-7.239445447921752930e-01,-1.581310108304023743e-02,4.619864821434020996e-01,-2.396648377180099487e-01,-4.884377587586641312e-03,5.279701948165893555e-01,-9.282964468002319336e-02
1.639402359724044800e-01,-2.231096774339675903e-01,3.464717566967010498e-01,-1.177114620804786682e-01,1.803548634052276611e-02,-5.001063942909240723e-01,-1.282259523868560791e-01,-2.137576192617416382e-01,2.084516435861587524e-01,1.671376377344131470e-01
4.776512086391448975e-01,3.396131992340087891e-01,9.953436851501464844e-01,-5.305972695350646973e-01,-5.431479215621948242e-02,-6.831436157226562500e-01,-5.326429754495620728e-02,2.143989205360412598e-01,-8.687123060226440430e-01,7.175815701484680176e-01
-1.504776030778884888e-01,5.298069715499877930e-01,8.733115196228027344e-01,-6.005544662475585938e-01,-4.466900601983070374e-02,-8.150702714920043945e-02,-2.834720723330974579e-02,-1.759437620639801025e-01,-6.310843825340270996e-01,3.739277720451354980e-01
-1.620811969041824341e-02,5.330895781517028809e-01,1.705259978771209717e-01,-4.508668780326843262e-01,3.788609802722930908e-01,-4.155289828777313232e-01,-3.401364982128143311e-01,-5.409938693046569824e-01,2.266814708709716797e-01,-2.068642079830169678e-01
6.931901574134826660e-01,7.224361896514892578e-01,3.678236603736877441e-01,5.230282247066497803e-02,5.681573748588562012e-01,-6.773645877838134766e-01,1.163383796811103821e-01,-1.436699330806732178e-01,-4.690215289592742920e-01,-4.959250390529632568e-01
1.013740181922912598e+00,1.355078577995300293e+00,3.619898259639739990e-01,3.687049075961112976e-02,9.315812587738037109e-01,-1.508674502372741699e+00,8.487946987152099609e-01,-9.582800418138504028e-02,-2.242459505796432495e-01,1.658902615308761597e-01
5.172697305679321289e-01,2.114737033843994141e+00,-3.301051557064056396e-01,2.852700650691986084e-01,6.745587587356567383e-01,-1.406477689743041992e+00,1.007726430892944336e+00,6.749799847602844238e-01,4.945854246616363525e-01,7.790222018957138062e-02
1.295778155326843262e+00,1.771935224533081055e+00,5.082669854164123535e-01,-9.348418563604354858e-02,8.801720142364501953e-01,-2.555693149566650391e+00,9.111715555191040039e-01,4.595808088779449463e-01,2.250496298074722290e-01,1.699479371309280396e-01
-3.777590021491050720e-02,-5.780936032533645630e-02,-3.548373654484748840e-02,-3.845997154712677002e-01,-4.330279529094696045e-01,9.407892823219299316e-02,-7.057047486305236816e-01,-2.759748101234436035e-01,6.720769684761762619e-03,-1.738514937460422516e-02
3.051739931106567383e-01,8.898465037345886230e-01,3.210536241531372070e-01,1.225115656852722168e+00,5.831888914108276367e-01,-2.080390214920043945e+00,8.369441628456115723e-01,3.884362280368804932e-01,3.140163123607635498e-01,-4.676385521888732910e-01
-2.663075923919677734e+00,-3.979750633239746094e+00,-5.080075263977050781e-01,-6.225917488336563110e-02,-1.068630456924438477e+00,1.586172282695770264e-01,-4.545875549316406250e+00,-7.952719926834106445e-03,1.645211689174175262e-02,-1.130069270730018616e-01
-7.811163425445556641e+00,-1.385904192924499512e+00,-8.730312585830688477e-01,5.850684270262718201e-02,-7.025523781776428223e-01,2.226046621799468994e-01,-1.366443872451782227e+00,4.741309583187103271e-02,6.685191392898559570e-02,-1.600041426718235016e-02
5.170620083808898926e-01,5.833199024200439453e-01,-4.455798566341400146e-01,7.923869490623474121e-01,1.126994013786315918e+00,-1.893634319305419922e+00,1.361999630928039551e+00,3.689672648906707764e-01,6.900621652603149414e-01,9.159684777259826660e-01
9.002769589424133301e-01,5.958961844444274902e-01,1.620578169822692871e-01,-6.518139243125915527e-01,9.292395710945129395e-01,-8.311054706573486328e-01,1.059006214141845703e+00,7.012271881103515625e-01,5.639511942863464355e-01,1.411489605903625488e+00
-7.483308762311935425e-02,-2.805518865585327148e+00,-6.080314889550209045e-02,-7.445950992405414581e-03,-1.120794266462326050e-01,1.854405552148818970e-02,-2.541785240173339844e-01,-5.463337525725364685e-02,-6.365950405597686768e-02,-4.822690784931182861e-02
-2.766541764140129089e-02,-4.803924560546875000e+00,-3.810242190957069397e-02,2.653691684827208519e-03,-4.442610964179039001e-02,5.297726485878229141e-03,-6.071000099182128906e-01,-2.785052172839641571e-02,-3.216794133186340332e-02,-2.549624443054199219e-02
-2.726195007562637329e-02,-3.949317455291748047e+00,-9.565528482198715210e-02,5.298569332808256149e-03,-2.772204764187335968e-02,-2.711777109652757645e-03,-1.287142515182495117e+00,-2.180513553321361542e-02,-1.852939650416374207e-02,-2.487861365079879761e-02
6.560594439506530762e-01,3.159846961498260498e-01,5.802295804023742676e-01,-1.835418224334716797e+00,5.884777307510375977e-01,5.738021135330200195e-01,1.437131017446517944e-01,9.224629998207092285e-01,5.157368183135986328e-01,6.401999592781066895e-01
1.217458248138427734e-01,1.083767265081405640e-01,4.868058562278747559e-01,-7.550759911537170410e-01,3.766381442546844482e-01,1.487092822790145874e-01,4.874971881508827209e-02,5.803933739662170410e-01,6.240051388740539551e-01,-2.264564186334609985e-01
-9.410671889781951904e-02,-6.434237957000732422e-02,3.089416027069091797e-01,-1.591530591249465942e-01,1.633998006582260132e-02,-4.624150395393371582e-01,1.231010332703590393e-01,2.774349153041839600e-01,3.929284214973449707e-01,-1.607542186975479126e-01
-5.328310281038284302e-02,-2.807617187500000000e-02,-2.004998177289962769e-01,-1.330205500125885010e-01,-1.508886963129043579e-01,-5.233849287033081055e-01,1.505137681961059570e-01,1.887303143739700317e-01,2.130684256553649902e-01,4.550783932209014893e-01
-6.437893956899642944e-02,-2.125970460474491119e-02,-5.374956876039505005e-02,-3.229426965117454529e-02,-7.907234132289886475e-03,-7.156633585691452026e-02,-6.652610003948211670e-02,-1.196259781718254089e-01,-2.959513664245605469e-02,-6.686145812273025513e-02
-2.150725014507770538e-02,-8.231279999017715454e-02,-2.308296039700508118e-02,-2.511979080736637115e-02,-3.010173700749874115e-02,-9.730496257543563843e-02,-2.471658885478973389e-01,-1.531586982309818268e-02,-2.261718362569808960e-02,-4.396616294980049133e-02
-8.221063762903213501e-02,-2.145994454622268677e-02,-6.342257559299468994e-02,-7.940606772899627686e-02,-1.882837116718292236e-01,-1.065500006079673767e-01,-1.654322259128093719e-02,-5.461255833506584167e-02,-5.646876990795135498e-02,-1.188382431864738464e-01
-1.615843772888183594e-01,-5.282991752028465271e-02,-8.872961252927780151e-02,-2.052044719457626343e-01,-3.099030256271362305e-02,-9.407430142164230347e-02,-7.777786999940872192e-02,-2.911525405943393707e-02,-2.027544975280761719e-01,-5.703400075435638428e-02
-2.487097084522247314e-01,1.147119235247373581e-02,-9.529671818017959595e-02,-6.897507607936859131e-02,-1.856000423431396484e-01,-4.387333616614341736e-02,1.361678447574377060e-02,-6.420562863349914551e-01,-2.094769775867462158e-01,2.309749722480773926e-01
-2.759924530982971191e-02,1.860384643077850342e-01,3.602929413318634033e-01,-1.249756217002868652e-01,-2.945674210786819458e-02,-1.410786211490631104e-01,-1.041450202465057373e-01,-5.299395918846130371e-01,-6.130999922752380371e-01,2.719020843505859375e-01
4.527201950550079346e-01,2.731619477272033691e-01,-8.183495700359344482e-02,2.563602626323699951e-01,-5.882257223129272461e-01,-2.018588632345199585e-01,8.785816840827465057e-03,4.315241277217864990e-01,-5.149863362312316895e-01,1.440109461545944214e-01
1.751449406147003174e-01,4.310503900051116943e-01,-3.123855590820312500e-01,4.904261231422424316e-02,-4.488025903701782227e-01,-7.453055977821350098e-01,1.843323372304439545e-02,4.331931769847869873e-01,3.955516815185546875e-01,5.924193859100341797e-01
-1.414271295070648193e-01,5.934275984764099121e-01,3.075391352176666260e-01,-1.164001524448394775e-01,-5.105742067098617554e-02,-5.054069757461547852e-01,-3.310786187648773193e-01,-7.961153984069824219e-02,1.229268684983253479e-01,5.253439545631408691e-01
-4.840551316738128662e-01,1.019096255302429199e+00,3.186067044734954834e-01,2.798736691474914551e-01,-1.051587909460067749e-01,-3.871618211269378662e-01,-1.234002932906150818e-01,-1.552155762910842896e-01,1.323805749416351318e-01,2.074263095855712891e-01
5.834849476814270020e-01,1.323884487152099609e+00,7.771806716918945312e-01,7.800592780113220215e-01,-1.330816000699996948e-01,-8.384931087493896484e-01,3.346972167491912842e-01,-1.201116815209388733e-01,-6.122860312461853027e-01,7.413747161626815796e-02
-2.921286039054393768e-02,-2.339564859867095947e-01,-3.364264965057373047e-02,-4.054789990186691284e-02,-2.963457070291042328e-02,6.903839530423283577e-04,-4.071509242057800293e-01,-3.303253650665283203e-02,1.813209243118762970e-02,-3.381529077887535095e-02
-1.519827265292406082e-02,-6.204495951533317566e-02,-1.156448572874069214e-02,-2.289234846830368042e-02,-1.216519344598054886e-02,5.038543790578842163e-02,-7.438881993293762207e-01,-1.706539466977119446e-02,5.912452936172485352e-02,-1.094710174947977066e-02
1.534783393144607544e-01,1.521389931440353394e-01,1.702370345592498779e-01,9.911918640136718750e-02,1.604516655206680298e-01,2.665235996246337891e-01,1.415546983480453491e-01,1.599715501070022583e-01,-1.400647521018981934e+00,1.096167862415313721e-01
-1.083090826869010925e-01,-1.589870005846023560e-01,-7.747170329093933105e-02,-1.248665228486061096e-01,-7.979006320238113403e-02,7.352025806903839111e-02,-2.796149849891662598e-01,-8.332197368144989014e-02,5.489370971918106079e-02,-7.445066422224044800e-02
-2.459751367568969727e-01,-2.926776111125946045e-01,-2.726572379469871521e-02,-1.641203016042709351e-01,-2.972939796745777130e-02,1.835199445486068726e-01,-4.712516963481903076e-01,-3.376997634768486023e-02,1.304095536470413208e-01,-2.221142686903476715e-02
-9.164643287658691406e-01,-2.071499586105346680e+00,-8.199536800384521484e-02,-1.126160696148872375e-01,-8.574900031089782715e-02,2.049318253993988037e-01,-3.308540284633636475e-01,-8.672371506690979004e-02,9.231334179639816284e-02,-7.468604296445846558e-02
-1.916592597961425781e+00,-6.865532875061035156e+00,-4.630035907030105591e-02,-3.115297108888626099e-02,-4.783774167299270630e-02,3.041801154613494873e-01,-1.691771596670150757e-01,-4.974997416138648987e-02,1.360737532377243042e-01,-3.866886720061302185e-02
-1.014705181121826172e+00,-7.929257392883300781e+00,-9.750892519950866699e-01,2.002741023898124695e-02,-3.900376334786415100e-02,3.043826222419738770e-01,-7.127435505390167236e-02,-2.376286499202251434e-02,1.347366720438003540e-01,-3.522318601608276367e-02
-1.311977982521057129e+00,-3.609043598175048828e+00,-9.252620488405227661e-02,1.593109220266342163e-02,-8.918244391679763794e-02,1.992135047912597656e-01,-1.054201200604438782e-01,-5.704205855727195740e-02,5.888456851243972778e-02,-8.162700384855270386e-02
-1.159476280212402344e+00,-6.896058917045593262e-01,-5.693694204092025757e-02,7.085668295621871948e-02,-5.595775321125984192e-02,1.547137349843978882e-01,-1.111028417944908142e-01,-3.512709960341453552e-02,4.646634310483932495e-02,-4.494604840874671936e-02
-1.392625868320465088e-01,-1.470099240541458130e-01,-5.142961814999580383e-02,7.724203169345855713e-02,-5.562985315918922424e-02,7.409168034791946411e-02,-2.479428201913833618e-01,-3.871281072497367859e-02,1.093007437884807587e-02,-4.412840306758880615e-02
-6.366438418626785278e-02,-6.767624616622924805e-02,-5.773570761084556580e-02,4.173456132411956787e-02,-7.326231896877288818e-02,3.947533841710537672e-04,-2.629390656948089600e-01,-5.272580683231353760e-02,-3.204071521759033203e-02,-5.302151292562484741e-02
-4.228370636701583862e-02,-4.536039754748344421e-02,-3.278911858797073364e-02,2.934375777840614319e-02,-7.297451049089431763e-02,-1.357255224138498306e-02,-1.773685514926910400e-01,-3.528264909982681274e-02,-2.406972832977771759e-02,-3.239127993583679199e-02
-6.774918735027313232e-02,-1.189803779125213623e-01,-4.537021741271018982e-02,-1.759493909776210785e-02,-9.731049835681915283e-02,-4.293341562151908875e-02,-1.356363147497177124e-01,-5.863150581717491150e-02,-4.253504425287246704e-02,-7.152219116687774658e-02
4.483841359615325928e-02,5.452859997749328613e-01,9.181813597679138184e-01,-6.564911603927612305e-01,4.271770715713500977e-01,-4.588637053966522217e-01,5.148832201957702637e-01,1.075744867324829102e+00,-2.642449736595153809e-01,-4.327670633792877197e-01
-3.539869189262390137e-01,-3.426822423934936523e-01,6.423465609550476074e-01,-9.462089538574218750e-01,4.689672887325286865e-01,-2.813501656055450439e-01,1.140970826148986816e+00,1.128110885620117188e+00,8.809560537338256836e-01,2.012488991022109985e-01
-1.072327047586441040e-01,-6.502396464347839355e-01,8.917766064405441284e-02,-3.813422024250030518e-01,-5.656398367136716843e-03,-4.860076308250427246e-01,1.602061688899993896e-01,4.554851055145263672e-01,8.469009399414062500e-01,4.221590459346771240e-01
-1.356985270977020264e-01,-1.873195171356201172e-02,-1.748212128877639771e-01,2.510221600532531738e-01,-1.186312064528465271e-01,1.412884593009948730e-01,-6.275720149278640747e-02,-2.133834213018417358e-01,2.671045660972595215e-01,-6.459677219390869141e-01
-4.159318283200263977e-02,-3.657977283000946045e-02,-1.704309284687042236e-01,-8.881284296512603760e-02,-8.613576740026473999e-02,-1.013846769928932190e-01,-1.450730860233306885e-01,-3.599980846047401428e-02,-1.904524117708206177e-01,-4.484349116683006287e-02
-9.460861235857009888e-02,-1.121724992990493774e-01,-5.897710099816322327e-02,-9.696418046951293945e-02,-6.823453307151794434e-02,-1.718403398990631104e-02,-5.425540357828140259e-02,-1.468946784734725952e-02,-1.731836795806884766e-02,-2.593617886304855347e-02
-6.498256325721740723e-02,-2.272925376892089844e-01,-2.972024865448474884e-02,-6.016055122017860413e-02,-5.832422971725463867e-01,-2.802109532058238983e-02,3.294385373592376709e-01,-7.076240330934524536e-02,3.233041763305664062e-01,6.593060493469238281e-02
-1.552772126160562038e-03,-1.844009906053543091e-01,2.292383164167404175e-01,1.490292847156524658e-01,-6.451017856597900391e-01,-6.156187877058982849e-02,3.841491341590881348e-01,-5.928900837898254395e-01,3.800514638423919678e-01,3.712661266326904297e-01
3.361061513423919678e-01,-6.002500653266906738e-01,2.243072241544723511e-01,-3.204706311225891113e-01,2.217587381601333618e-01,-5.147605538368225098e-01,7.903144508600234985e-02,-5.541869401931762695e-01,1.703140586614608765e-01,6.070698499679565430e-01
8.266478180885314941e-01,-1.027934789657592773e+00,-3.139570355415344238e-01,9.617423266172409058e-02,-2.252165824174880981e-01,-6.198271736502647400e-02,-8.503382652997970581e-02,-5.025080442428588867e-01,1.916932500898838043e-02,6.821230649948120117e-01
4.784493744373321533e-01,-3.634818494319915771e-01,-1.497926115989685059e-01,3.782491981983184814e-01,-2.339329123497009277e-01,-1.516634970903396606e-01,4.797709286212921143e-01,4.317241162061691284e-02,-4.853626489639282227e-01,2.640251517295837402e-01
1.535276919603347778e-01,5.711688399314880371e-01,1.066122949123382568e-01,4.758555293083190918e-01,-5.563791990280151367e-01,-5.947513580322265625e-01,4.960362017154693604e-01,1.029678657650947571e-01,1.500225812196731567e-01,-2.029676456004381180e-03
-4.362473636865615845e-02,-8.298926800489425659e-02,-4.594500735402107239e-02,-5.755553022027015686e-02,-1.309900544583797455e-02,-2.959330938756465912e-02,-7.258940339088439941e-01,-4.832348600029945374e-02,-9.327381849288940430e-03,-4.853444173932075500e-02
-4.982101917266845703e-02,-1.720584332942962646e-01,-4.505566507577896118e-02,-1.650294661521911621e-01,-6.934207631275057793e-04,-2.824116684496402740e-02,-6.403626799583435059e-01,-5.665411055088043213e-02,2.233841829001903534e-02,-5.838090926408767700e-02
-3.303953632712364197e-02,-1.293019950389862061e-01,-1.448289491236209869e-02,-7.897972315549850464e-02,5.670279264450073242e-02,1.734057627618312836e-02,-4.093101620674133301e-01,-3.034978546202182770e-02,9.600131958723068237e-02,-3.367759287357330322e-02
2.030865475535392761e-02,-3.538582473993301392e-02,-9.189347028732299805e-01,1.485231565311551094e-03,1.679720431566238403e-01,1.179903671145439148e-01,-2.283107638359069824e-01,4.267803207039833069e-02,2.220274955034255981e-01,3.192664682865142822e-02
-9.688681364059448242e-02,-1.383881419897079468e-01,-2.742284350097179413e-02,-9.750223159790039062e-02,9.561211615800857544e-02,7.119771093130111694e-02,-1.704237759113311768e-01,-4.316585510969161987e-02,1.948914825916290283e-01,-7.226556539535522461e-02
-1.335242688655853271e-01,-1.685230582952499390e-01,2.340227179229259491e-02,-8.478584885597229004e-02,1.307399123907089233e-01,1.522435098886489868e-01,-8.282177150249481201e-02,4.850589670240879059e-03,2.853782176971435547e-01,-6.514005362987518311e-02
-4.897364377975463867e-01,-3.000775277614593506e-01,7.475059479475021362e-02,-7.330334931612014771e-02,1.533378958702087402e-01,2.482192963361740112e-01,-7.212551683187484741e-02,7.736872136592864990e-02,3.620636165142059326e-01,-6.140245497226715088e-02
-7.075092792510986328e-01,-8.601337671279907227e-01,7.383418828248977661e-02,-8.448530733585357666e-02,1.121013164520263672e-01,3.016452789306640625e-01,-9.193848073482513428e-02,9.625779092311859131e-02,3.680877089500427246e-01,-9.392193704843521118e-02
-7.988261580467224121e-01,-2.684140682220458984e+00,1.207392439246177673e-01,1.174567546695470810e-02,1.008493229746818542e-01,3.498694896697998047e-01,-4.607554152607917786e-02,1.234745234251022339e-01,3.948745429515838623e-01,-2.483438886702060699e-02
-6.487119197845458984e-01,-2.267486095428466797e+00,9.528647363185882568e-02,8.727802336215972900e-02,3.420629352331161499e-02,2.709699571132659912e-01,-5.659224092960357666e-02,3.947569802403450012e-02,3.370932042598724365e-01,4.014195129275321960e-02
-8.003963232040405273e-01,-1.179930567741394043e+00,8.310748636722564697e-02,1.769975870847702026e-01,-4.216993111185729504e-04,1.850120127201080322e-01,-4.213258624076843262e-02,-3.834382072091102600e-02,2.810595631599426270e-01,1.211974397301673889e-01
-9.334157705307006836e-01,-6.955961585044860840e-01,4.997642338275909424e-02,2.224710881710052490e-01,-2.124719507992267609e-02,1.069427952170372009e-01,-2.828533761203289032e-02,-7.440085709095001221e-02,2.014496624469757080e-01,1.282519996166229248e-01
-1.723337769508361816e-01,-3.490217030048370361e-01,-3.485780907794833183e-03,1.868420392274856567e-01,-5.106754973530769348e-02,1.275936979800462723e-02,-4.169142991304397583e-02,-9.680382907390594482e-02,9.586821496486663818e-02,7.994487136602401733e-02
2.171709388494491577e-02,7.557395845651626587e-03,-8.786162137985229492e-01,2.289369702339172363e-01,4.082562774419784546e-02,5.811016261577606201e-02,4.983549937605857849e-02,-1.521943951956927776e-03,1.176631301641464233e-01,1.362618505954742432e-01
-7.316292077302932739e-02,-7.184029370546340942e-02,-5.849112197756767273e-02,6.427112966775894165e-02,-5.472067743539810181e-02,-5.682938918471336365e-02,-5.505698546767234802e-02,-1.015495732426643372e-01,-3.333893418312072754e-02,-1.487424969673156738e-02
-4.127062857151031494e-02,-1.697484105825424194e-01,-3.876763284206390381e-01,5.587094277143478394e-02,-2.229772880673408508e-02,-2.586063556373119354e-02,-1.613234356045722961e-02,-3.524855524301528931e-02,-1.064868178218603134e-02,-8.644280023872852325e-03
1.718926280736923218e-01,2.405940890312194824e-01,3.478891551494598389e-01,-1.234322786331176758e+00,1.761326566338539124e-02,6.781212985515594482e-02,-1.672726422548294067e-01,1.213525891304016113e+00,4.388573765754699707e-01,-5.467573925852775574e-02
-3.266189396381378174e-01,-2.406187914311885834e-02,-9.606952965259552002e-02,6.411433964967727661e-02,4.695224110037088394e-03,3.774683922529220581e-02,3.936218842864036560e-02,3.159745410084724426e-02,-2.648283243179321289e-01,-4.169420897960662842e-01
-1.979676336050033569e-01,2.008096575736999512e-01,-1.512259393930435181e-01,-1.037019968032836914e+00,2.548369765281677246e-01,9.921492338180541992e-01,5.342438817024230957e-01,6.153874397277832031e-01,-1.760071218013763428e-01,-5.362297892570495605e-01
1.646524220705032349e-01,7.878612875938415527e-01,-3.420359492301940918e-01,-4.025607109069824219e-01,1.087519451975822449e-01,8.275036811828613281e-01,4.862534701824188232e-01,-4.107630520593374968e-04,6.374983787536621094e-01,-8.871914744377136230e-01
-1.092079430818557739e-01,3.311589062213897705e-01,-1.577184200286865234e-01,3.181095123291015625e-01,-2.282827645540237427e-01,3.210482597351074219e-01,4.757627472281455994e-02,-1.603626012802124023e-01,1.095031872391700745e-01,-4.844493567943572998e-01
-2.698016166687011719e-02,-1.031848862767219543e-01,-1.674693673849105835e-01,-1.462886929512023926e-01,-1.248324140906333923e-01,-3.245977312326431274e-02,-8.865684270858764648e-02,-2.599470317363739014e-02,-1.447619348764419556e-01,-7.362835854291915894e-02
-1.327809970825910568e-02,-2.868337789550423622e-03,-1.191742867231369019e-01,-2.944075874984264374e-02,-1.924688220024108887e-01,-5.605662614107131958e-02,-8.135827258229255676e-03,-5.716885626316070557e-02,-8.151353336870670319e-03,-1.147418990731239319e-01
-1.682222932577133179e-01,-1.555701196193695068e-01,3.770164847373962402e-01,4.487796425819396973e-01,-2.754124701023101807e-01,-6.132173538208007812e-01,-1.446247994899749756e-01,-7.126760482788085938e-01,9.828751534223556519e-02,7.626382708549499512e-01
-8.124872297048568726e-02,-4.824721813201904297e-01,6.375789642333984375e-01,2.200177013874053955e-01,-2.994613945484161377e-01,-5.385292172431945801e-01,-6.173527836799621582e-01,9.441976547241210938e-01,4.367911219596862793e-01,1.967450976371765137e-02
-9.554198384284973145e-02,-2.222151607275009155e-01,4.024884998798370361e-01,2.389402836561203003e-01,-2.439242452383041382e-01,-4.176023006439208984e-01,-1.035370230674743652e-01,3.124140202999114990e-01,-2.054253518581390381e-01,6.144954562187194824e-01
-6.480430960655212402e-01,-2.715384364128112793e-01,-1.803264766931533813e-01,2.897338867187500000e-01,-2.883802354335784912e-01,2.474546134471893311e-01,1.766411662101745605e-01,2.242630422115325928e-01,-2.003154605627059937e-01,5.632161349058151245e-02
-4.956299439072608948e-02,-7.524405419826507568e-02,-4.476648196578025818e-02,-1.083104908466339111e-01,4.952654242515563965e-03,-3.703039139509201050e-02,-2.162437289953231812e-01,-6.101351603865623474e-02,-1.969435997307300568e-02,-5.329599604010581970e-02
-3.635198250412940979e-02,-6.334252655506134033e-02,-3.308830037713050842e-02,-4.428498744964599609e-01,7.367601990699768066e-02,-2.052871696650981903e-02,-2.101392596960067749e-01,-4.780943319201469421e-02,4.045993834733963013e-02,-4.688697680830955505e-02
-3.937903046607971191e-02,-8.905918896198272705e-02,-3.865341469645500183e-02,-6.279593706130981445e-01,1.504495888948440552e-01,-1.863858662545681000e-02,-3.405563831329345703e-01,-5.793070420622825623e-02,9.153921157121658325e-02,-6.624204665422439575e-02
-8.703511208295822144e-03,-6.381345540285110474e-02,1.257758773863315582e-02,-8.050222396850585938e-01,2.872565686702728271e-01,4.324590414762496948e-02,-1.414933800697326660e-01,-2.612071298062801361e-02,2.038191407918930054e-01,-3.567337989807128906e-02
-9.527962654829025269e-02,-1.470677703619003296e-01,-1.696638576686382294e-02,-4.064762890338897705e-01,3.170742392539978027e-01,1.628747954964637756e-02,-1.124040856957435608e-01,-8.416642993688583374e-02,2.233603745698928833e-01,-1.164076253771781921e-01
-1.520236283540725708e-01,-1.932067871093750000e-01,1.965516060590744019e-02,-2.414356917142868042e-01,3.759552240371704102e-01,5.457275360822677612e-02,-1.146460771560668945e-01,-8.398826420307159424e-02,2.857918441295623779e-01,-1.640971153974533081e-01
-1.873062849044799805e-01,-2.139530181884765625e-01,1.029579341411590576e-01,-2.037472873926162720e-01,4.372227191925048828e-01,1.474577039480209351e-01,-4.892401769757270813e-02,-6.630374118685722351e-04,3.546023964881896973e-01,-1.807809025049209595e-01
-2.482678294181823730e-01,-3.312845528125762939e-01,1.685415953397750854e-01,-2.052467763423919678e-01,4.297083020210266113e-01,2.069953978061676025e-01,3.274065256118774414e-02,1.000139787793159485e-01,3.765760660171508789e-01,-2.211513072252273560e-01
-2.928398847579956055e-01,-4.870258867740631104e-01,2.824303805828094482e-01,-7.858224213123321533e-02,4.511596560478210449e-01,2.914538383483886719e-01,1.825841665267944336e-01,2.528016865253448486e-01,4.504358470439910889e-01,-1.635596007108688354e-01
-3.981904387474060059e-01,-7.099451422691345215e-01,2.649327218532562256e-01,-1.479444559663534164e-03,3.420258760452270508e-01,1.868075728416442871e-01,2.031271457672119141e-01,2.083621770143508911e-01,3.964910209178924561e-01,-1.342405676841735840e-01
-2.335352152585983276e-01,-7.344214916229248047e-01,2.864373624324798584e-01,1.557618826627731323e-01,2.740433812141418457e-01,9.731440246105194092e-02,2.527644634246826172e-01,8.977527171373367310e-02,3.886686861515045166e-01,5.902685225009918213e-02
-2.102955728769302368e-01,-6.304896473884582520e-01,2.408274710178375244e-01,2.279321402311325073e-01,1.591828614473342896e-01,-2.259467542171478271e-02,2.386534363031387329e-01,-1.009299308061599731e-01,3.254675269126892090e-01,2.025571018457412720e-01
-1.808875203132629395e-01,-5.348448753356933594e-01,1.583702862262725830e-01,2.435741871595382690e-01,3.965295851230621338e-02,-1.098144054412841797e-01,1.850130409002304077e-01,-2.094938755035400391e-01,2.208300232887268066e-01,2.177123725414276123e-01
-1.708988845348358154e-01,-2.039284259080886841e-01,7.103691250085830688e-02,2.073634415864944458e-01,-4.743176326155662537e-02,-1.630095988512039185e-01,1.129289567470550537e-01,-2.905910909175872803e-01,1.068289503455162048e-01,1.322887241840362549e-01
-1.173280030488967896e-01,-1.280589401721954346e-01,1.983007416129112244e-02,1.941857039928436279e-01,-5.110792815685272217e-02,-1.375929564237594604e-01,8.671645075082778931e-02,-4.420494139194488525e-01,4.243072867393493652e-02,9.156877547502517700e-02
-5.169213563203811646e-02,-4.714643210172653198e-02,1.900925068184733391e-03,1.788287311792373657e-01,-1.774008758366107941e-02,-6.712237000465393066e-02,7.860644906759262085e-02,-4.270431697368621826e-01,1.876935921609401703e-02,5.638492107391357422e-02
-6.315898150205612183e-02,-4.887427389621734619e-02,-4.473751410841941833e-02,9.142430126667022705e-02,-4.313423112034797668e-02,-6.960075348615646362e-02,2.184941060841083527e-02,-5.066376328468322754e-01,-3.981203958392143250e-02,-1.594500988721847534e-02
-6.603217124938964844e-02,-4.744027554988861084e-02,-5.617062002420425415e-02,2.974999323487281799e-02,-5.354990810155868530e-02,-5.900144577026367188e-02,-9.151096455752849579e-03,-1.101866602897644043e+00,-6.124352663755416870e-02,-4.372589290142059326e-02
-2.432931587100028992e-02,-2.045158110558986664e-02,-2.039415016770362854e-02,2.826537005603313446e-02,-3.430919349193572998e-01,-1.717862673103809357e-02,7.621794473379850388e-03,-1.304667949676513672e+00,-2.291648648679256439e-02,-1.232902333140373230e-02
-3.838429227471351624e-02,8.808270096778869629e-03,-1.658615022897720337e-01,2.016429603099822998e-02,1.845892285928130150e-03,7.610035594552755356e-03,1.746031828224658966e-02,-9.035345315933227539e-01,7.010976318269968033e-03,-1.525983661413192749e-01
1.049361467361450195e+00,2.576064169406890869e-01,1.712728500366210938e+00,-1.139511942863464355e+00,-4.565694034099578857e-01,1.255115151405334473e+00,-1.247619628906250000e+00,3.456954285502433777e-02,1.109279751777648926e+00,1.192759796977043152e-01
-1.349250078201293945e-01,5.043004751205444336e-01,7.817150652408599854e-02,-6.347455382347106934e-01,6.934037059545516968e-02,3.488263785839080811e-01,-5.408764481544494629e-01,-2.208333760499954224e-01,2.471039444208145142e-01,1.906145960092544556e-01
-3.425039350986480713e-02,-1.902489811182022095e-01,-1.679356396198272705e-01,-3.485831990838050842e-02,-8.394701033830642700e-02,-9.837117046117782593e-02,-4.502646997570991516e-02,-8.327427506446838379e-02,-1.219627782702445984e-01,-5.886527150869369507e-02
-9.623147547245025635e-03,2.131533622741699219e-01,-2.124114893376827240e-02,-6.777749657630920410e-01,-1.225160360336303711e-01,-7.824197411537170410e-03,2.250906825065612793e-01,-6.793917715549468994e-02,1.353905498981475830e-01,2.274378687143325806e-01
3.895333707332611084e-01,-4.182268083095550537e-01,4.090642035007476807e-01,2.534777820110321045e-01,1.924299001693725586e-01,-4.610202908515930176e-01,-3.219353854656219482e-01,-8.466429114341735840e-01,-9.379941225051879883e-02,3.760510385036468506e-01
-4.988473355770111084e-01,3.486165106296539307e-01,7.582785487174987793e-01,1.546963751316070557e-01,-2.429090142250061035e-01,-3.678157553076744080e-02,-6.138952374458312988e-01,4.324518889188766479e-02,4.086429476737976074e-01,2.454235255718231201e-01
-9.263928979635238647e-02,6.422595381736755371e-01,-2.131443470716476440e-01,6.125233769416809082e-01,-6.517550945281982422e-01,-2.716213762760162354e-01,8.001156896352767944e-02,5.781760811805725098e-01,-4.987291395664215088e-01,6.257651448249816895e-01
1.607575714588165283e-01,-4.274137020111083984e-01,-7.990984916687011719e-01,4.502795636653900146e-02,2.081485837697982788e-01,-2.705332040786743164e-01,-3.506567180156707764e-01,1.467164754867553711e-01,-4.925815463066101074e-01,1.304117441177368164e-01
1.676320843398571014e-02,-4.849706776440143585e-03,-5.845354795455932617e-01,-3.098686039447784424e-01,1.256242394447326660e-01,1.745872199535369873e-02,-1.655214428901672363e-01,6.293080747127532959e-03,6.467799097299575806e-02,-4.663817235268652439e-04
5.892607849091291428e-03,-2.957796864211559296e-02,-4.869341384619474411e-03,-9.842710494995117188e-01,2.125883698463439941e-01,6.949469679966568947e-04,-2.602757513523101807e-01,-1.904336363077163696e-02,1.052544936537742615e-01,-2.395682595670223236e-02
3.110433556139469147e-02,-3.103142231702804565e-02,2.862485498189926147e-02,-1.614396214485168457e+00,3.405431807041168213e-01,2.573880925774574280e-02,-3.459840267896652222e-02,-1.394738536328077316e-02,1.924017071723937988e-01,-3.110548108816146851e-02
1.895777881145477295e-02,-6.923143565654754639e-02,5.467225611209869385e-02,-2.160690784454345703e+00,4.471654295921325684e-01,3.625914081931114197e-02,-4.152541607618331909e-02,-4.618225991725921631e-02,2.533864080905914307e-01,-7.769734412431716919e-02
-3.480907157063484192e-02,-1.503984630107879639e-01,8.112726360559463501e-02,-1.016227483749389648e+00,4.886908829212188721e-01,3.117256239056587219e-02,-3.973441198468208313e-02,-1.024204567074775696e-01,2.685748934745788574e-01,-1.545519381761550903e-01
-3.524111583828926086e-02,-1.671841293573379517e-01,1.987576335668563843e-01,-3.887256383895874023e-01,5.490549802780151367e-01,1.302987486124038696e-01,9.281934052705764771e-02,-6.568725407123565674e-02,3.245884180068969727e-01,-1.702904552221298218e-01
-6.270962953567504883e-02,-1.766059249639511108e-01,2.914351522922515869e-01,-2.236892431974411011e-01,5.350671410560607910e-01,2.267162054777145386e-01,2.569294869899749756e-01,2.267845720052719116e-02,3.334855437278747559e-01,-2.065623998641967773e-01
-8.251045644283294678e-02,-1.729685515165328979e-01,3.654243648052215576e-01,-1.356795728206634521e-01,5.030977129936218262e-01,2.827739119529724121e-01,4.037540853023529053e-01,1.942585557699203491e-01,3.381892442703247070e-01,-2.286631464958190918e-01
-1.227408647537231445e-01,-2.029613852500915527e-01,3.780052959918975830e-01,-1.253677625209093094e-02,4.437474012374877930e-01,2.061058431863784790e-01,4.545169174671173096e-01,3.262129426002502441e-01,3.023367226123809814e-01,-2.370202094316482544e-01
-1.182910799980163574e-01,-1.861929595470428467e-01,4.043717086315155029e-01,1.595780402421951294e-01,4.279047250747680664e-01,8.697367459535598755e-02,4.881992340087890625e-01,3.442371785640716553e-01,3.182992041110992432e-01,-9.745966643095016479e-02
-1.119739934802055359e-01,-1.495496034622192383e-01,4.093871116638183594e-01,2.704721987247467041e-01,3.917960226535797119e-01,-4.726257920265197754e-02,4.942658841609954834e-01,1.588023155927658081e-01,3.338640332221984863e-01,1.312605738639831543e-01
-1.631564050912857056e-01,-1.767625510692596436e-01,3.491591811180114746e-01,2.579005360603332520e-01,2.527811527252197266e-01,-2.093600928783416748e-01,4.205402135848999023e-01,-1.369523704051971436e-01,2.668145000934600830e-01,2.497812211513519287e-01
-1.512451022863388062e-01,-1.457727849483489990e-01,3.090754449367523193e-01,2.591801285743713379e-01,1.266553848981857300e-01,-2.658749222755432129e-01,3.720304667949676514e-01,-2.818195819854736328e-01,2.227286845445632935e-01,2.684728205204010010e-01
-1.391408443450927734e-01,-1.119369044899940491e-01,2.373872399330139160e-01,2.551995217800140381e-01,2.045824192464351654e-02,-2.496429979801177979e-01,3.151220679283142090e-01,-5.966877341270446777e-01,1.570136994123458862e-01,1.784652918577194214e-01
-9.822894632816314697e-02,-5.449948087334632874e-02,1.795700937509536743e-01,2.708580195903778076e-01,-3.373552346602082253e-03,-1.697864383459091187e-01,2.767789065837860107e-01,-1.487756133079528809e+00,1.090862676501274109e-01,1.168964952230453491e-01
-9.204238653182983398e-02,-5.692678689956665039e-02,5.781440064311027527e-02,2.220663130283355713e-01,-4.559840261936187744e-02,-1.390664428472518921e-01,1.657725423574447632e-01,-1.957923412322998047e+00,1.004345621913671494e-02,1.749148219823837280e-02
-3.925895318388938904e-02,-1.045562792569398880e-02,1.198603957891464233e-02,1.969168931245803833e-01,-1.458108425140380859e-02,-6.797710806131362915e-02,1.218439787626266479e-01,-2.059926271438598633e+00,-6.694058887660503387e-03,1.042434852570295334e-02
-4.585042968392372131e-02,-2.344738319516181946e-02,-3.592964634299278259e-02,1.068717539310455322e-01,-2.916452288627624512e-02,-4.647088050842285156e-02,5.020357668399810791e-02,-2.585491418838500977e+00,-4.600575938820838928e-02,-1.852136477828025818e-02
-2.504579536616802216e-02,-1.267345435917377472e-02,-2.992906868457794189e-01,6.119675189256668091e-02,-2.388321422040462494e-02,-1.831509917974472046e-02,2.714744769036769867e-02,-7.067846775054931641e+00,-3.496271744370460510e-02,-1.052721776068210602e-02
-4.583082720637321472e-02,-3.975692018866539001e-02,-1.402730494737625122e-01,-1.498160231858491898e-02,-5.006490275263786316e-02,-4.517446085810661316e-02,-2.156141959130764008e-02,-4.992099761962890625e+00,-4.520129039883613586e-02,-3.526017442345619202e-02
1.266616225242614746e+00,1.071557283401489258e+00,3.977505564689636230e-01,-1.541956901550292969e+00,-2.295663356781005859e-01,6.044836044311523438e-01,-1.136285066604614258e+00,1.471843663603067398e-02,1.494996309280395508e+00,3.428162038326263428e-01
3.450137078762054443e-01,6.340032815933227539e-01,9.464836120605468750e-02,-4.467324614524841309e-01,-1.361594945192337036e-01,6.643574833869934082e-01,-7.241462469100952148e-01,-6.600618362426757812e-02,-2.745333611965179443e-01,2.287772297859191895e-01
-1.306226849555969238e-01,-4.951016046106815338e-03,-1.860454827547073364e-01,-5.556198302656412125e-03,-6.778114475309848785e-04,-8.268930763006210327e-02,-2.074895948171615601e-01,-1.562159806489944458e-01,-7.041454082354903221e-04,-2.284754626452922821e-02
3.369257226586341858e-02,6.062098145484924316e-01,-1.495161205530166626e-01,-8.951829075813293457e-01,3.666265904903411865e-01,-3.666956722736358643e-01,3.796953856945037842e-01,-1.326755881309509277e-01,4.487550854682922363e-01,-3.010603189468383789e-01
3.075612187385559082e-01,-6.872655749320983887e-01,5.220391154289245605e-01,-7.587468624114990234e-01,1.503424793481826782e-01,1.558927595615386963e-01,-1.026185601949691772e-01,-7.622104287147521973e-01,5.036023855209350586e-01,-1.078727021813392639e-01
-6.873922348022460938e-01,3.534454405307769775e-01,6.937934160232543945e-01,-2.645513042807579041e-02,-1.026954278349876404e-01,-4.282123446464538574e-01,-5.966031551361083984e-01,2.307834029197692871e-01,-1.890414953231811523e-01,7.147297859191894531e-01
6.243075430393218994e-02,5.657990649342536926e-02,-1.648074686527252197e-01,-5.682618916034698486e-02,7.451920211315155029e-02,1.159220840781927109e-02,-1.756754368543624878e-01,7.202404085546731949e-04,-5.486506819725036621e-01,2.019908465445041656e-02
8.469226211309432983e-02,6.834819912910461426e-02,4.736113548278808594e-02,-4.993603825569152832e-01,-6.514941453933715820e-01,8.238056674599647522e-03,-1.049858108162879944e-01,2.011125534772872925e-02,7.516364753246307373e-02,3.625340014696121216e-02
5.106072127819061279e-02,2.302474528551101685e-02,-2.557994332164525986e-03,-1.297610282897949219e+00,1.602860391139984131e-01,1.061041024513542652e-03,-1.861767470836639404e-01,-1.034135278314352036e-02,6.515547633171081543e-02,-1.725615747272968292e-02
4.904042184352874756e-02,-2.036480698734521866e-03,-7.625882979482412338e-03,-3.080439090728759766e+00,2.282026708126068115e-01,-2.923217974603176117e-02,-6.435353308916091919e-02,-5.259305611252784729e-02,9.437020868062973022e-02,-6.285546720027923584e-02
1.226048171520233154e-01,2.716641686856746674e-02,7.957595586776733398e-02,-4.201425552368164062e+00,3.641673326492309570e-01,2.866700664162635803e-02,-1.562926359474658966e-02,-2.931508421897888184e-02,1.963733285665512085e-01,-5.919592455029487610e-02
1.114522814750671387e-01,-3.030885569751262665e-02,1.228040307760238647e-01,-3.760272741317749023e+00,4.037007987499237061e-01,8.163110353052616119e-03,-3.340117866173386574e-03,-1.048796176910400391e-01,1.946360319852828979e-01,-1.497045904397964478e-01
1.845836937427520752e-01,5.235632415860891342e-03,2.705820500850677490e-01,-1.073581218719482422e+00,4.571699202060699463e-01,1.118709668517112732e-01,1.613307148218154907e-01,-8.576309680938720703e-02,2.538462877273559570e-01,-1.434020996093750000e-01
1.633047908544540405e-01,9.006731212139129639e-03,3.536620140075683594e-01,-3.520851433277130127e-01,3.803766071796417236e-01,2.010263651609420776e-01,3.271368741989135742e-01,-8.605810254812240601e-02,2.196653336286544800e-01,-1.960661709308624268e-01
1.420767009258270264e-01,6.147137656807899475e-02,4.071566164493560791e-01,-1.696647256612777710e-01,2.984021008014678955e-01,2.901073396205902100e-01,4.800255596637725830e-01,1.858405023813247681e-02,1.888407915830612183e-01,-2.247523814439773560e-01
1.059969738125801086e-01,1.020324975252151489e-01,4.045119285583496094e-01,1.057693641632795334e-02,2.253371179103851318e-01,2.632528543472290039e-01,5.206148624420166016e-01,2.120861262083053589e-01,1.405766755342483521e-01,-2.434519529342651367e-01
1.025376021862030029e-01,1.595560312271118164e-01,4.059023261070251465e-01,2.317805737257003784e-01,2.275057137012481689e-01,1.577399522066116333e-01,4.945294559001922607e-01,4.289338588714599609e-01,1.392367482185363770e-01,-1.731628775596618652e-01
9.622666239738464355e-02,1.731730401515960693e-01,3.810800909996032715e-01,3.459036946296691895e-01,2.594333291053771973e-01,-1.522355154156684875e-02,4.283213019371032715e-01,4.313362836837768555e-01,1.444521695375442505e-01,5.495416000485420227e-03
6.467186659574508667e-02,1.533339321613311768e-01,3.440351188182830811e-01,3.298006951808929443e-01,2.693189382553100586e-01,-1.868979632854461670e-01,3.593845069408416748e-01,1.722724139690399170e-01,1.562633365392684937e-01,2.122950702905654907e-01
3.961798921227455139e-02,1.525266915559768677e-01,3.498394489288330078e-01,2.836200296878814697e-01,2.323306500911712646e-01,-2.815308272838592529e-01,3.421875536441802979e-01,-1.145181283354759216e-01,2.043013870716094971e-01,3.508784174919128418e-01
-1.734322682023048401e-02,1.533492803573608398e-01,3.617333173751831055e-01,2.506642937660217285e-01,1.386583298444747925e-01,-3.138021826744079590e-01,3.494550287723541260e-01,-2.867585420608520508e-01,2.302439361810684204e-01,3.069145381450653076e-01
-6.387130171060562134e-02,1.450914442539215088e-01,3.549232482910156250e-01,2.566099166870117188e-01,3.496100381016731262e-02,-3.011931180953979492e-01,3.424757421016693115e-01,-6.919173598289489746e-01,1.977967619895935059e-01,1.772185862064361572e-01
-8.247547596693038940e-02,1.142356172204017639e-01,3.045705854892730713e-01,2.844500243663787842e-01,-3.025612048804759979e-02,-2.266451716423034668e-01,3.059348464012145996e-01,-3.243474245071411133e+00,1.357897669076919556e-01,6.493854522705078125e-02
-1.297388076782226562e-01,1.385219488292932510e-02,1.490927338600158691e-01,2.306265085935592651e-01,-1.150075569748878479e-01,-2.083046883344650269e-01,1.666557490825653076e-01,-5.107163906097412109e+00,-4.460748750716447830e-03,-4.937397688627243042e-02
-7.653286308050155640e-02,2.770658582448959351e-03,5.656944215297698975e-02,2.160023599863052368e-01,-7.930483669042587280e-02,-1.116786673665046692e-01,1.082742214202880859e-01,-2.432457208633422852e+00,-3.556630760431289673e-02,-3.138948231935501099e-02
-3.111578291282057762e-03,3.773598000407218933e-02,1.996969804167747498e-02,1.947688758373260498e-01,-3.345521399751305580e-03,-1.690883748233318329e-02,1.039308533072471619e-01,-6.884939193725585938e+00,-6.467306055128574371e-03,3.370095416903495789e-02
-3.734610602259635925e-02,-1.700772158801555634e-02,-9.279418736696243286e-02,8.112604916095733643e-02,-3.594436496496200562e-02,-4.360543563961982727e-02,2.071083523333072662e-02,-7.039194583892822266e+00,-5.114386230707168579e-02,-5.380883347243070602e-03
-3.765476122498512268e-02,-2.891666814684867859e-02,-3.907454013824462891e-02,1.200575195252895355e-02,-1.435199826955795288e-01,-4.221560806035995483e-02,-9.904966689646244049e-03,-4.813355445861816406e+00,-3.827225044369697571e-02,-2.074764855206012726e-02
1.015675783157348633e+00,4.821364879608154297e-01,-4.705628752708435059e-01,-1.195808053016662598e+00,6.131311655044555664e-01,5.376663058996200562e-02,-8.636888265609741211e-01,3.750883936882019043e-01,1.377749085426330566e+00,3.945227265357971191e-01
-1.010051742196083069e-02,1.198857352137565613e-01,5.592750310897827148e-01,-3.342221081256866455e-01,4.125691354274749756e-01,5.641344189643859863e-01,-2.959123849868774414e-01,1.427391823381185532e-02,1.528980135917663574e-01,-1.383753269910812378e-01
-5.195913463830947876e-02,-5.974781513214111328e-01,-9.041596949100494385e-02,3.131004273891448975e-01,-3.523495048284530640e-02,2.719768285751342773e-01,-2.405161038041114807e-02,-1.362973004579544067e-01,3.153851330280303955e-01,1.404359489679336548e-01
-6.971609592437744141e-02,-5.250033736228942871e-01,-9.952901303768157959e-02,-6.907076239585876465e-01,6.568711996078491211e-01,-3.392912447452545166e-02,-5.028550028800964355e-01,2.383289486169815063e-01,2.812705039978027344e-01,-7.854259014129638672e-01
-1.582347601652145386e-01,3.418133556842803955e-01,1.063900351524353027e+00,-2.551616430282592773e-01,-2.786402404308319092e-01,-4.835115075111389160e-01,6.831296086311340332e-01,-6.360007077455520630e-02,-6.231674551963806152e-01,-3.314860165119171143e-01
5.854943022131919861e-02,4.112386703491210938e-02,-4.314290881156921387e-01,-9.831517003476619720e-03,4.034566134214401245e-02,-7.112941890954971313e-02,-4.274069890379905701e-02,-5.622510798275470734e-03,-7.387035489082336426e-01,3.153109224513173103e-03
-5.607380270957946777e-01,1.312077939510345459e-01,-2.635568082332611084e-01,6.345635745674371719e-03,1.497151404619216919e-01,9.435764700174331665e-02,-3.981284052133560181e-02,1.494290493428707123e-02,-1.893783062696456909e-01,5.770258232951164246e-02
1.629431694746017456e-01,1.339806616306304932e-01,8.925168216228485107e-02,-8.601306676864624023e-01,1.716177761554718018e-01,-8.712047338485717773e-02,-4.764064252376556396e-01,8.270212262868881226e-02,-8.092975616455078125e-01,7.407123595476150513e-02
1.211700290441513062e-01,7.772723585367202759e-02,2.792571671307086945e-02,-2.204889059066772461e+00,1.586363762617111206e-01,4.233760759234428406e-03,-2.985423505306243896e-01,-3.208277514204382896e-03,7.078119367361068726e-02,-1.795304752886295319e-02
1.485043764114379883e-01,6.995040178298950195e-02,5.444474145770072937e-02,-3.882709264755249023e+00,1.916326135396957397e-01,-1.999643072485923767e-02,-4.685178026556968689e-02,-5.133713781833648682e-02,8.523327857255935669e-02,-7.090450078248977661e-02
2.639859020709991455e-01,1.242410987615585327e-01,1.855180114507675171e-01,-4.467848300933837891e+00,2.851848900318145752e-01,3.889979794621467590e-02,2.683730982244014740e-02,-3.988860175013542175e-02,1.607418507337570190e-01,-7.950784265995025635e-02
3.369652330875396729e-01,1.485901176929473877e-01,3.032006025314331055e-01,-2.034440755844116211e+00,2.997581660747528076e-01,7.403211295604705811e-02,1.269393116235733032e-01,-8.120923489332199097e-02,1.556773483753204346e-01,-1.336509585380554199e-01
2.998580038547515869e-01,1.477516889572143555e-01,3.441904783248901367e-01,-7.656944990158081055e-01,1.656586825847625732e-01,1.097976192831993103e-01,2.340284883975982666e-01,-1.849513798952102661e-01,4.816671833395957947e-02,-2.417499125003814697e-01
2.420213818550109863e-01,2.284846752882003784e-01,3.827489614486694336e-01,-2.468420565128326416e-01,4.581363871693611145e-02,2.155292332172393799e-01,3.866568207740783691e-01,-1.755247712135314941e-01,-1.888673566281795502e-02,-2.818433940410614014e-01
2.196640670299530029e-01,3.733135461807250977e-01,4.145241975784301758e-01,2.075600810348987579e-02,1.955103361979126930e-03,3.246823251247406006e-01,4.845058917999267578e-01,-4.685172345489263535e-03,-4.660518839955329895e-03,-2.249113470315933228e-01
1.759753823280334473e-01,4.215049743652343750e-01,3.621151745319366455e-01,2.967900335788726807e-01,-2.223988063633441925e-02,2.484825253486633301e-01,3.981122970581054688e-01,2.484378516674041748e-01,-2.316553331911563873e-02,-1.853308081626892090e-01
1.880640387535095215e-01,4.347672164440155029e-01,3.296643495559692383e-01,4.862111508846282959e-01,3.816581144928932190e-02,1.074453368782997131e-01,2.756962180137634277e-01,5.085690617561340332e-01,-9.278350044041872025e-04,-5.922013521194458008e-02
2.030841708183288574e-01,3.880078494548797607e-01,2.799122631549835205e-01,4.710563719272613525e-01,1.151316463947296143e-01,-7.338117808103561401e-02,1.640763580799102783e-01,4.981133341789245605e-01,1.504030916839838028e-02,1.594969034194946289e-01
2.070589214563369751e-01,3.248235285282135010e-01,2.106962949037551880e-01,3.272646963596343994e-01,1.576206684112548828e-01,-2.294761538505554199e-01,8.724832534790039062e-02,1.951905488967895508e-01,3.895245864987373352e-02,3.490575253963470459e-01
2.026772201061248779e-01,3.202920556068420410e-01,2.041466385126113892e-01,2.058959305286407471e-01,1.540452390909194946e-01,-3.013220429420471191e-01,1.127214133739471436e-01,-1.189307942986488342e-01,1.353233158588409424e-01,4.100177288055419922e-01
1.745924055576324463e-01,3.793531358242034912e-01,3.083406984806060791e-01,1.926660537719726562e-01,1.222259774804115295e-01,-2.826713621616363525e-01,2.397473454475402832e-01,-2.604482471942901611e-01,2.562834620475769043e-01,3.253107368946075439e-01
4.923253506422042847e-02,3.555272221565246582e-01,3.812533020973205566e-01,2.068653851747512817e-01,1.503826305270195007e-02,-2.643423676490783691e-01,2.954161763191223145e-01,-8.593426942825317383e-01,2.446631640195846558e-01,1.315573155879974365e-01
-4.365031421184539795e-02,2.625648677349090576e-01,3.993015587329864502e-01,2.417533993721008301e-01,-8.145122230052947998e-02,-2.429104298353195190e-01,2.559119462966918945e-01,-4.717614650726318359e+00,1.565512120723724365e-01,-5.450350232422351837e-03
-4.805805534124374390e-02,1.708059012889862061e-01,3.459176421165466309e-01,2.803028821945190430e-01,-8.549816906452178955e-02,-1.436953991651535034e-01,1.993246227502822876e-01,-5.088444709777832031e+00,7.856570929288864136e-02,-1.932206191122531891e-02
-4.044605046510696411e-02,8.127842843532562256e-02,2.079758644104003906e-01,2.401903569698333740e-01,-6.662426143884658813e-02,-7.136490195989608765e-02,1.244285404682159424e-01,-3.267667770385742188e+00,8.672432973980903625e-03,-2.287284936755895615e-03
4.191755503416061401e-02,1.008604541420936584e-01,-1.644524455070495605e+00,2.364424020051956177e-01,-7.107901573181152344e-02,3.529470413923263550e-02,1.410082280635833740e-01,-2.852343797683715820e+00,4.719378426671028137e-02,9.241010993719100952e-02
-5.159377306699752808e-02,-2.064798772335052490e-02,-2.345791757106781006e-01,5.568755418062210083e-02,-8.694909512996673584e-02,-5.582086369395256042e-02,-2.440534764900803566e-03,-1.235015869140625000e+00,-5.944515392184257507e-02,-1.128328125923871994e-02
-2.386475354433059692e-02,-9.270153939723968506e-03,-3.025112301111221313e-02,1.852180622518062592e-02,-5.609276294708251953e-01,-2.316898852586746216e-02,6.230276077985763550e-03,-2.750944495201110840e-01,-6.447414308786392212e-02,5.378935602493584156e-04
2.428207248449325562e-01,1.042490005493164062e+00,1.842965483665466309e-01,-1.739809274673461914e+00,4.495190083980560303e-02,5.974063873291015625e-01,-1.018678784370422363e+00,7.344196438789367676e-01,1.791380286216735840e+00,-2.265342622995376587e-01
4.777111113071441650e-01,-6.400724053382873535e-01,1.976281702518463135e-01,7.913495302200317383e-01,5.695179104804992676e-01,5.772308707237243652e-01,-4.681075215339660645e-01,-1.077040284872055054e-01,5.186862349510192871e-01,-5.297536849975585938e-01
3.874626383185386658e-02,-5.749495029449462891e-01,-1.833993494510650635e-01,2.108355462551116943e-01,6.115928664803504944e-02,-1.987140253186225891e-02,-1.540261227637529373e-02,2.089499831199645996e-01,-1.036622598767280579e-01,1.217326596379280090e-01
-2.158156931400299072e-01,-5.933124423027038574e-01,8.952502161264419556e-02,5.509765148162841797e-01,7.379746437072753906e-01,2.169891819357872009e-02,-5.094132423400878906e-01,3.953618705272674561e-01,-6.369153410196304321e-02,3.705682456493377686e-01
-9.755283594131469727e-03,9.508015215396881104e-02,9.507308900356292725e-02,-2.755690813064575195e-01,7.163277268409729004e-02,-4.621790945529937744e-01,-2.977173402905464172e-02,9.300659596920013428e-02,-1.020255327224731445e+00,-2.327492386102676392e-01
1.222992241382598877e-01,1.029667332768440247e-01,-5.573452711105346680e-01,5.197659879922866821e-02,9.684012830257415771e-02,-9.046987444162368774e-02,2.044326812028884888e-02,7.968227565288543701e-02,-1.256003737449645996e+00,-3.797233849763870239e-02
6.126748397946357727e-02,3.376766294240951538e-02,1.659090397879481316e-03,-2.398904263973236084e-01,2.878188714385032654e-02,-5.387610755860805511e-03,-1.635187417268753052e-01,-1.272327359765768051e-02,4.336046054959297180e-03,-1.632388979196548462e-01
1.142637208104133606e-01,7.193720340728759766e-02,2.174755744636058807e-02,-1.174450159072875977e+00,7.803127169609069824e-02,4.820569418370723724e-03,-2.862478196620941162e-01,5.700943060219287872e-03,3.196321800351142883e-02,-4.229631423950195312e-01
1.561016589403152466e-01,8.333211392164230347e-02,4.285592958331108093e-02,-2.607921838760375977e+00,9.599377214908599854e-02,-1.571708917617797852e-02,-3.060476779937744141e-01,-2.904667891561985016e-02,3.817188739776611328e-02,-4.523362219333648682e-02
2.868543565273284912e-01,1.539200097322463989e-01,1.828776895999908447e-01,-3.082575798034667969e+00,1.619883924722671509e-01,3.090178035199642181e-02,5.366574041545391083e-03,-2.041898481547832489e-02,9.776822477579116821e-02,-4.027919098734855652e-02
3.528836071491241455e-01,1.550258249044418335e-01,2.685475647449493408e-01,-2.007807016372680664e+00,1.415173262357711792e-01,1.462879870086908340e-02,1.626929454505443573e-02,-1.042727306485176086e-01,4.799664765596389771e-02,-1.337919086217880249e-01
3.941986858844757080e-01,2.024756073951721191e-01,3.754110038280487061e-01,-1.078902840614318848e+00,9.016088396310806274e-02,5.868680775165557861e-02,1.177187114953994751e-01,-1.832112520933151245e-01,-3.000031970441341400e-02,-2.154230773448944092e-01
3.599562644958496094e-01,3.206888735294342041e-01,4.325615763664245605e-01,-2.344357669353485107e-01,9.702683426439762115e-03,1.954714357852935791e-01,2.930352985858917236e-01,-2.083155810832977295e-01,-9.874198585748672485e-02,-2.605573832988739014e-01
2.591842412948608398e-01,4.452330470085144043e-01,4.137943983078002930e-01,-1.563062518835067749e-02,-7.116024196147918701e-02,3.385841548442840576e-01,4.148109853267669678e-01,-1.581403613090515137e-01,-1.289774775505065918e-01,-2.457817345857620239e-01
1.430135220289230347e-01,4.710027575492858887e-01,3.216420710086822510e-01,3.004241287708282471e-01,-1.247850358486175537e-01,3.289748132228851318e-01,3.456591963768005371e-01,-1.983039826154708862e-02,-1.514820903539657593e-01,-1.987910121679306030e-01
8.132728934288024902e-02,4.106281697750091553e-01,2.364342063665390015e-01,5.255010724067687988e-01,-1.013168469071388245e-01,1.880813688039779663e-01,1.601039618253707886e-01,2.569046318531036377e-01,-1.440495848655700684e-01,-1.279726475477218628e-01
9.163228422403335571e-02,3.424820601940155029e-01,1.761100143194198608e-01,5.449308156967163086e-01,-7.177776657044887543e-03,1.037748251110315323e-02,1.428432669490575790e-02,5.206879973411560059e-01,-1.155614554882049561e-01,3.812313079833984375e-02
1.381219178438186646e-01,2.677884697914123535e-01,1.142470613121986389e-01,3.936378955841064453e-01,1.018290445208549500e-01,-1.346418410539627075e-01,-6.625751405954360962e-02,5.000175833702087402e-01,-7.971827685832977295e-02,3.001426160335540771e-01
2.299796938896179199e-01,2.420032173395156860e-01,5.863393098115921021e-02,2.018444091081619263e-01,1.697400808334350586e-01,-2.170877605676651001e-01,-5.804585292935371399e-02,2.063086628913879395e-01,3.582836943678557873e-04,4.856925606727600098e-01
3.202712535858154297e-01,3.144757747650146484e-01,6.767751276493072510e-02,8.151353150606155396e-02,1.668340563774108887e-01,-2.415838688611984253e-01,5.571780726313591003e-02,-9.884238988161087036e-02,1.525434255599975586e-01,4.757922291755676270e-01
2.379000335931777954e-01,3.642474114894866943e-01,1.094093993306159973e-01,1.390123832970857620e-02,4.247616976499557495e-02,-2.900021076202392578e-01,1.500514745712280273e-01,-3.054881989955902100e-01,2.315787971019744873e-01,2.192935943603515625e-01
1.589678227901458740e-01,4.491583406925201416e-01,3.168943822383880615e-01,1.237170994281768799e-01,-1.032942347228527069e-02,-2.092305570840835571e-01,2.759172618389129639e-01,-1.191943049430847168e+00,3.053621351718902588e-01,6.999632716178894043e-02
2.493704855442047119e-02,3.440535068511962891e-01,4.401751160621643066e-01,1.794013082981109619e-01,-9.591281414031982422e-02,-1.703933030366897583e-01,2.301046848297119141e-01,-6.682614803314208984e+00,2.030566483736038208e-01,-3.358308225870132446e-02
-6.180611625313758850e-02,1.612038910388946533e-01,4.258086383342742920e-01,1.705907434225082397e-01,-1.352596431970596313e-01,-1.474655866622924805e-01,1.117080375552177429e-01,-3.615798234939575195e+00,6.717640161514282227e-02,-7.698728889226913452e-02
-7.613901793956756592e-02,4.665333405137062073e-02,2.957018613815307617e-01,1.409933865070343018e-01,-1.151972487568855286e-01,-1.028623431921005249e-01,4.005525261163711548e-02,-2.380580902099609375e+00,-2.652209065854549408e-02,-5.340205505490303040e-02
-3.929353877902030945e-02,1.555705349892377853e-02,1.391124427318572998e-01,1.223098114132881165e-01,-1.499740034341812134e-01,-4.982180297374725342e-01,3.351226449012756348e-02,-1.118886113166809082e+00,-2.668442577123641968e-02,2.553052327129989862e-04
-3.123580478131771088e-02,1.829417189583182335e-03,1.704426854848861694e-02,5.362429842352867126e-02,-5.683811008930206299e-02,-1.398060619831085205e-01,1.579760760068893433e-02,-5.589978098869323730e-01,-2.403968386352062225e-02,8.395791985094547272e-03
-2.018781192600727081e-02,-1.725977635942399502e-03,-1.118991710245609283e-02,1.216589566320180893e-02,-5.083990469574928284e-02,-1.910405755043029785e-01,-2.032230198383331299e-01,-4.827376604080200195e-01,-3.848342970013618469e-02,2.149275504052639008e-03
2.977649867534637451e-01,1.218353211879730225e-01,1.472413092851638794e-01,2.392363101243972778e-01,-1.416728049516677856e-01,1.651984453201293945e-01,-6.908432245254516602e-01,-1.779965460300445557e-01,3.753702044486999512e-01,-9.432097077369689941e-01
5.877267718315124512e-01,-7.953830361366271973e-01,3.771567642688751221e-01,7.388533353805541992e-01,4.350072145462036133e-01,8.542100787162780762e-01,-5.092389583587646484e-01,3.844201266765594482e-01,2.548648416996002197e-01,-1.067873954772949219e+00
-2.913433909416198730e-01,-5.079044103622436523e-01,-8.306961506605148315e-03,2.297555357217788696e-01,2.171689271926879883e-01,6.105670705437660217e-02,-4.719347134232521057e-02,2.363189756870269775e-01,-3.230771049857139587e-02,1.352477520704269409e-01
-3.036772012710571289e-01,-9.436365962028503418e-01,5.422493219375610352e-01,6.769996881484985352e-01,7.572478652000427246e-01,5.167956948280334473e-01,-5.413311123847961426e-01,3.869714736938476562e-01,-1.256304085254669189e-01,3.082660138607025146e-01
3.558221831917762756e-02,-3.570450246334075928e-01,1.636436581611633301e-02,-1.350833773612976074e-01,1.202304381877183914e-02,-2.624638676643371582e-01,-2.014220654964447021e-01,-7.804944366216659546e-02,-6.716632246971130371e-01,-3.362556993961334229e-01
7.339093089103698730e-02,5.923081561923027039e-02,-2.324201017618179321e-01,-2.667073011398315430e-01,4.982315376400947571e-02,4.197709262371063232e-02,-5.933482572436332703e-02,-2.043311744928359985e-01,-8.498709201812744141e-01,-3.253592848777770996e-01
6.151129677891731262e-02,2.996701374650001526e-02,-2.048761118203401566e-03,-2.242477089166641235e-01,1.501631271094083786e-02,-2.474170876666903496e-03,-1.090523004531860352e-01,-1.524168718606233597e-02,2.279648091644048691e-03,-9.414841234683990479e-02
1.257478445768356323e-01,6.245747581124305725e-02,4.036900401115417480e-02,-1.083459019660949707e+00,4.787966236472129822e-02,4.413651302456855774e-03,-2.779017984867095947e-01,-1.717168651521205902e-02,2.921091020107269287e-02,-2.011165581643581390e-02
2.373487353324890137e-01,1.182751506567001343e-01,1.490279287099838257e-01,-1.611150741577148438e+00,1.010530740022659302e-01,3.296424448490142822e-02,-1.790403425693511963e-01,-9.701883536763489246e-04,6.460799276828765869e-02,-7.787524722516536713e-03
3.067963421344757080e-01,1.060149669647216797e-01,2.473142147064208984e-01,-1.655235767364501953e+00,7.016114890575408936e-02,2.146694343537092209e-03,-3.304119780659675598e-02,-9.348035603761672974e-02,1.271073240786790848e-02,-9.361219406127929688e-02
3.782663643360137939e-01,1.291808784008026123e-01,3.604063391685485840e-01,-8.762876391410827637e-01,2.977104857563972473e-02,1.116490340791642666e-03,-1.637929119169712067e-02,-1.874954700469970703e-01,-7.484965771436691284e-02,-1.858838051557540894e-01
3.535273671150207520e-01,2.072315216064453125e-01,4.208598136901855469e-01,-2.616783082485198975e-01,-2.750832214951515198e-02,8.602511137723922729e-02,8.968855440616607666e-02,-2.563344240188598633e-01,-1.823779344558715820e-01,-2.813473939895629883e-01
2.740464508533477783e-01,3.687105476856231689e-01,4.287430942058563232e-01,-6.939917802810668945e-02,-3.140759095549583435e-02,2.914666235446929932e-01,3.008402287960052490e-01,-2.165146023035049438e-01,-2.022807300090789795e-01,-2.638874053955078125e-01
1.136597171425819397e-01,4.049193859100341797e-01,3.201903402805328369e-01,2.472583651542663574e-01,-5.839738622307777405e-02,3.877887129783630371e-01,3.656270205974578857e-01,-1.630448102951049805e-01,-2.210773676633834839e-01,-2.305977642536163330e-01
-1.929448731243610382e-02,2.920209467411041260e-01,1.731484532356262207e-01,5.078690648078918457e-01,-6.777480244636535645e-02,2.806163132190704346e-01,2.133733183145523071e-01,-3.081925399601459503e-02,-2.299557030200958252e-01,-1.741328984498977661e-01
5.824653431773185730e-03,2.297543883323669434e-01,1.450069397687911987e-01,6.315727233886718750e-01,6.301254779100418091e-02,1.435873955488204956e-01,7.930427789688110352e-02,3.332664966583251953e-01,-1.366167962551116943e-01,-9.835060685873031616e-03
-8.908739313483238220e-03,1.125361174345016479e-01,5.700950324535369873e-02,4.477007091045379639e-01,1.521024405956268311e-01,-4.884142056107521057e-02,-6.203737109899520874e-02,5.703101158142089844e-01,-1.238670945167541504e-01,1.843934059143066406e-01
6.404517590999603271e-02,6.313725560903549194e-02,-4.758646246045827866e-03,2.214242666959762573e-01,2.448773533105850220e-01,-1.369846016168594360e-01,-8.535461127758026123e-02,5.314697623252868652e-01,-6.588425487279891968e-02,4.632951617240905762e-01
2.089930623769760132e-01,1.021361649036407471e-01,-6.045660376548767090e-02,3.637621551752090454e-02,2.561846673488616943e-01,-1.729713380336761475e-01,-8.268519304692745209e-03,2.063971012830734253e-01,3.564539179205894470e-02,5.823178887367248535e-01
3.303157389163970947e-01,2.479199767112731934e-01,-8.647122979164123535e-02,-6.555411964654922485e-02,1.683769226074218750e-01,-1.922386884689331055e-01,1.323566287755966187e-01,-1.264397501945495605e-01,1.820465177297592163e-01,4.318680167198181152e-01
3.456687331199645996e-01,4.271813929080963135e-01,1.745458319783210754e-02,-3.885747864842414856e-02,5.452441424131393433e-02,-1.628164499998092651e-01,2.629173398017883301e-01,-2.601473629474639893e-01,3.302971422672271729e-01,1.545898467302322388e-01
2.185176908969879150e-01,4.618510007858276367e-01,2.025736421346664429e-01,4.181443527340888977e-02,-5.497335270047187805e-02,-1.311424672603607178e-01,2.679924666881561279e-01,-1.926388502120971680e+00,3.383102715015411377e-01,-3.347014635801315308e-02
5.758093297481536865e-02,3.219241201877593994e-01,4.104846119880676270e-01,1.184586584568023682e-01,-1.168113723397254944e-01,-1.033241003751754761e-01,1.725094169378280640e-01,-5.713758945465087891e+00,2.136782258749008179e-01,-1.019879803061485291e-01
-7.346860319375991821e-02,1.079983338713645935e-01,4.569419920444488525e-01,8.953221887350082397e-02,-1.663313657045364380e-01,-1.234986484050750732e-01,2.414384298026561737e-02,-3.208926916122436523e+00,4.540047794580459595e-02,-1.311717778444290161e-01
-7.209609448909759521e-02,1.425404939800500870e-02,3.960373401641845703e-01,8.446790277957916260e-02,-2.816361784934997559e-01,-8.262090384960174561e-02,-3.804796142503619194e-03,-1.759887218475341797e+00,-2.282614260911941528e-02,-7.570616155862808228e-02
-6.671634316444396973e-02,-2.653463557362556458e-02,1.949897110462188721e-01,4.538380727171897888e-02,-2.245358824729919434e-01,-6.524997949600219727e-02,-4.693304300308227539e-01,-9.112931489944458008e-01,-4.424129426479339600e-02,-4.961555078625679016e-02
1.013971686363220215e+00,7.301729917526245117e-01,-9.602071046829223633e-01,-1.506672382354736328e+00,1.135267257690429688e+00,-1.364953070878982544e-01,-1.395379751920700073e-01,6.074048280715942383e-01,1.041803359985351562e+00,-5.029059648513793945e-01
6.329565644264221191e-01,1.437855213880538940e-01,6.403963565826416016e-01,1.363283768296241760e-02,-9.997251629829406738e-02,-2.852702438831329346e-01,-6.260630488395690918e-01,1.657200604677200317e-01,-6.128049641847610474e-02,-4.826242923736572266e-01
6.057171225547790527e-01,3.574876785278320312e-01,1.266656756401062012e+00,-1.539998948574066162e-01,-6.913261860609054565e-02,-3.485274016857147217e-01,-4.165314733982086182e-01,-5.533999204635620117e-01,1.162035539746284485e-01,-8.254776597023010254e-01
3.825905919075012207e-01,-5.509649515151977539e-01,4.323432743549346924e-01,4.230090975761413574e-01,-2.121836543083190918e-01,7.329223752021789551e-01,-3.663271069526672363e-01,-4.520254433155059814e-01,-3.228025138378143311e-01,-8.598490953445434570e-01
-5.662723779678344727e-01,-2.239897549152374268e-01,-1.544687896966934204e-02,1.464290469884872437e-01,1.372180879116058350e-01,-4.921595007181167603e-02,-1.202704980969429016e-01,1.245303228497505188e-01,-1.785671263933181763e-01,8.377408981323242188e-02
2.611676696687936783e-03,-6.828849315643310547e-01,6.025300025939941406e-01,6.809179782867431641e-01,-2.755286097526550293e-01,4.958725869655609131e-01,-6.601600646972656250e-01,3.992908895015716553e-01,4.810426235198974609e-01,4.682220220565795898e-01
-6.093260049819946289e-01,-7.179646492004394531e-01,8.763664364814758301e-01,9.129558205604553223e-01,-1.471881568431854248e-01,6.580657362937927246e-01,3.571104109287261963e-01,2.510416805744171143e-01,-1.449044793844223022e-01,5.787037014961242676e-01
-4.775936007499694824e-01,1.377171650528907776e-02,-4.898375645279884338e-02,3.994541168212890625e-01,-2.759137749671936035e-01,-3.074381649494171143e-01,2.857844829559326172e-01,-7.112099975347518921e-02,3.340130150318145752e-01,-1.510540544986724854e-01
3.561094403266906738e-02,-1.887330203317105770e-03,-1.403998285531997681e-01,-4.709013551473617554e-02,-1.002375874668359756e-02,-3.291660174727439880e-02,-2.266866564750671387e-01,-1.993568837642669678e-01,-1.454778760671615601e-02,-5.907242745161056519e-02
1.091063320636749268e-01,2.443240769207477570e-02,4.781573638319969177e-02,-1.899760216474533081e-01,1.502055209130048752e-02,-1.551724784076213837e-02,-1.788762062788009644e-01,-7.949767261743545532e-02,3.396864514797925949e-03,-3.381226584315299988e-02
2.051509618759155273e-01,3.709028288722038269e-02,1.734570711851119995e-01,-5.558083057403564453e-01,2.590924128890037537e-02,-1.289627607911825180e-02,-1.714122593402862549e-01,-2.043799757957458496e-01,-5.412696860730648041e-03,-6.117383018136024475e-02
3.455238640308380127e-01,8.645584434270858765e-02,3.653873503208160400e-01,-4.507187008857727051e-01,4.949064925312995911e-02,2.170072123408317566e-02,-3.762856721878051758e-01,-1.636278033256530762e-01,-2.389193326234817505e-02,-9.980297833681106567e-02
3.658863008022308350e-01,1.168575361371040344e-01,4.521215856075286865e-01,-1.997064948081970215e-01,-6.147781386971473694e-03,3.550256043672561646e-02,-4.384274780750274658e-02,-2.278886884450912476e-01,-1.477876603603363037e-01,-2.148984968662261963e-01
3.170720040798187256e-01,2.572995722293853760e-01,4.782533347606658936e-01,-9.707026928663253784e-02,1.453670673072338104e-02,2.144793421030044556e-01,1.226339563727378845e-01,-2.298782020807266235e-01,-2.077724337577819824e-01,-2.541855871677398682e-01
1.448445022106170654e-01,3.097374737262725830e-01,3.518298268318176270e-01,1.614523380994796753e-01,4.208797216415405273e-02,3.765803873538970947e-01,2.900677621364593506e-01,-2.045117169618606567e-01,-2.498544007539749146e-01,-2.490021139383316040e-01
2.367352694272994995e-02,2.788332402706146240e-01,2.397073060274124146e-01,5.262800455093383789e-01,1.437457501888275146e-01,4.524278044700622559e-01,3.821028172969818115e-01,-9.332908689975738525e-02,-7.266700267791748047e-01,-1.419655829668045044e-01
-9.846904873847961426e-02,7.715252041816711426e-02,7.167068123817443848e-02,6.102819442749023438e-01,1.879492998123168945e-01,2.294988334178924561e-01,2.235534042119979858e-01,1.981020532548427582e-02,-2.062888592481613159e-01,-9.104761481285095215e-02
-1.277117133140563965e-01,-5.616607517004013062e-02,-1.887020096182823181e-02,4.812191426753997803e-01,2.716407179832458496e-01,3.710703225806355476e-03,4.252791777253150940e-02,3.345251679420471191e-01,-1.717931777238845825e-01,2.551672980189323425e-02
-1.243708431720733643e-01,-1.331146061420440674e-01,-8.492130041122436523e-02,2.199022322893142700e-01,3.387605845928192139e-01,-1.258175969123840332e-01,-6.063252687454223633e-02,5.753810405731201172e-01,-1.377036571502685547e-01,2.992984950542449951e-01
-1.450004987418651581e-02,-1.109285503625869751e-01,-1.256760209798812866e-01,2.941477857530117035e-02,3.757193982601165771e-01,-1.358202397823333740e-01,-1.192987710237503052e-02,5.138948559761047363e-01,-5.463732779026031494e-02,5.470514893531799316e-01
1.887734681367874146e-01,5.251713842153549194e-02,-1.387238353490829468e-01,-6.037997454404830933e-02,3.343711495399475098e-01,-9.256540983915328979e-02,1.548477858304977417e-01,1.683703213930130005e-01,8.803076297044754028e-02,5.849948525428771973e-01
3.325697183609008789e-01,2.757124006748199463e-01,-1.717635244131088257e-01,-1.185478344559669495e-01,1.719040721654891968e-01,-9.317435324192047119e-02,2.582114636898040771e-01,-1.665557026863098145e-01,2.342149913311004639e-01,2.967235147953033447e-01
3.993384540081024170e-01,4.990297853946685791e-01,-5.117167159914970398e-02,-2.851154096424579620e-02,5.310776457190513611e-02,-9.154097177088260651e-03,3.211624622344970703e-01,-2.465728074312210083e-01,3.904453217983245850e-01,2.877742983400821686e-02
2.388569563627243042e-01,4.348039031028747559e-01,1.075853705406188965e-01,3.447975218296051025e-02,-8.553981035947799683e-02,-4.298766609281301498e-03,1.988505572080612183e-01,-2.254907846450805664e+00,3.316429257392883301e-01,-1.455526351928710938e-01
6.732866168022155762e-02,2.452740669250488281e-01,3.633622229099273682e-01,1.053092107176780701e-01,-1.339568644762039185e-01,9.476387640461325645e-04,7.757290452718734741e-02,-4.474376201629638672e+00,1.925742328166961670e-01,-1.580432802438735962e-01
-2.988137118518352509e-02,8.019592612981796265e-02,5.288716554641723633e-01,1.066411137580871582e-01,-1.240870282053947449e-01,-7.734013721346855164e-03,-5.513973999768495560e-03,-1.988885521888732910e+00,6.041904911398887634e-02,-1.144409328699111938e-01
-7.766578346490859985e-02,-3.631900250911712646e-02,4.596334993839263916e-01,4.509617015719413757e-02,-2.808251082897186279e-01,-4.630340635776519775e-02,-5.727813020348548889e-02,-7.581167221069335938e-01,-3.813721612095832825e-02,-9.616202116012573242e-02
-5.559037998318672180e-02,-4.487016424536705017e-02,2.808043658733367920e-01,2.085269056260585785e-02,-5.237645506858825684e-01,-3.979378193616867065e-02,-4.531800374388694763e-02,-3.890275359153747559e-01,-3.630458936095237732e-02,-5.434701591730117798e-02
-1.369718927890062332e-02,-3.985865712165832520e-01,1.025041863322257996e-01,1.212684065103530884e-02,-1.422582566738128662e-01,-3.493484808132052422e-03,-4.414179828017950058e-03,-4.365120455622673035e-02,-5.072687286883592606e-03,-1.406931132078170776e-01
4.687245190143585205e-02,-3.596576452255249023e-01,7.347555160522460938e-01,-9.313211441040039062e-01,-1.593096405267715454e-01,4.086335003376007080e-01,7.998240739107131958e-02,-4.874274134635925293e-02,1.359370648860931396e-01,-5.148164033889770508e-01
-1.376296877861022949e-01,-1.837913990020751953e-01,1.401823997497558594e+00,5.821967124938964844e-01,4.693754017353057861e-01,-6.582521200180053711e-01,2.113536149263381958e-01,-5.972519516944885254e-01,-8.001703619956970215e-01,1.794182062149047852e-01
3.869504034519195557e-01,-3.535311520099639893e-01,4.890502691268920898e-01,4.760349690914154053e-01,-1.104206964373588562e-01,-5.192099213600158691e-01,-5.958754420280456543e-01,9.051146358251571655e-02,-2.850276231765747070e-01,-3.833343684673309326e-01
-6.055307984352111816e-01,3.163178265094757080e-02,-1.345202177762985229e-01,-1.203757524490356445e-01,-9.792504459619522095e-02,-8.508838713169097900e-02,-8.716834336519241333e-02,-4.587726667523384094e-02,-5.976710468530654907e-02,-1.422028392553329468e-01
-6.283927559852600098e-01,6.921538114547729492e-01,3.419229686260223389e-01,7.597171068191528320e-01,-4.009008407592773438e-02,3.168001770973205566e-01,-4.853607714176177979e-01,3.075397610664367676e-01,-1.956780999898910522e-01,3.397229015827178955e-01
-6.583306789398193359e-01,-5.612551569938659668e-01,3.773307204246520996e-01,1.272347807884216309e+00,-6.803377717733383179e-02,6.408492922782897949e-01,1.489606499671936035e-01,2.573114037513732910e-01,7.764356732368469238e-01,4.160776138305664062e-01
8.112432807683944702e-02,-4.094210267066955566e-01,3.937235474586486816e-02,4.836073890328407288e-02,-1.818310916423797607e-01,-6.569213271141052246e-01,4.560166969895362854e-02,-2.939953207969665527e-01,5.983402952551841736e-02,5.779257416725158691e-02
4.790804907679557800e-02,6.850590463727712631e-03,6.623356603085994720e-03,-2.158864401280879974e-02,5.103813018649816513e-03,-2.070718258619308472e-01,-2.778159379959106445e-01,-1.900208145380020142e-01,3.912333399057388306e-03,-2.980430424213409424e-02
6.171027943491935730e-02,-3.493027761578559875e-02,5.073593929409980774e-02,-1.197038069367408752e-01,-4.243296757340431213e-02,-5.949188396334648132e-02,-2.517833411693572998e-01,-1.962011456489562988e-01,-4.573053494095802307e-02,-7.560189068317413330e-02
2.328023910522460938e-01,4.376675188541412354e-02,2.906093597412109375e-01,-1.582303494215011597e-01,3.292787447571754456e-02,1.998008787631988525e-02,-2.692973613739013672e-01,-1.843527406454086304e-01,7.394829299300909042e-03,-4.743922501802444458e-02
2.488125562667846680e-01,-1.706072129309177399e-02,3.702623546123504639e-01,-1.900866925716400146e-01,-7.506797462701797485e-02,-6.013299152255058289e-02,-1.661387979984283447e-01,-6.020714044570922852e-01,-1.486159414052963257e-01,-2.203579694032669067e-01
3.594631254673004150e-01,1.440716981887817383e-01,5.162143707275390625e-01,-9.575985372066497803e-02,1.863074488937854767e-02,1.154065579175949097e-01,-5.069366469979286194e-02,-2.962407767772674561e-01,-1.568438261747360229e-01,-2.114882320165634155e-01
2.619387805461883545e-01,2.418782711029052734e-01,4.318236410617828369e-01,9.045740962028503418e-02,8.459701389074325562e-02,3.065351545810699463e-01,9.675724059343338013e-02,-2.297168821096420288e-01,-2.212428003549575806e-01,-2.376167774200439453e-01
6.802664697170257568e-02,2.176277041435241699e-01,2.382837831974029541e-01,3.817549049854278564e-01,1.926490962505340576e-01,4.363011717796325684e-01,2.730546593666076660e-01,-1.862974762916564941e-01,-6.519206166267395020e-01,-2.123937755823135376e-01
-1.105258390307426453e-01,4.673209786415100098e-02,3.143872320652008057e-02,5.533829331398010254e-01,2.859778404235839844e-01,3.368702828884124756e-01,3.212119638919830322e-01,-1.365726143121719360e-01,-3.474710881710052490e-01,-1.723840385675430298e-01
-1.442025601863861084e-01,-7.622420042753219604e-02,-5.697599053382873535e-02,5.479941368103027344e-01,4.224653542041778564e-01,1.343461722135543823e-01,2.957379221916198730e-01,3.352778777480125427e-02,-1.705698668956756592e-01,-5.356848612427711487e-02
-1.589578241109848022e-01,-1.511949598789215088e-01,-1.160324439406394958e-01,3.208417296409606934e-01,4.918524026870727539e-01,-4.213904589414596558e-02,1.805291175842285156e-01,3.663709461688995361e-01,-1.266760230064392090e-01,1.439212858676910400e-01
-1.245832145214080811e-01,-1.639473587274551392e-01,-1.496281027793884277e-01,9.227679669857025146e-02,5.127474665641784668e-01,-8.288706839084625244e-02,1.260593980550765991e-01,6.068458557128906250e-01,-8.011876046657562256e-02,4.586204588413238525e-01
-4.509903863072395325e-02,-1.252598166465759277e-01,-2.191065996885299683e-01,-6.488448381423950195e-02,4.393982589244842529e-01,-6.954231113195419312e-02,1.633528620004653931e-01,4.651009142398834229e-01,-4.043408483266830444e-02,5.602963566780090332e-01
1.481158733367919922e-01,1.056123524904251099e-01,-2.554402649402618408e-01,-1.099916324019432068e-01,3.395426273345947266e-01,-4.290343262255191803e-03,2.704026699066162109e-01,4.606771841645240784e-02,9.318342804908752441e-02,4.421996772289276123e-01
3.373461067676544189e-01,3.817575275897979736e-01,-2.449787706136703491e-01,-9.256857633590698242e-02,1.882462352514266968e-01,6.771089881658554077e-02,2.919614017009735107e-01,-2.245233356952667236e-01,2.639073133468627930e-01,8.361688256263732910e-02
3.969368040561676025e-01,5.142998099327087402e-01,-1.179367750883102417e-01,1.052010431885719299e-02,7.751751691102981567e-02,1.632638126611709595e-01,2.264727801084518433e-01,-2.730933725833892822e-01,3.786276578903198242e-01,-1.384041756391525269e-01
2.397537231445312500e-01,3.596456944942474365e-01,6.217347458004951477e-02,8.328165858983993530e-02,-3.253859281539916992e-02,1.804250329732894897e-01,6.613723188638687134e-02,-1.746785998344421387e+00,2.912905216217041016e-01,-1.991646289825439453e-01
5.080670118331909180e-02,1.330981403589248657e-01,3.316477835178375244e-01,1.150072216987609863e-01,-1.004148498177528381e-01,1.583902388811111450e-01,-3.751086443662643433e-02,-1.719868063926696777e+00,1.389444023370742798e-01,-1.738183051347732544e-01
-6.465880572795867920e-02,-2.873745933175086975e-02,5.127174258232116699e-01,7.096462696790695190e-02,-1.409793943166732788e-01,7.364946603775024414e-02,-1.002356112003326416e-01,-6.993078589439392090e-01,-6.280343979597091675e-03,-1.444842368364334106e-01
-1.015272438526153564e-01,-9.724298864603042603e-02,4.812430441379547119e-01,4.913931712508201599e-03,-2.854671478271484375e-01,-8.820569142699241638e-03,-3.024574518203735352e-01,-3.101619482040405273e-01,-7.066623121500015259e-02,-1.229204833507537842e-01
-5.552205443382263184e-02,-5.871857702732086182e-02,3.326405584812164307e-01,-1.764967222698032856e-03,-4.259147644042968750e-01,-9.422282688319683075e-03,-4.374329149723052979e-01,-8.298213779926300049e-02,-3.665047883987426758e-02,-6.482238322496414185e-02
-5.607264116406440735e-02,-2.478277683258056641e-01,9.201984852552413940e-02,-4.328765347599983215e-02,-1.661997884511947632e-01,-3.540326282382011414e-02,-5.227342247962951660e-02,-5.833494290709495544e-02,-3.940783813595771790e-02,-1.749737858772277832e-01
-2.958770841360092163e-02,4.239186048507690430e-01,-1.881470233201980591e-01,-8.547012209892272949e-01,3.541431725025177002e-01,-3.070854842662811279e-01,6.027517914772033691e-01,-1.461986154317855835e-01,-4.084250032901763916e-01,2.750152647495269775e-01
8.717157840728759766e-01,3.595630526542663574e-01,8.807306289672851562e-01,-1.172592788934707642e-01,5.304663777351379395e-01,-1.026354432106018066e+00,2.927022054791450500e-02,-1.253291666507720947e-01,-4.988208413124084473e-01,4.932779371738433838e-01
5.208393335342407227e-01,6.607114076614379883e-01,3.237934708595275879e-01,5.177225470542907715e-01,-1.759617775678634644e-01,-3.865194022655487061e-01,-6.851915121078491211e-01,2.290090620517730713e-01,4.305770099163055420e-01,-5.351203083992004395e-01
-1.070739403367042542e-01,-6.214625015854835510e-02,-2.064000628888607025e-02,-4.769246280193328857e-02,-2.733837999403476715e-02,-2.013791911303997040e-02,-1.987488940358161926e-02,-2.697966992855072021e-01,-1.037592440843582153e-01,-4.062531888484954834e-02
-3.065611124038696289e-01,6.493172049522399902e-01,-2.701876461505889893e-01,6.134561896324157715e-01,-3.514433503150939941e-01,2.710807323455810547e-01,-3.526429086923599243e-02,7.452017068862915039e-02,-2.944621741771697998e-01,-1.508851200342178345e-01
-2.907659709453582764e-01,4.892816841602325439e-01,-1.670903712511062622e-01,8.872328400611877441e-01,-1.813973486423492432e-01,4.277914464473724365e-01,1.048179641366004944e-01,3.219132423400878906e-01,4.483934640884399414e-01,-1.748403757810592651e-01
-8.063967823982238770e-01,2.448910623788833618e-01,1.135664731264114380e-01,2.355635017156600952e-01,-1.519189029932022095e-01,-4.198773503303527832e-01,8.123445510864257812e-01,6.702723503112792969e-01,5.048410892486572266e-01,5.065000057220458984e-01
1.375743448734283447e-01,9.802591055631637573e-02,-9.666147232055664062e-01,7.610674947500228882e-02,1.010539233684539795e-01,9.414450824260711670e-02,-4.274883121252059937e-02,-1.244241893291473389e-01,1.006775274872779846e-01,8.039342612028121948e-02
1.123814284801483154e-01,1.070486009120941162e-02,1.580837517976760864e-01,-3.893359005451202393e-02,2.114127855747938156e-03,-6.114996969699859619e-03,-4.000383317470550537e-01,-1.635309308767318726e-01,4.771227017045021057e-03,-2.905514836311340332e-02
2.022218853235244751e-01,-3.206555033102631569e-03,3.338291645050048828e-01,-7.159277051687240601e-02,-3.032970428466796875e-02,-1.664118468761444092e-02,-4.016443789005279541e-01,-2.564738392829895020e-01,-3.363429382443428040e-02,-9.564542025327682495e-02
2.994417250156402588e-01,2.971912547945976257e-02,4.913458526134490967e-01,-8.096510916948318481e-02,-5.211327224969863892e-02,2.382400631904602051e-02,-4.796091616153717041e-01,-4.452815353870391846e-01,-9.910570085048675537e-02,-1.634801626205444336e-01
3.391717970371246338e-01,1.213522329926490784e-01,5.013973116874694824e-01,2.428985573351383209e-02,-1.019195769913494587e-04,1.770142614841461182e-01,-1.011114269495010376e-01,-3.399502038955688477e-01,-1.652640253305435181e-01,-2.226862013339996338e-01
2.598871886730194092e-01,2.023984938859939575e-01,3.399610221385955811e-01,2.680758237838745117e-01,1.315877139568328857e-01,3.859703540802001953e-01,5.660193786025047302e-02,-2.189577519893646240e-01,-1.981010138988494873e-01,-2.164096385240554810e-01
7.255985587835311890e-02,1.302938014268875122e-01,1.037875339388847351e-01,4.829787015914916992e-01,2.701933383941650391e-01,4.388798475265502930e-01,2.260408252477645874e-01,-1.756784319877624512e-01,-2.089298367500305176e-01,-1.940956413745880127e-01
-6.868153065443038940e-02,-7.728683762252330780e-03,-8.773697167634963989e-02,5.215927958488464355e-01,3.832982480525970459e-01,2.742618322372436523e-01,3.486997783184051514e-01,-1.202345341444015503e-01,-1.772799342870712280e-01,-1.417867094278335571e-01
-5.511254444718360901e-02,-4.265562444925308228e-02,-1.199227347970008850e-01,4.367806315422058105e-01,5.209554433822631836e-01,1.150359362363815308e-01,4.563911557197570801e-01,6.765138357877731323e-02,-6.558252871036529541e-02,3.751953318715095520e-02
-8.735226839780807495e-02,-1.114880666136741638e-01,-1.870434731245040894e-01,1.846113950014114380e-01,5.095325112342834473e-01,-1.057471986860036850e-02,3.971011340618133545e-01,3.805280029773712158e-01,-5.931068211793899536e-02,3.045403063297271729e-01
-6.880670040845870972e-02,-1.156292259693145752e-01,-2.359479665756225586e-01,3.010099008679389954e-02,4.657507538795471191e-01,1.349357515573501587e-02,3.481748104095458984e-01,5.728208422660827637e-01,-3.907652571797370911e-02,5.391396880149841309e-01
2.279099635779857635e-02,4.816287197172641754e-03,-2.897604107856750488e-01,-3.519288823008537292e-02,3.960966765880584717e-01,9.354068338871002197e-02,3.547784388065338135e-01,4.232358336448669434e-01,2.358859591186046600e-02,5.467337369918823242e-01
2.261387705802917480e-01,3.090616166591644287e-01,-2.889650166034698486e-01,-1.970447227358818054e-02,3.454573154449462891e-01,2.114972770214080811e-01,3.709482848644256592e-01,1.028092391788959503e-02,1.889031380414962769e-01,2.900927960872650146e-01
3.693521022796630859e-01,4.776293337345123291e-01,-2.990254759788513184e-01,-6.896379403769969940e-03,2.350510507822036743e-01,2.432198524475097656e-01,2.201042324304580688e-01,-2.578754127025604248e-01,2.859836220741271973e-01,-1.074421182274818420e-01
3.995663821697235107e-01,4.641049206256866455e-01,-1.647963821887969971e-01,9.839425981044769287e-02,1.885575801134109497e-01,3.157155811786651611e-01,7.033946365118026733e-02,-2.853256165981292725e-01,3.282173573970794678e-01,-2.239302843809127808e-01
2.527721524238586426e-01,2.518373727798461914e-01,5.602566152811050415e-02,1.688169836997985840e-01,1.042696312069892883e-01,3.549346625804901123e-01,-5.202058330178260803e-02,-9.559180736541748047e-01,2.339995205402374268e-01,-1.972679048776626587e-01
2.960602194070816040e-02,1.596751436591148376e-02,3.090397119522094727e-01,1.250215917825698853e-01,-2.546240761876106262e-02,2.859049141407012939e-01,-1.403653323650360107e-01,-9.647555947303771973e-01,5.431737750768661499e-02,-2.374109178781509399e-01
-4.931184276938438416e-02,-6.743489205837249756e-02,5.317595601081848145e-01,7.398287951946258545e-02,-8.281441777944564819e-02,2.043133974075317383e-01,-1.323373317718505859e-01,-4.368357658386230469e-01,-3.486597165465354919e-02,-1.270715445280075073e-01
-1.031327769160270691e-01,-1.176461055874824524e-01,4.887855947017669678e-01,-3.007611818611621857e-02,-1.275173723697662354e-01,6.389085203409194946e-02,-3.060436844825744629e-01,-2.840130031108856201e-01,-8.869070559740066528e-02,-1.262817233800888062e-01
-9.342680871486663818e-02,-1.022179797291755676e-01,3.158473074436187744e-01,-6.774647533893585205e-02,-4.508004486560821533e-01,-1.160881947726011276e-02,-1.490858346223831177e-01,-1.088599786162376404e-01,-7.319008558988571167e-02,-1.028132736682891846e-01
-5.684502050280570984e-02,-6.226980313658714294e-02,1.065137237310409546e-01,-5.671029910445213318e-02,-2.271702289581298828e-01,-2.275377325713634491e-02,-5.987189710140228271e-02,-6.406128406524658203e-02,-3.593906760215759277e-02,-6.517186760902404785e-02
1.359590291976928711e-01,8.646153807640075684e-01,-2.878675758838653564e-01,-1.656472682952880859e-01,-6.225072965025901794e-02,-3.678858578205108643e-01,3.946473821997642517e-02,4.583418369293212891e-01,-8.650236725807189941e-01,2.523512765765190125e-02
6.832789778709411621e-01,7.248764634132385254e-01,7.617406845092773438e-01,2.994619011878967285e-01,7.270194590091705322e-02,-7.253538966178894043e-01,-8.287100791931152344e-01,-2.823809087276458740e-01,-5.373597741127014160e-01,-3.491922281682491302e-03
