-3.650199249386787415e-02,-6.085162237286567688e-02,-1.295661181211471558e-01,-1.792529225349426270e-01,-5.781792104244232178e-02,-2.155809700489044189e-01,-9.683804959058761597e-02,-2.491530589759349823e-02,-1.488925814628601074e-01,-7.264959812164306641e-02
-4.992792382836341858e-02,-1.647157073020935059e-01,-1.036784127354621887e-01,-9.806478768587112427e-02,-5.314527079463005066e-03,-1.504020243883132935e-01,-1.095206290483474731e-01,-8.743741782382130623e-04,-1.681506261229515076e-02,-1.333393901586532593e-01
-4.448437597602605820e-03,-1.421155482530593872e-01,-1.386165171861648560e-01,-1.302008032798767090e-01,-2.690282650291919708e-03,-5.538312345743179321e-02,-5.531928036361932755e-03,-2.203640490770339966e-01,-1.979763507843017578e-01,-1.007288172841072083e-01
-7.487274706363677979e-02,-9.671323746442794800e-02,-7.912139408290386200e-03,-3.487511351704597473e-02,-1.525108120404183865e-03,-4.470375552773475647e-02,-6.395459175109863281e-03,2.551813144236803055e-03,-1.783646047115325928e-01,-3.857359290122985840e-02
-1.208335608243942261e-01,-1.260175462812185287e-02,-1.531966961920261383e-02,-1.274137794971466064e-01,-9.055396169424057007e-02,-2.444062754511833191e-02,-1.342644356191158295e-02,-8.532096631824970245e-03,-1.115346699953079224e-01,-1.897945441305637360e-02
-1.838436536490917206e-02,-1.344259679317474365e-01,-1.005440056324005127e-01,-2.605012059211730957e-02,-1.187032386660575867e-01,-2.427284270524978638e-01,-1.147082746028900146e-01,-8.495049923658370972e-02,-1.018190979957580566e-01,-8.132255822420120239e-02
-8.040281012654304504e-03,-8.282365649938583374e-02,-8.504400402307510376e-02,-8.968397974967956543e-02,-1.924844384193420410e-01,-2.500430941581726074e-01,-8.069688454270362854e-03,-1.251041442155838013e-01,-4.797625914216041565e-02,-9.925666451454162598e-02
-1.317369639873504639e-01,-7.427525520324707031e-02,-7.877393811941146851e-02,-1.541672088205814362e-02,-8.242520503699779510e-03,-4.006557166576385498e-02,-1.156160607933998108e-02,-6.355433166027069092e-02,-8.022232353687286377e-02,-1.581815928220748901e-01
-3.145870193839073181e-02,-1.299856752157211304e-01,-1.676218807697296143e-01,-7.219808548688888550e-02,-2.208139300346374512e-01,-3.161092847585678101e-02,-6.748496741056442261e-02,-1.158062443137168884e-01,-9.787443280220031738e-02,-1.021808385848999023e-01
-1.875059008598327637e-01,-5.434006825089454651e-02,-4.825536161661148071e-02,-1.223605126142501831e-01,-1.435211300849914551e-01,-1.126219704747200012e-01,-1.233817487955093384e-01,-2.901202999055385590e-02,-1.940169036388397217e-01,-7.221508026123046875e-02
-1.171865537762641907e-01,-1.360036283731460571e-01,-4.556632041931152344e-02,-2.627546526491641998e-02,-1.179638877511024475e-01,-1.103942021727561951e-01,-2.720092609524726868e-02,-7.813066989183425903e-02,-1.311259865760803223e-01,-1.144150644540786743e-01
-1.577185094356536865e-01,-2.085165865719318390e-02,-1.006326451897621155e-01,-4.312288388609886169e-02,-1.751184649765491486e-02,-2.017281502485275269e-01,-2.212682366371154785e-02,-1.602847576141357422e-01,-2.137895114719867706e-02,-1.159641742706298828e-01
-2.813570201396942139e-01,-3.735429793596267700e-02,-9.196033328771591187e-02,7.524923421442508698e-03,2.058824449777603149e-01,-2.577007561922073364e-02,-2.317735105752944946e-01,4.036224447190761566e-03,2.746198475360870361e-01,5.533528327941894531e-02
-2.263336926698684692e-01,-2.489760704338550568e-02,-1.933403760194778442e-01,7.061503827571868896e-02,2.544299960136413574e-01,-2.461055964231491089e-01,-6.419229507446289062e-02,4.322052747011184692e-02,3.078688681125640869e-01,2.287342250347137451e-01
-5.467181559652090073e-03,-2.357050310820341110e-03,-1.400368511676788330e-01,2.054020017385482788e-02,-2.835715189576148987e-02,-2.558936178684234619e-02,1.400171429850161076e-03,2.615533769130706787e-03,-2.072259038686752319e-01,-6.229506689123809338e-04
-1.627466082572937012e-02,-5.685838684439659119e-02,-1.928434334695339203e-02,-3.269805386662483215e-02,-2.111584097146987915e-01,-2.286688238382339478e-02,-2.028942704200744629e-01,-7.151708472520112991e-03,-2.275532335042953491e-01,-2.593703195452690125e-02
-1.206094678491353989e-02,-2.436471171677112579e-02,-5.636422894895076752e-03,-6.628144532442092896e-02,-1.565719768404960632e-02,-1.893182992935180664e-01,-5.641900002956390381e-03,-2.350622117519378662e-01,-8.153168857097625732e-02,-1.887760013341903687e-01
-1.754687875509262085e-01,-1.757290400564670563e-02,-1.192011535167694092e-01,-2.098496258258819580e-01,-5.446934700012207031e-02,-1.338318884372711182e-01,-5.303367972373962402e-02,-2.020436152815818787e-02,-1.919922232627868652e-01,-3.339293599128723145e-02
-6.925208866596221924e-02,-1.260293573141098022e-01,-9.210153669118881226e-02,-7.334881275892257690e-02,-1.017861738801002502e-01,-5.920751020312309265e-02,-1.431933790445327759e-01,-3.635487332940101624e-02,-5.571553483605384827e-02,-3.671446070075035095e-02
-4.476058483123779297e-02,-1.010515615344047546e-01,-1.658355891704559326e-01,-8.489754796028137207e-02,-5.167324468493461609e-02,-6.928230077028274536e-02,-1.073631569743156433e-01,-1.937296688556671143e-01,-1.342620998620986938e-01,-8.808192610740661621e-02
-1.384234279394149780e-01,-5.038445442914962769e-02,-1.524486094713211060e-01,-6.904400140047073364e-02,-5.176933854818344116e-02,-5.273339152336120605e-02,-1.306560486555099487e-01,-6.035873293876647949e-02,-9.412647038698196411e-02,-1.376524269580841064e-01
-5.517814680933952332e-02,-3.881427273154258728e-02,-4.074062407016754150e-02,-1.191511005163192749e-01,-1.067742928862571716e-01,-1.149907410144805908e-01,-8.607722073793411255e-02,-2.648419328033924103e-02,-1.635965406894683838e-01,-6.366494297981262207e-02
-3.680058196187019348e-02,-7.547528296709060669e-02,-1.517674028873443604e-01,-1.033872365951538086e-01,-3.120075725018978119e-02,-8.609646558761596680e-02,-3.794474527239799500e-02,-5.113001540303230286e-02,-3.663781285285949707e-02,-7.042590528726577759e-02
-7.214400172233581543e-02,-3.571241721510887146e-02,-2.440637536346912384e-02,-2.830912172794342041e-02,-1.571402549743652344e-01,-3.287482261657714844e-02,-5.150263011455535889e-02,-1.424091011285781860e-01,-7.602283358573913574e-02,-2.470990456640720367e-02
-1.514982134103775024e-01,-7.965006865561008453e-03,-5.298548191785812378e-02,-3.081210702657699585e-02,-5.887272953987121582e-02,-7.122971117496490479e-02,-8.544661104679107666e-03,-3.800943493843078613e-03,-3.746053203940391541e-02,-2.398060709238052368e-01
-1.398815065622329712e-01,-3.306974470615386963e-02,-4.338185116648674011e-02,-6.287415325641632080e-02,-2.721089497208595276e-02,-3.677899390459060669e-02,-1.201750561594963074e-01,-1.334321200847625732e-01,-1.687166541814804077e-01,-8.152310550212860107e-02
-8.032904006540775299e-04,7.636019028723239899e-03,-2.937483415007591248e-02,-6.354603171348571777e-02,-1.365079432725906372e-01,-1.044788286089897156e-01,9.006557054817676544e-03,-3.309352695941925049e-02,-1.566581428050994873e-01,-2.574263699352741241e-02
9.265486150979995728e-03,-8.912229537963867188e-02,-1.719656586647033691e-01,-1.269116550683975220e-01,-8.561807125806808472e-02,6.861773319542407990e-03,9.297993965446949005e-03,-2.555282786488533020e-02,-6.311875302344560623e-03,-2.151976376771926880e-01
-1.693920642137527466e-01,-1.856363713741302490e-01,-9.492571651935577393e-02,-1.406110543757677078e-02,-7.408204674720764160e-02,-3.045126050710678101e-02,8.578781969845294952e-03,-1.556239277124404907e-02,-7.198620587587356567e-02,-4.923626780509948730e-02
-1.441992912441492081e-02,-4.493043944239616394e-02,-1.655020564794540405e-01,-1.501189731061458588e-02,-2.210271507501602173e-01,-4.433672875165939331e-02,-1.420316752046346664e-02,-7.010781019926071167e-02,-1.274136174470186234e-02,-7.049884647130966187e-02
-4.745522886514663696e-02,-4.064371436834335327e-02,-4.594753682613372803e-02,-1.427987366914749146e-01,-3.106254152953624725e-02,-1.468219906091690063e-01,-1.246831342577934265e-01,-2.692391350865364075e-02,-1.093853861093521118e-01,-4.329493641853332520e-02
-6.212699227035045624e-03,-1.317955553531646729e-01,-6.247808225452899933e-03,-6.772795319557189941e-02,-1.136509850621223450e-01,-8.224779739975929260e-03,-2.337400056421756744e-02,-1.688404083251953125e-01,-1.071950048208236694e-01,-5.432131886482238770e-02
-1.992285847663879395e-01,-1.645272225141525269e-01,-8.743973076343536377e-02,-2.260620146989822388e-02,-1.867489144206047058e-02,-1.497164815664291382e-01,-6.057893484830856323e-02,-6.660934537649154663e-02,-3.125474229454994202e-02,-5.373929068446159363e-02
1.939041614532470703e-01,-3.068510256707668304e-02,-1.674711555242538452e-01,-6.191885471343994141e-02,-1.534024327993392944e-01,-5.876116156578063965e-01,-2.911921590566635132e-02,-6.482991576194763184e-02,-2.861660160124301910e-02,-2.351362556219100952e-01
5.268532633781433105e-01,-1.250852942466735840e-01,1.013169065117835999e-01,-2.099671959877014160e-01,-4.608868062496185303e-02,-8.587017059326171875e-01,-1.470561176538467407e-01,-3.213412687182426453e-02,3.605839312076568604e-01,-3.026188351213932037e-02
5.400869250297546387e-01,-3.066551387310028076e-01,-7.222012430429458618e-02,-4.843374490737915039e-01,-2.128251791000366211e-01,-8.321152329444885254e-01,-1.294035017490386963e-01,-4.247666597366333008e-01,-2.438273131847381592e-01,6.294822096824645996e-01
4.702447950839996338e-01,-3.713872730731964111e-01,-4.753971472382545471e-02,-5.727477073669433594e-01,-3.428212404251098633e-01,-4.328971505165100098e-01,-6.823276728391647339e-02,-7.445722818374633789e-01,-3.714253902435302734e-01,7.448690533638000488e-01
6.258756518363952637e-01,3.277003765106201172e-01,1.326855123043060303e-01,-5.616079568862915039e-01,-3.908182978630065918e-01,-3.095799386501312256e-01,-1.955135464668273926e-01,-5.378382802009582520e-01,-3.211555480957031250e-01,1.719247847795486450e-01
5.802454352378845215e-01,8.873609900474548340e-01,-6.845544576644897461e-01,-7.188967466354370117e-01,-4.909422993659973145e-01,-1.537542194128036499e-01,-2.009977698326110840e-01,-1.535016298294067383e-01,-9.421364963054656982e-02,-4.479769989848136902e-02
6.068000197410583496e-01,1.362977862358093262e+00,-7.587241530418395996e-01,-6.094710826873779297e-01,-6.097253561019897461e-01,-7.351304292678833008e-01,-9.964293241500854492e-02,3.864932656288146973e-01,1.878395825624465942e-01,-4.893915355205535889e-01
1.829261481761932373e-01,1.181263208389282227e+00,-3.505653738975524902e-01,-9.747766703367233276e-02,3.025352060794830322e-01,-6.739019751548767090e-01,4.330264031887054443e-01,5.829281210899353027e-01,4.313693344593048096e-01,-7.199102640151977539e-01
-1.832288354635238647e-01,7.286303639411926270e-01,6.592226028442382812e-01,4.544216096401214600e-01,1.597432792186737061e-01,-8.395684361457824707e-01,3.580547571182250977e-01,6.544427871704101562e-01,4.112438559532165527e-01,-9.639243036508560181e-02
-3.653033673763275146e-01,7.211431115865707397e-02,7.867619395256042480e-01,7.890787720680236816e-01,-4.804389178752899170e-02,2.222388423979282379e-02,8.066106587648391724e-02,2.406772971153259277e-01,-8.237783610820770264e-02,-1.858015656471252441e-01
-5.545540452003479004e-01,1.784365922212600708e-01,1.531575918197631836e-01,-6.471946835517883301e-02,-3.104588091373443604e-01,1.707540303468704224e-01,-1.552407592535018921e-01,-5.029547810554504395e-01,-2.096824645996093750e-01,3.943696245551109314e-02
2.265192717313766479e-01,4.890175163745880127e-01,1.919957399368286133e-01,-2.974976301193237305e-01,-4.345713183283805847e-02,-4.921990633010864258e-01,5.217960104346275330e-02,7.298196554183959961e-01,-1.551911681890487671e-01,-2.233875840902328491e-01
1.616939306259155273e-01,6.055468916893005371e-01,2.647328972816467285e-01,-1.340690851211547852e-01,-3.081864677369594574e-02,-8.332462310791015625e-01,-3.400814533233642578e-01,8.106370568275451660e-01,-3.692076727747917175e-02,1.889910548925399780e-02
6.703587621450424194e-02,-4.759290721267461777e-03,3.822807371616363525e-01,-6.945800185203552246e-01,-1.240401342511177063e-01,1.223237589001655579e-01,-3.520895540714263916e-01,5.846130251884460449e-01,5.218549966812133789e-01,2.098330296576023102e-02
7.190490514039993286e-02,-6.665452569723129272e-02,5.802475661039352417e-02,-2.121047079563140869e-01,-4.229862615466117859e-02,-1.700970530509948730e-01,-1.508022993803024292e-01,2.752178609371185303e-01,3.770852386951446533e-01,4.710824489593505859e-01
3.135222196578979492e-01,-1.258041895925998688e-02,-2.147283218801021576e-02,6.538537144660949707e-02,-1.228907145559787750e-02,-8.501974344253540039e-01,-2.319801300764083862e-01,5.159572958946228027e-01,6.514641642570495605e-01,7.396056652069091797e-01
2.788681983947753906e-01,-2.154827676713466644e-02,-1.570105850696563721e-01,-4.903463423252105713e-01,-2.999992854893207550e-02,-2.778515815734863281e-01,-5.194690823554992676e-02,-7.548251748085021973e-02,3.766092360019683838e-01,5.595028400421142578e-01
1.624748408794403076e-01,-8.799966424703598022e-02,-2.733582071959972382e-02,-5.133869051933288574e-01,-2.234221436083316803e-02,6.573992222547531128e-02,-2.678840234875679016e-02,-1.950583420693874359e-02,1.089408248662948608e-01,3.371377885341644287e-01
2.828076481819152832e-02,-1.947921663522720337e-01,-9.992258995771408081e-02,1.765554421581327915e-03,-9.842205047607421875e-02,-4.306359291076660156e-01,-3.777578240260481834e-03,-3.986487537622451782e-02,4.343226179480552673e-02,-3.653912246227264404e-02
-3.275529714301228523e-03,1.241279207170009613e-02,-1.697468161582946777e-01,-8.467148989439010620e-02,-1.533330976963043213e-01,-4.096140339970588684e-02,-8.388895541429519653e-02,-6.511999666690826416e-02,1.266041956841945648e-02,-1.999659091234207153e-02
-3.210159763693809509e-02,-1.956152021884918213e-01,-2.391864955425262451e-01,-3.945084288716316223e-02,-6.442671269178390503e-02,-1.309322565793991089e-01,-6.100503355264663696e-02,-1.193695794790983200e-02,-1.141359657049179077e-02,-4.433081671595573425e-02
7.780976011417806149e-04,3.151701297610998154e-03,-1.543754991143941879e-02,-6.712942570447921753e-02,1.667347364127635956e-02,-3.899556398391723633e-02,-1.355205774307250977e-01,-1.515954583883285522e-01,3.255591727793216705e-03,-1.099109183996915817e-02
-1.503903418779373169e-01,-1.453068386763334274e-02,-1.567971855401992798e-01,-1.217874065041542053e-01,-2.088033407926559448e-01,-1.774401962757110596e-01,-2.922969404608011246e-03,-4.123946651816368103e-03,-1.450282037258148193e-01,-1.015569046139717102e-01
-5.527783557772636414e-02,-1.095622405409812927e-01,-1.395682692527770996e-01,-9.331236779689788818e-02,-2.331968098878860474e-01,-4.829937592148780823e-02,-7.120274752378463745e-02,-1.571118533611297607e-01,-7.506840676069259644e-02,-7.208523154258728027e-02
-9.732072800397872925e-02,-7.311534136533737183e-02,-2.396876513957977295e-01,-3.596872463822364807e-02,-2.229627966880798340e-01,-5.667360499501228333e-02,-3.020609170198440552e-02,-2.877920120954513550e-02,-1.355265527963638306e-01,-1.117936894297599792e-01
-6.949080526828765869e-02,-1.435677856206893921e-01,-6.369381397962570190e-02,-2.246696203947067261e-01,-3.230568766593933105e-02,-1.730230003595352173e-01,-1.484277695417404175e-01,-3.260872885584831238e-02,-4.441456496715545654e-02,-4.664781317114830017e-02
-1.783265918493270874e-01,1.623768061399459839e-01,3.138733208179473877e-01,-4.186178147792816162e-01,-1.563526503741741180e-02,1.091748252511024475e-01,-5.547067150473594666e-02,-1.380664482712745667e-02,-4.478194937109947205e-02,-3.640927001833915710e-02
2.946974039077758789e-01,1.200115233659744263e-01,4.473127126693725586e-01,-7.300761342048645020e-01,-1.537929940968751907e-02,4.652367234230041504e-01,-2.396651804447174072e-01,-4.875401034951210022e-03,5.284008383750915527e-01,-9.237988293170928955e-02
1.643334329128265381e-01,-2.233142256736755371e-01,3.466767668724060059e-01,-1.177114620804786682e-01,1.791654154658317566e-02,-5.001001358032226562e-01,-1.282259523868560791e-01,-2.137563079595565796e-01,1.964317560195922852e-01,1.671319454908370972e-01
4.809933602809906006e-01,3.434872627258300781e-01,9.987540841102600098e-01,-5.303923487663269043e-01,-5.893712863326072693e-02,-6.828011274337768555e-01,-5.326433852314949036e-02,2.143989205360412598e-01,-8.765122294425964355e-01,7.262505888938903809e-01
-1.451182961463928223e-01,5.300102829933166504e-01,8.848295807838439941e-01,-6.002153158187866211e-01,-4.467106610536575317e-02,-8.332297205924987793e-02,-2.836016379296779633e-02,-1.765929609537124634e-01,-6.438269615173339844e-01,3.801933526992797852e-01
-1.406031660735607147e-02,5.336553454399108887e-01,1.772093772888183594e-01,-4.497631192207336426e-01,3.815598487854003906e-01,-4.167567789554595947e-01,-3.401488065719604492e-01,-5.435689091682434082e-01,2.193916290998458862e-01,-2.047799676656723022e-01
6.956356763839721680e-01,7.227645516395568848e-01,3.734709918498992920e-01,5.716115608811378479e-02,5.776337385177612305e-01,-6.814847588539123535e-01,1.291940212249755859e-01,-1.463562250137329102e-01,-4.699733555316925049e-01,-5.034647583961486816e-01
1.018205285072326660e+00,1.359471321105957031e+00,3.670185804367065430e-01,4.107479751110076904e-02,9.389353394508361816e-01,-1.510707139968872070e+00,8.523846268653869629e-01,-9.276866912841796875e-02,-2.280668169260025024e-01,1.547671854496002197e-01
5.220400094985961914e-01,2.124026536941528320e+00,-3.296554982662200928e-01,2.890679240226745605e-01,6.753194928169250488e-01,-1.406161904335021973e+00,1.009274005889892578e+00,6.681683659553527832e-01,4.934600591659545898e-01,6.896342337131500244e-02
1.300268173217773438e+00,1.782142639160156250e+00,5.072938799858093262e-01,-9.165066480636596680e-02,8.823661804199218750e-01,-2.553866863250732422e+00,9.128243923187255859e-01,4.491715133190155029e-01,2.234972566366195679e-01,1.696689128875732422e-01
-3.512344136834144592e-02,-4.596156626939773560e-02,-3.566453233361244202e-02,-3.851455152034759521e-01,-4.319107234477996826e-01,9.920825064182281494e-02,-7.066786289215087891e-01,-2.802529931068420410e-01,4.404062405228614807e-03,-1.927366666495800018e-02
3.007789850234985352e-01,9.061896800994873047e-01,3.216109871864318848e-01,1.228733181953430176e+00,5.858693122863769531e-01,-2.082319498062133789e+00,8.377812504768371582e-01,3.875942528247833252e-01,3.166730701923370361e-01,-4.701095819473266602e-01
-2.669921159744262695e+00,-3.991009950637817383e+00,-5.044776797294616699e-01,-5.801249295473098755e-02,-1.070803642272949219e+00,1.657744199037551880e-01,-4.555658340454101562e+00,-1.130025368183851242e-02,1.469375751912593842e-02,-1.150817796587944031e-01
-7.840234756469726562e+00,-1.388388872146606445e+00,-8.648005723953247070e-01,5.876871198415756226e-02,-7.048014998435974121e-01,2.187013775110244751e-01,-1.365326523780822754e+00,4.679638147354125977e-02,6.369002908468246460e-02,-6.231299601495265961e-03
5.174381732940673828e-01,5.833377838134765625e-01,-4.318091571331024170e-01,7.907860279083251953e-01,1.127030372619628906e+00,-1.902842760086059570e+00,1.364095091819763184e+00,3.755028247833251953e-01,6.872625946998596191e-01,9.204045534133911133e-01
9.007216095924377441e-01,5.959010720252990723e-01,1.751531511545181274e-01,-6.545316576957702637e-01,9.293351173400878906e-01,-8.351786732673645020e-01,1.061058998107910156e+00,7.074574828147888184e-01,5.583785772323608398e-01,1.411373376846313477e+00
-7.594385743141174316e-02,-2.818670749664306641e+00,-5.188525468111038208e-02,-1.545789651572704315e-02,-1.139944270253181458e-01,1.552412286400794983e-02,-2.503697276115417480e-01,-4.769257828593254089e-02,-7.037152349948883057e-02,-5.535501241683959961e-02
-2.984237484633922577e-02,-4.823672294616699219e+00,-3.925266116857528687e-02,1.307585043832659721e-03,-4.554266110062599182e-02,-2.604082983452826738e-04,-5.935215353965759277e-01,-2.602535299956798553e-02,-3.305782377719879150e-02,-2.233633399009704590e-02
-2.777773700654506683e-02,-3.963361978530883789e+00,-9.610162675380706787e-02,8.182276971638202667e-03,-2.820886671543121338e-02,-4.620815627276897430e-03,-1.294058084487915039e+00,-2.227437309920787811e-02,-1.868102885782718658e-02,-2.468371205031871796e-02
6.560594439506530762e-01,3.159962892532348633e-01,5.802332162857055664e-01,-1.837204098701477051e+00,5.884791016578674316e-01,5.755186676979064941e-01,1.444150060415267944e-01,9.224712848663330078e-01,5.162544250488281250e-01,6.403016448020935059e-01
1.217462196946144104e-01,1.089483499526977539e-01,4.868097007274627686e-01,-7.526875734329223633e-01,3.766381442546844482e-01,1.459112167358398438e-01,6.363316625356674194e-02,5.804889202117919922e-01,6.234868168830871582e-01,-2.243324816226959229e-01
-9.410671889781951904e-02,-6.219781190156936646e-02,3.089390695095062256e-01,-1.609591990709304810e-01,1.603329181671142578e-02,-4.562392830848693848e-01,1.472759842872619629e-01,3.009240627288818359e-01,3.823083639144897461e-01,-1.521660834550857544e-01
-5.328308790922164917e-02,-2.614105306565761566e-02,-2.007696777582168579e-01,-1.352714896202087402e-01,-1.513376235961914062e-01,-5.156861543655395508e-01,1.750057190656661987e-01,2.121166735887527466e-01,1.988113522529602051e-01,4.644105434417724609e-01
-6.437893956899642944e-02,-2.125970460474491119e-02,-5.374956876039505005e-02,-3.229426965117454529e-02,-7.907234132289886475e-03,-7.156633585691452026e-02,-6.652610003948211670e-02,-1.196259781718254089e-01,-2.959513664245605469e-02,-6.686145812273025513e-02
-2.150725014507770538e-02,-8.231279999017715454e-02,-2.308296039700508118e-02,-2.511979080736637115e-02,-3.010173700749874115e-02,-9.730496257543563843e-02,-2.471658885478973389e-01,-1.531586982309818268e-02,-2.261718362569808960e-02,-4.396616294980049133e-02
-8.221063762903213501e-02,-2.145994454622268677e-02,-6.342257559299468994e-02,-7.940606772899627686e-02,-1.882837116718292236e-01,-1.065500006079673767e-01,-1.654322259128093719e-02,-5.461255833506584167e-02,-5.646876990795135498e-02,-1.188382431864738464e-01
-1.615843772888183594e-01,-5.282991752028465271e-02,-8.872961252927780151e-02,-2.052044719457626343e-01,-3.099030256271362305e-02,-9.407430142164230347e-02,-7.777786999940872192e-02,-2.911525405943393707e-02,-2.027544975280761719e-01,-5.703400075435638428e-02
-2.487097084522247314e-01,1.147119235247373581e-02,-9.529671818017959595e-02,-6.897507607936859131e-02,-1.856000423431396484e-01,-4.387333616614341736e-02,1.361678447574377060e-02,-6.420562863349914551e-01,-2.094769775867462158e-01,2.309749722480773926e-01
-2.630337700247764587e-02,1.994141340255737305e-01,3.806089460849761963e-01,-1.444222927093505859e-01,-2.945881523191928864e-02,-1.246746778488159180e-01,-1.041485816240310669e-01,-5.299395918846130371e-01,-6.124789714813232422e-01,2.719020843505859375e-01
4.527369439601898193e-01,2.850269973278045654e-01,-7.643081992864608765e-02,2.450841367244720459e-01,-5.882257223129272461e-01,-1.943355351686477661e-01,8.785521611571311951e-03,4.315241277217864990e-01,-5.149646997451782227e-01,1.440109461545944214e-01
1.756642460823059082e-01,4.310381710529327393e-01,-3.122706115245819092e-01,4.904261231422424316e-02,-4.488016963005065918e-01,-7.452677488327026367e-01,1.843222975730895996e-02,4.331103265285491943e-01,3.945083916187286377e-01,5.924204587936401367e-01
-1.350044310092926025e-01,6.016897559165954590e-01,3.127673566341400146e-01,-1.163772791624069214e-01,-5.099953338503837585e-02,-5.039626955986022949e-01,-3.312030136585235596e-01,-7.938299328088760376e-02,1.156951114535331726e-01,5.137313604354858398e-01
-4.794447720050811768e-01,1.026242971420288086e+00,3.170557320117950439e-01,2.787775993347167969e-01,-1.087317019701004028e-01,-3.842682540416717529e-01,-1.242487058043479919e-01,-1.507480293512344360e-01,1.331978142261505127e-01,1.913684010505676270e-01
5.913484692573547363e-01,1.331080675125122070e+00,7.808405160903930664e-01,7.813146114349365234e-01,-1.403551697731018066e-01,-8.371301293373107910e-01,3.344438672065734863e-01,-1.203628554940223694e-01,-6.111157536506652832e-01,6.089376658201217651e-02
-3.060199692845344543e-02,-2.286938428878784180e-01,-2.999585494399070740e-02,-3.891612216830253601e-02,-3.417083993554115295e-02,2.880344167351722717e-03,-4.103522598743438721e-01,-2.719921059906482697e-02,2.468799799680709839e-02,-4.122916609048843384e-02
-1.592298224568367004e-02,-6.105651333928108215e-02,-1.192043535411357880e-02,-1.695906743407249451e-02,-1.266787108033895493e-02,4.859322309494018555e-02,-7.469964623451232910e-01,-6.744123995304107666e-03,6.242112070322036743e-02,-2.074787765741348267e-02
1.593142151832580566e-01,1.571231484413146973e-01,1.683433502912521362e-01,1.025248914957046509e-01,1.591237783432006836e-01,2.667868137359619141e-01,1.386742144823074341e-01,1.713532358407974243e-01,-1.408963680267333984e+00,1.070740967988967896e-01
-1.023899167776107788e-01,-1.491815894842147827e-01,-7.684192806482315063e-02,-1.270667165517807007e-01,-8.347959071397781372e-02,7.573311775922775269e-02,-2.835408747196197510e-01,-7.609953731298446655e-02,5.512484908103942871e-02,-7.407661527395248413e-02
-2.398953735828399658e-01,-2.746756076812744141e-01,-2.607285976409912109e-02,-1.663643866777420044e-01,-3.637967258691787720e-02,1.898142695426940918e-01,-4.704031646251678467e-01,-3.108798153698444366e-02,1.306087523698806763e-01,-2.104532904922962189e-02
-9.210642576217651367e-01,-2.061336994171142578e+00,-7.620206475257873535e-02,-1.104387715458869934e-01,-9.205440431833267212e-02,2.113598883152008057e-01,-3.333255648612976074e-01,-8.343037962913513184e-02,9.102433174848556519e-02,-7.397112250328063965e-02
-1.917386889457702637e+00,-6.885507583618164062e+00,-3.724425286054611206e-02,-3.189466893672943115e-02,-5.407929047942161560e-02,3.088071942329406738e-01,-1.735822856426239014e-01,-4.317839071154594421e-02,1.340519785881042480e-01,-3.716537728905677795e-02
-1.014812588691711426e+00,-7.950512886047363281e+00,-9.655860066413879395e-01,1.310359127819538116e-02,-4.154524952173233032e-02,3.043648004531860352e-01,-7.612007856369018555e-02,-2.029284462332725525e-02,1.326852291822433472e-01,-3.027711808681488037e-02
-1.311179637908935547e+00,-3.616961479187011719e+00,-8.003351837396621704e-02,9.926701895892620087e-03,-8.399371057748794556e-02,1.945237666368484497e-01,-1.105872839689254761e-01,-6.085896492004394531e-02,5.408995598554611206e-02,-8.121948689222335815e-02
-1.161215186119079590e+00,-6.930196881294250488e-01,-5.269379541277885437e-02,6.783552467823028564e-02,-5.284348130226135254e-02,1.506457328796386719e-01,-1.151966452598571777e-01,-3.344631940126419067e-02,4.364677891135215759e-02,-4.919478297233581543e-02
-1.411911249160766602e-01,-1.522533595561981201e-01,-5.785856768488883972e-02,7.499069720506668091e-02,-5.237774178385734558e-02,6.926741451025009155e-02,-2.500973343849182129e-01,-3.571966290473937988e-02,1.144908927381038666e-02,-4.254217445850372314e-02
-6.641024351119995117e-02,-7.083003968000411987e-02,-6.702571362257003784e-02,4.323024302721023560e-02,-6.997801363468170166e-02,-4.757955670356750488e-03,-2.653936743736267090e-01,-5.840669199824333191e-02,-2.279086038470268250e-02,-5.210250988602638245e-02
-4.459016770124435425e-02,-4.672935232520103455e-02,-3.639011457562446594e-02,3.121489100158214569e-02,-6.935643404722213745e-02,-1.893992722034454346e-02,-1.786383688449859619e-01,-3.677559271454811096e-02,-2.022044360637664795e-02,-2.793313376605510712e-02
-6.810252368450164795e-02,-1.192888393998146057e-01,-5.175480246543884277e-02,-1.496824901551008224e-02,-9.436643123626708984e-02,-4.458048194646835327e-02,-1.365991234779357910e-01,-5.959647521376609802e-02,-4.700210317969322205e-02,-7.143662869930267334e-02
4.483856260776519775e-02,5.453074574470520020e-01,9.133357405662536621e-01,-6.558391451835632324e-01,4.271831810474395752e-01,-4.594056904315948486e-01,5.149589776992797852e-01,1.075474381446838379e+00,-2.640549838542938232e-01,-4.302386939525604248e-01
-3.539869189262390137e-01,-3.426625430583953857e-01,6.423468589782714844e-01,-9.488547444343566895e-01,4.689674973487854004e-01,-2.758082449436187744e-01,1.141237258911132812e+00,1.128417968750000000e+00,8.765160441398620605e-01,2.042589187622070312e-01
-1.072327047586441040e-01,-6.502396464347839355e-01,8.920139074325561523e-02,-3.814649581909179688e-01,-6.003985181450843811e-03,-4.795097112655639648e-01,1.622875481843948364e-01,4.587676227092742920e-01,8.390005230903625488e-01,4.222722351551055908e-01
-1.356985270977020264e-01,-1.873195171356201172e-02,-1.748212128877639771e-01,2.510221600532531738e-01,-1.186312064528465271e-01,1.412884593009948730e-01,-6.275720149278640747e-02,-2.133834213018417358e-01,2.671045660972595215e-01,-6.459677219390869141e-01
-4.159318283200263977e-02,-3.657977283000946045e-02,-1.704309284687042236e-01,-8.881284296512603760e-02,-8.613576740026473999e-02,-1.013846769928932190e-01,-1.450730860233306885e-01,-3.599980846047401428e-02,-1.904524117708206177e-01,-4.484349116683006287e-02
-9.460861235857009888e-02,-1.121724992990493774e-01,-5.897710099816322327e-02,-9.696418046951293945e-02,-6.823453307151794434e-02,-1.718403398990631104e-02,-5.425540357828140259e-02,-1.468946784734725952e-02,-1.731836795806884766e-02,-2.593617886304855347e-02
-6.498783081769943237e-02,-2.273269593715667725e-01,-2.975204773247241974e-02,-6.018606200814247131e-02,-5.849823355674743652e-01,-2.802206948399543762e-02,3.321563899517059326e-01,-7.077573984861373901e-02,3.244327008724212646e-01,6.903766840696334839e-02
-1.552771194837987423e-03,-1.844009906053543091e-01,2.292464375495910645e-01,1.550374776124954224e-01,-6.451017856597900391e-01,-7.265194505453109741e-02,3.841491341590881348e-01,-5.928900837898254395e-01,3.800342679023742676e-01,3.712661266326904297e-01
3.361062705516815186e-01,-6.002500653266906738e-01,2.246829867362976074e-01,-3.206472694873809814e-01,2.217681109905242920e-01,-5.147631168365478516e-01,7.903114706277847290e-02,-5.541626214981079102e-01,1.703139096498489380e-01,6.070698499679565430e-01
8.235515952110290527e-01,-1.027938485145568848e+00,-3.132550120353698730e-01,9.616323560476303101e-02,-2.252294570207595825e-01,-6.091551482677459717e-02,-8.503396064043045044e-02,-5.026479959487915039e-01,2.078082971274852753e-02,6.821256279945373535e-01
4.685485959053039551e-01,-3.634890913963317871e-01,-1.468206048011779785e-01,3.800475597381591797e-01,-2.375356554985046387e-01,-1.482783555984497070e-01,4.797303676605224609e-01,4.395481944084167480e-02,-4.766816496849060059e-01,2.562070190906524658e-01
1.503789722919464111e-01,5.718821883201599121e-01,1.110514104366302490e-01,4.758836328983306885e-01,-5.624635219573974609e-01,-5.903813242912292480e-01,4.981520175933837891e-01,1.065094098448753357e-01,1.606514453887939453e-01,-2.407633326947689056e-02
-3.868082910776138306e-02,-8.218005299568176270e-02,-3.861452639102935791e-02,-5.679050460457801819e-02,-1.049792952835559845e-02,-3.209246322512626648e-02,-7.259007692337036133e-01,-4.317148029804229736e-02,-1.495486794738098979e-04,-6.288937479257583618e-02
-4.616425558924674988e-02,-1.718674898147583008e-01,-4.381080344319343567e-02,-1.601198464632034302e-01,6.710392190143465996e-04,-2.558557502925395966e-02,-6.486334204673767090e-01,-5.161927640438079834e-02,3.122451342642307281e-02,-6.774970144033432007e-02
-3.033801168203353882e-02,-1.305181533098220825e-01,-1.533405110239982605e-02,-7.477393001317977905e-02,5.758761242032051086e-02,1.708168536424636841e-02,-4.106236696243286133e-01,-2.702609263360500336e-02,9.866536408662796021e-02,-4.015951231122016907e-02
1.941484212875366211e-02,-3.602097928524017334e-02,-9.129244685173034668e-01,2.946056891232728958e-03,1.675499379634857178e-01,1.187784895300865173e-01,-2.333158999681472778e-01,4.514571279287338257e-02,2.205648422241210938e-01,2.771145850419998169e-02
-9.262911975383758545e-02,-1.366638392210006714e-01,-2.510690502822399139e-02,-1.001290008425712585e-01,9.618182480335235596e-02,7.222285121679306030e-02,-1.718386113643646240e-01,-3.901609405875205994e-02,1.953455656766891479e-01,-7.485864311456680298e-02
-1.258438080549240112e-01,-1.589162051677703857e-01,2.484074421226978302e-02,-8.642827719449996948e-02,1.311204284429550171e-01,1.557258218526840210e-01,-8.890172839164733887e-02,9.070151485502719879e-03,2.853749990463256836e-01,-6.205112487077713013e-02
-4.893988370895385742e-01,-2.946434915065765381e-01,7.416101545095443726e-02,-7.599598914384841919e-02,1.523547768592834473e-01,2.578238248825073242e-01,-7.672090828418731689e-02,7.622502744197845459e-02,3.608168959617614746e-01,-5.886065959930419922e-02
-7.151435017585754395e-01,-8.644809722900390625e-01,7.557687163352966309e-02,-8.296980708837509155e-02,1.148721873760223389e-01,3.057301342487335205e-01,-9.684508293867111206e-02,9.211546927690505981e-02,3.654184937477111816e-01,-9.123809635639190674e-02
-8.041278123855590820e-01,-2.696379184722900391e+00,1.224383637309074402e-01,1.122385915368795395e-02,1.048696190118789673e-01,3.519562184810638428e-01,-4.783976823091506958e-02,1.214880496263504028e-01,3.915864527225494385e-01,-2.163119241595268250e-02
-6.527994275093078613e-01,-2.265496015548706055e+00,9.956911206245422363e-02,8.649610728025436401e-02,3.510214760899543762e-02,2.706036865711212158e-01,-6.080582737922668457e-02,3.927577659487724304e-02,3.337540328502655029e-01,4.733042418956756592e-02
-8.012880682945251465e-01,-1.177928328514099121e+00,8.674240857362747192e-02,1.753233075141906738e-01,-1.881650881841778755e-03,1.791338771581649780e-01,-4.815297573804855347e-02,-3.995429724454879761e-02,2.752877473831176758e-01,1.350166350603103638e-01
-9.277499318122863770e-01,-6.992853879928588867e-01,5.334467068314552307e-02,2.232903093099594116e-01,-2.360516972839832306e-02,9.982064366340637207e-02,-3.641175851225852966e-02,-7.397109270095825195e-02,1.981299221515655518e-01,1.399015933275222778e-01
-1.744868606328964233e-01,-3.509426116943359375e-01,1.721004955470561981e-03,1.913226842880249023e-01,-5.403220653533935547e-02,9.142446331679821014e-03,-5.129650235176086426e-02,-9.461487084627151489e-02,9.526472538709640503e-02,8.297868818044662476e-02
2.116244286298751831e-02,1.269831694662570953e-02,-8.836461305618286133e-01,2.332589775323867798e-01,3.966072946786880493e-02,6.268133968114852905e-02,4.540978372097015381e-02,-1.001823577098548412e-03,1.192368865013122559e-01,1.385790407657623291e-01
-7.800351828336715698e-02,-7.630492001771926880e-02,-5.599058791995048523e-02,6.769501417875289917e-02,-6.171518936753273010e-02,-5.664378032088279724e-02,-5.879172310233116150e-02,-1.065385490655899048e-01,-2.685645408928394318e-02,-1.239135302603244781e-02
-4.114288836717605591e-02,-1.822189986705780029e-01,-3.880598247051239014e-01,5.995056405663490295e-02,-2.383042685687541962e-02,-2.289666607975959778e-02,-2.064181864261627197e-02,-3.553922474384307861e-02,-1.058653183281421661e-02,-3.759433282539248466e-03
1.697540432214736938e-01,2.391158044338226318e-01,3.455041944980621338e-01,-1.230413675308227539e+00,1.651022210717201233e-02,6.806769967079162598e-02,-1.775288432836532593e-01,1.226105451583862305e+00,4.390383958816528320e-01,-4.846430197358131409e-02
-3.298571705818176270e-01,-2.297102846205234528e-02,-9.615626931190490723e-02,6.192043051123619080e-02,2.032852964475750923e-03,4.120562598109245300e-02,3.653164952993392944e-02,3.970113024115562439e-02,-2.739925086498260498e-01,-4.068948030471801758e-01
-1.979652345180511475e-01,1.939310729503631592e-01,-1.511434465646743774e-01,-1.031580448150634766e+00,2.549314796924591064e-01,9.985944628715515137e-01,5.345712304115295410e-01,6.156480312347412109e-01,-1.917151659727096558e-01,-5.268726348876953125e-01
1.646491736173629761e-01,7.797893285751342773e-01,-3.420464396476745605e-01,-4.003347754478454590e-01,1.088126897811889648e-01,8.341183662414550781e-01,4.916453659534454346e-01,2.032771881204098463e-04,6.375551819801330566e-01,-8.903945684432983398e-01
-1.092080473899841309e-01,3.311926126480102539e-01,-1.577183604240417480e-01,3.182142376899719238e-01,-2.282882034778594971e-01,3.210871517658233643e-01,4.755891859531402588e-02,-1.603626012802124023e-01,1.250218302011489868e-01,-4.845617413520812988e-01
-2.698016166687011719e-02,-1.031848862767219543e-01,-1.674693673849105835e-01,-1.462886929512023926e-01,-1.248324140906333923e-01,-3.245977312326431274e-02,-8.865684270858764648e-02,-2.599470317363739014e-02,-1.447619348764419556e-01,-7.362835854291915894e-02
-1.327809970825910568e-02,-2.868337789550423622e-03,-1.191742867231369019e-01,-2.944075874984264374e-02,-1.924688220024108887e-01,-5.605662614107131958e-02,-8.135827258229255676e-03,-5.716885626316070557e-02,-8.151353336870670319e-03,-1.147418990731239319e-01
-1.682222932577133179e-01,-1.555701196193695068e-01,3.771034181118011475e-01,4.526302814483642578e-01,-2.754120826721191406e-01,-6.182497143745422363e-01,-1.446251869201660156e-01,-7.126760482788085938e-01,9.801507741212844849e-02,7.626383304595947266e-01
-7.149780541658401489e-02,-4.824720323085784912e-01,6.380632519721984863e-01,2.199502438306808472e-01,-2.994337081909179688e-01,-5.423315167427062988e-01,-6.173527836799621582e-01,9.446143507957458496e-01,4.370259344577789307e-01,1.967480033636093140e-02
-9.550851583480834961e-02,-2.213135212659835815e-01,4.058118462562561035e-01,2.376924306154251099e-01,-2.445119172334671021e-01,-4.221139848232269287e-01,-1.035151481628417969e-01,3.167821466922760010e-01,-2.034560889005661011e-01,6.145865321159362793e-01
-6.603865027427673340e-01,-2.710868120193481445e-01,-1.766663044691085815e-01,2.902371287345886230e-01,-2.937115132808685303e-01,2.501748800277709961e-01,1.771503537893295288e-01,2.287566810846328735e-01,-1.890224814414978027e-01,4.291813075542449951e-02
-4.662767797708511353e-02,-7.146144658327102661e-02,-4.204750433564186096e-02,-1.093338653445243835e-01,8.039514534175395966e-03,-4.648871347308158875e-02,-2.195889204740524292e-01,-5.063428729772567749e-02,-1.060866843909025192e-02,-6.426552683115005493e-02
-2.847812138497829437e-02,-6.136242672801017761e-02,-3.137749060988426208e-02,-4.428932666778564453e-01,7.381507754325866699e-02,-2.643453516066074371e-02,-2.106057107448577881e-01,-3.998503834009170532e-02,4.655617475509643555e-02,-5.438943207263946533e-02
-3.363505750894546509e-02,-8.995467424392700195e-02,-3.979626297950744629e-02,-6.237682104110717773e-01,1.545179784297943115e-01,-2.120299451053142548e-02,-3.463245630264282227e-01,-5.545584112405776978e-02,9.305485337972640991e-02,-7.316695153713226318e-02
-8.102643303573131561e-03,-5.644294992089271545e-02,1.538825128227472305e-02,-8.001791834831237793e-01,2.927846014499664307e-01,3.796645253896713257e-02,-1.433725804090499878e-01,-2.697109989821910858e-02,2.015712410211563110e-01,-3.846686705946922302e-02
-9.105668216943740845e-02,-1.499950289726257324e-01,-1.275100465863943100e-02,-4.048744738101959229e-01,3.192778229713439941e-01,1.381366234272718430e-02,-1.199963614344596863e-01,-8.583061397075653076e-02,2.171621769666671753e-01,-1.127290576696395874e-01
-1.540538668632507324e-01,-1.909248530864715576e-01,2.200951613485813141e-02,-2.378068566322326660e-01,3.791847825050354004e-01,5.330071225762367249e-02,-1.186837852001190186e-01,-8.528670668601989746e-02,2.801089882850646973e-01,-1.609958261251449585e-01
-1.929582804441452026e-01,-2.157830148935317993e-01,1.068924292922019958e-01,-2.056995183229446411e-01,4.372291862964630127e-01,1.550537943840026855e-01,-4.919427260756492615e-02,-3.178474958986043930e-03,3.514794707298278809e-01,-1.799028515815734863e-01
-2.580771148204803467e-01,-3.308121263980865479e-01,1.695822030305862427e-01,-2.083556801080703735e-01,4.301025569438934326e-01,2.161663770675659180e-01,3.052535653114318848e-02,9.749062359333038330e-02,3.751672804355621338e-01,-2.212855219841003418e-01
-2.986752688884735107e-01,-4.831408858299255371e-01,2.852417230606079102e-01,-7.824068516492843628e-02,4.526784718036651611e-01,2.951329946517944336e-01,1.798463761806488037e-01,2.470195442438125610e-01,4.491991996765136719e-01,-1.618159264326095581e-01
-4.003332257270812988e-01,-7.047529220581054688e-01,2.693544030189514160e-01,1.690643839538097382e-03,3.427699506282806396e-01,1.864822208881378174e-01,1.981372088193893433e-01,1.993058174848556519e-01,3.932465314865112305e-01,-1.338634043931961060e-01
-2.323652058839797974e-01,-7.270113229751586914e-01,2.906587421894073486e-01,1.581848710775375366e-01,2.736403644084930420e-01,9.415872395038604736e-02,2.492624223232269287e-01,8.181387931108474731e-02,3.803401887416839600e-01,6.356482207775115967e-02
-2.126347273588180542e-01,-6.301629543304443359e-01,2.420407533645629883e-01,2.303105890750885010e-01,1.573842763900756836e-01,-2.811883762478828430e-02,2.371869683265686035e-01,-1.041276603937149048e-01,3.165734112262725830e-01,2.088018506765365601e-01
-1.800063252449035645e-01,-5.440196990966796875e-01,1.619830429553985596e-01,2.449086457490921021e-01,3.737702593207359314e-02,-1.148096695542335510e-01,1.882850527763366699e-01,-2.070375680923461914e-01,2.152547538280487061e-01,2.255264073610305786e-01
-1.699601709842681885e-01,-2.047413587570190430e-01,7.470942288637161255e-02,2.119449228048324585e-01,-4.746041074395179749e-02,-1.609568893909454346e-01,1.165501847863197327e-01,-2.891665995121002197e-01,1.050147563219070435e-01,1.318151652812957764e-01
-1.182612851262092590e-01,-1.292617768049240112e-01,2.111493982374668121e-02,1.969764530658721924e-01,-4.967234283685684204e-02,-1.284454315900802612e-01,8.778704702854156494e-02,-4.412627518177032471e-01,4.065766930580139160e-02,9.008706361055374146e-02
-5.457616224884986877e-02,-5.361679941415786743e-02,2.993433037772774696e-03,1.804073303937911987e-01,-1.926570385694503784e-02,-6.407416611909866333e-02,7.615742832422256470e-02,-4.298895895481109619e-01,2.047981694340705872e-02,5.924077704548835754e-02
-6.486175954341888428e-02,-5.420664697885513306e-02,-4.569490998983383179e-02,9.439635276794433594e-02,-4.909064993262290955e-02,-6.881530582904815674e-02,1.423334889113903046e-02,-5.068125724792480469e-01,-4.041231051087379456e-02,-1.419159211218357086e-02
-6.455712765455245972e-02,-4.639096558094024658e-02,-6.114035472273826599e-02,3.053931333124637604e-02,-5.512151867151260376e-02,-6.350030750036239624e-02,-1.513890456408262253e-02,-1.101044654846191406e+00,-6.286700814962387085e-02,-3.763167932629585266e-02
-2.311410009860992432e-02,-1.455268729478120804e-02,-2.505559101700782776e-02,2.642496675252914429e-02,-3.458803892135620117e-01,-1.797101832926273346e-02,1.434344332665205002e-03,-1.305024385452270508e+00,-2.316540479660034180e-02,-3.094152081757783890e-03
-3.555068001151084900e-02,9.977644309401512146e-03,-1.598231196403503418e-01,1.933224685490131378e-02,7.618660107254981995e-03,6.915630772709846497e-03,1.441084034740924835e-02,-9.036545753479003906e-01,4.309813957661390305e-03,-1.522174626588821411e-01
1.049938082695007324e+00,2.657310366630554199e-01,1.727460384368896484e+00,-1.144016504287719727e+00,-4.529972076416015625e-01,1.250317454338073730e+00,-1.254581689834594727e+00,3.542884066700935364e-02,1.100443720817565918e+00,1.204680576920509338e-01
-1.349250078201293945e-01,5.043004751205444336e-01,7.817158102989196777e-02,-6.347393393516540527e-01,6.934059411287307739e-02,3.488268256187438965e-01,-5.408766269683837891e-01,-2.208333760499954224e-01,2.631020545959472656e-01,1.904918998479843140e-01
-3.425039350986480713e-02,-1.902489811182022095e-01,-1.679356396198272705e-01,-3.485831990838050842e-02,-8.394701033830642700e-02,-9.837117046117782593e-02,-4.502646997570991516e-02,-8.327427506446838379e-02,-1.219627782702445984e-01,-5.886527150869369507e-02
-9.623147547245025635e-03,2.131533622741699219e-01,-2.124114893376827240e-02,-6.777749657630920410e-01,-1.225160360336303711e-01,-7.824197411537170410e-03,2.250906825065612793e-01,-6.793917715549468994e-02,1.353905498981475830e-01,2.274378687143325806e-01
3.968703150749206543e-01,-4.236185550689697266e-01,4.091823697090148926e-01,2.534798979759216309e-01,1.924334019422531128e-01,-4.608815014362335205e-01,-3.221009969711303711e-01,-8.579370379447937012e-01,-9.347737580537796021e-02,3.907247185707092285e-01
-4.978846609592437744e-01,3.420306742191314697e-01,7.585551142692565918e-01,1.569181680679321289e-01,-2.521995306015014648e-01,-3.758225962519645691e-02,-6.141380667686462402e-01,5.049507319927215576e-02,4.087439477443695068e-01,2.582708299160003662e-01
-9.232039749622344971e-02,6.458474397659301758e-01,-2.127065956592559814e-01,6.164398193359375000e-01,-6.609716415405273438e-01,-2.727151513099670410e-01,8.113303035497665405e-02,5.860807895660400391e-01,-4.976714551448822021e-01,6.285451650619506836e-01
1.555925905704498291e-01,-4.172627627849578857e-01,-7.959957718849182129e-01,4.004633426666259766e-02,2.118115574121475220e-01,-2.639898955821990967e-01,-3.434195816516876221e-01,1.510061770677566528e-01,-4.898472130298614502e-01,1.291510015726089478e-01
1.862736418843269348e-02,5.303194047883152962e-04,-5.834900140762329102e-01,-3.124353885650634766e-01,1.264659315347671509e-01,1.119026727974414825e-02,-1.556641757488250732e-01,1.024877186864614487e-02,6.690537929534912109e-02,-4.111876245588064194e-03
1.353317312896251678e-02,-2.656096033751964569e-02,-2.690864726901054382e-03,-9.874745607376098633e-01,2.168143391609191895e-01,-1.810415182262659073e-03,-2.552705109119415283e-01,-1.586980558931827545e-02,1.055294796824455261e-01,-3.133823722600936890e-02
3.664302080869674683e-02,-3.484575450420379639e-02,3.139374032616615295e-02,-1.619088411331176758e+00,3.479949831962585449e-01,2.266650460660457611e-02,-4.113335534930229187e-02,-1.415996998548507690e-02,1.915543824434280396e-01,-3.482815250754356384e-02
2.253938280045986176e-02,-6.544657796621322632e-02,6.148666515946388245e-02,-2.159356117248535156e+00,4.505183100700378418e-01,3.169879317283630371e-02,-4.490278661251068115e-02,-4.959329590201377869e-02,2.499101907014846802e-01,-7.966456562280654907e-02
-3.030725568532943726e-02,-1.415812522172927856e-01,8.516010642051696777e-02,-1.011695981025695801e+00,4.951023161411285400e-01,2.823341265320777893e-02,-4.070806130766868591e-02,-1.048018634319305420e-01,2.600489854812622070e-01,-1.517764031887054443e-01
-3.874480724334716797e-02,-1.582806855440139771e-01,2.005077749490737915e-01,-3.829194009304046631e-01,5.563501119613647461e-01,1.321795731782913208e-01,9.616817533969879150e-02,-6.682056188583374023e-02,3.195454180240631104e-01,-1.709086298942565918e-01
-7.164553552865982056e-02,-1.710347682237625122e-01,2.925890386104583740e-01,-2.266595512628555298e-01,5.429139137268066406e-01,2.354905158281326294e-01,2.587365806102752686e-01,2.386794798076152802e-02,3.328192532062530518e-01,-2.140198945999145508e-01
-9.068698436021804810e-02,-1.626261919736862183e-01,3.676059544086456299e-01,-1.396837532520294189e-01,5.099245309829711914e-01,2.870393693447113037e-01,4.059642255306243896e-01,1.947929412126541138e-01,3.384711742401123047e-01,-2.361705899238586426e-01
-1.299133896827697754e-01,-1.924742311239242554e-01,3.817419111728668213e-01,-1.269481424242258072e-02,4.486605226993560791e-01,2.076061069965362549e-01,4.575512707233428955e-01,3.250132501125335693e-01,3.025155961513519287e-01,-2.397464513778686523e-01
-1.230783462524414062e-01,-1.772018671035766602e-01,4.062398374080657959e-01,1.626006960868835449e-01,4.331353604793548584e-01,8.687906712293624878e-02,4.908232688903808594e-01,3.342129588127136230e-01,3.170219063758850098e-01,-9.732768684625625610e-02
-1.162797883152961731e-01,-1.456852555274963379e-01,4.114663898944854736e-01,2.747375667095184326e-01,3.960537612438201904e-01,-5.207684636116027832e-02,4.969743788242340088e-01,1.501613557338714600e-01,3.302046060562133789e-01,1.370091587305068970e-01
-1.670027822256088257e-01,-1.739351451396942139e-01,3.489475548267364502e-01,2.597901821136474609e-01,2.525519430637359619e-01,-2.133981287479400635e-01,4.223058521747589111e-01,-1.439508944749832153e-01,2.620831727981567383e-01,2.537814378738403320e-01
-1.558840572834014893e-01,-1.439366638660430908e-01,3.101046383380889893e-01,2.609045207500457764e-01,1.252796798944473267e-01,-2.655189335346221924e-01,3.719323575496673584e-01,-2.873090803623199463e-01,2.182145416736602783e-01,2.679148614406585693e-01
-1.456316709518432617e-01,-1.135295256972312927e-01,2.382442653179168701e-01,2.569293081760406494e-01,1.993133127689361572e-02,-2.420136183500289917e-01,3.128001987934112549e-01,-5.972105860710144043e-01,1.557056605815887451e-01,1.761399358510971069e-01
-1.028838232159614563e-01,-6.096761673688888550e-02,1.808246523141860962e-01,2.741354405879974365e-01,-2.735845278948545456e-03,-1.599635481834411621e-01,2.704119384288787842e-01,-1.485817551612854004e+00,1.088760271668434143e-01,1.144482120871543884e-01
-9.671773016452789307e-02,-6.146746128797531128e-02,5.645711347460746765e-02,2.232689261436462402e-01,-4.843243211507797241e-02,-1.301795095205307007e-01,1.583600640296936035e-01,-1.959274291992187500e+00,9.445773437619209290e-03,1.757572963833808899e-02
-4.561999812722206116e-02,-7.488075643777847290e-03,1.096342038363218307e-02,1.997269690036773682e-01,-2.301338501274585724e-02,-6.152574717998504639e-02,1.129392609000205994e-01,-2.067045927047729492e+00,-1.147395372390747070e-02,1.158504374325275421e-02
-4.978780820965766907e-02,-1.738230325281620026e-02,-3.838360682129859924e-02,1.096984595060348511e-01,-3.732376918196678162e-02,-5.017573386430740356e-02,4.052236676216125488e-02,-2.594731569290161133e+00,-5.236171558499336243e-02,-1.602499932050704956e-02
-2.855532430112361908e-02,-6.178930867463350296e-03,-2.995622456073760986e-01,6.181564554572105408e-02,-2.032520435750484467e-02,-2.385588362812995911e-02,1.861064881086349487e-02,-7.094466686248779297e+00,-3.682224825024604797e-02,-5.618112627416849136e-03
-4.484938830137252808e-02,-3.531483933329582214e-02,-1.375844925642013550e-01,-1.573767699301242828e-02,-4.068840667605400085e-02,-4.607122391462326050e-02,-2.520747482776641846e-02,-5.017996311187744141e+00,-4.608437418937683105e-02,-3.343062847852706909e-02
1.261787295341491699e+00,1.072740674018859863e+00,3.989858031272888184e-01,-1.544567108154296875e+00,-2.270357608795166016e-01,6.023932099342346191e-01,-1.132667899131774902e+00,1.471856702119112015e-02,1.492276310920715332e+00,3.414927124977111816e-01
3.449933826923370361e-01,6.317613124847412109e-01,9.457568079233169556e-02,-4.466371536254882812e-01,-1.361985504627227783e-01,6.643788814544677734e-01,-7.240791916847229004e-01,-6.600618362426757812e-02,-2.745663821697235107e-01,2.299159467220306396e-01
-1.306226849555969238e-01,-4.951016046106815338e-03,-1.860454827547073364e-01,-5.556198302656412125e-03,-6.778114475309848785e-04,-8.268930763006210327e-02,-2.074895948171615601e-01,-1.562159806489944458e-01,-7.041454082354903221e-04,-2.284754626452922821e-02
5.264882743358612061e-02,6.062307953834533691e-01,-1.592630147933959961e-01,-8.952048420906066895e-01,3.507263362407684326e-01,-3.865974843502044678e-01,3.797183036804199219e-01,-1.326648294925689697e-01,4.487565755844116211e-01,-3.010603189468383789e-01
3.214257061481475830e-01,-6.951817274093627930e-01,5.222165584564208984e-01,-7.587206363677978516e-01,1.399901509284973145e-01,1.563780456781387329e-01,-1.031484678387641907e-01,-7.661407589912414551e-01,5.044006705284118652e-01,-9.859828650951385498e-02
-6.847441792488098145e-01,3.515351414680480957e-01,6.950346231460571289e-01,-2.492816001176834106e-02,-1.096081733703613281e-01,-4.284397959709167480e-01,-5.974117517471313477e-01,2.333705276250839233e-01,-1.889080405235290527e-01,7.289981842041015625e-01
6.361438333988189697e-02,5.472413450479507446e-02,-1.716482937335968018e-01,-5.742364376783370972e-02,7.614663988351821899e-02,1.477605290710926056e-02,-1.733084470033645630e-01,4.928300157189369202e-03,-5.513881444931030273e-01,2.725696936249732971e-02
8.618212491273880005e-02,7.064434885978698730e-02,4.816127941012382507e-02,-5.001578927040100098e-01,-6.624633669853210449e-01,1.861724257469177246e-02,-9.538507461547851562e-02,1.969229616224765778e-02,7.416218519210815430e-02,4.040412604808807373e-02
4.977826029062271118e-02,2.458263188600540161e-02,-8.976932149380445480e-04,-1.302260279655456543e+00,1.652098745107650757e-01,3.767836838960647583e-03,-1.770441383123397827e-01,-6.271510850638151169e-03,6.306803226470947266e-02,-2.211045846343040466e-02
4.788995906710624695e-02,1.704573631286621094e-03,-1.424669637344777584e-03,-3.087138414382934570e+00,2.340873181819915771e-01,-2.452686429023742676e-02,-6.313985586166381836e-02,-5.177177116274833679e-02,9.594844281673431396e-02,-6.757931411266326904e-02
1.256551444530487061e-01,2.979987114667892456e-02,8.765359222888946533e-02,-4.216567039489746094e+00,3.649061024188995361e-01,2.548133581876754761e-02,-1.585729978978633881e-02,-2.882999926805496216e-02,1.971128135919570923e-01,-6.022530049085617065e-02
1.153854802250862122e-01,-2.301670052111148834e-02,1.273650974035263062e-01,-3.764495134353637695e+00,3.993986248970031738e-01,2.286849543452262878e-03,-4.552157130092382431e-03,-1.056036502122879028e-01,1.909064203500747681e-01,-1.524660438299179077e-01
1.874238252639770508e-01,1.776170358061790466e-02,2.715132534503936768e-01,-1.076249718666076660e+00,4.574898481369018555e-01,1.107528209686279297e-01,1.615923047065734863e-01,-8.509053289890289307e-02,2.502001523971557617e-01,-1.511507779359817505e-01
1.615679413080215454e-01,2.296030707657337189e-02,3.547032773494720459e-01,-3.514955639839172363e-01,3.846285641193389893e-01,2.053986042737960815e-01,3.302028477191925049e-01,-8.200538158416748047e-02,2.154665738344192505e-01,-2.063120305538177490e-01
1.399448364973068237e-01,7.155721634626388550e-02,4.067797958850860596e-01,-1.698969751596450806e-01,3.023437857627868652e-01,2.954387068748474121e-01,4.824570119380950928e-01,2.143405005335807800e-02,1.860767155885696411e-01,-2.329031527042388916e-01
1.071888655424118042e-01,1.131670176982879639e-01,4.026401937007904053e-01,9.688721038401126862e-03,2.299236208200454712e-01,2.624165117740631104e-01,5.216119885444641113e-01,2.147042304277420044e-01,1.373489797115325928e-01,-2.514835894107818604e-01
1.054576858878135681e-01,1.719164252281188965e-01,3.993197679519653320e-01,2.334601283073425293e-01,2.299963086843490601e-01,1.573347449302673340e-01,4.948196709156036377e-01,4.304802715778350830e-01,1.382963508367538452e-01,-1.764244288206100464e-01
9.797068685293197632e-02,1.831151992082595825e-01,3.749897181987762451e-01,3.489474952220916748e-01,2.606982588768005371e-01,-1.844558678567409515e-02,4.269528090953826904e-01,4.242312610149383545e-01,1.467311531305313110e-01,4.573083948343992233e-03
6.440661847591400146e-02,1.619598567485809326e-01,3.382982313632965088e-01,3.312044143676757812e-01,2.692404985427856445e-01,-1.931004524230957031e-01,3.579841256141662598e-01,1.652868241071701050e-01,1.575590819120407104e-01,2.156223803758621216e-01
4.022109135985374451e-02,1.618462204933166504e-01,3.455880880355834961e-01,2.861158847808837891e-01,2.312546372413635254e-01,-2.869439423084259033e-01,3.422312736511230469e-01,-1.199260056018829346e-01,2.018039077520370483e-01,3.492013216018676758e-01
-1.972534507513046265e-02,1.643058657646179199e-01,3.616080284118652344e-01,2.522341907024383545e-01,1.399287730455398560e-01,-3.159620165824890137e-01,3.502600491046905518e-01,-2.970899939537048340e-01,2.259398251771926880e-01,3.010109066963195801e-01
-6.830237060785293579e-02,1.514716595411300659e-01,3.592913448810577393e-01,2.565756440162658691e-01,3.690544143319129944e-02,-2.957282364368438721e-01,3.422293663024902344e-01,-6.943466663360595703e-01,1.992683559656143188e-01,1.701252013444900513e-01
-9.054221957921981812e-02,1.153505891561508179e-01,3.063527047634124756e-01,2.869206964969635010e-01,-3.104296512901782990e-02,-2.220124453306198120e-01,2.978663444519042969e-01,-3.250040292739868164e+00,1.371429115533828735e-01,5.963260680437088013e-02
-1.387085169553756714e-01,1.578806340694427490e-02,1.485065519809722900e-01,2.308766245841979980e-01,-1.179990023374557495e-01,-2.021397054195404053e-01,1.586179882287979126e-01,-5.125781059265136719e+00,-4.627160262316465378e-03,-5.080712214112281799e-02
-8.282927423715591431e-02,1.038026437163352966e-02,5.622236803174018860e-02,2.185005843639373779e-01,-8.581269532442092896e-02,-1.127136051654815674e-01,1.050955206155776978e-01,-2.435011625289916992e+00,-3.803290799260139465e-02,-3.004430420696735382e-02
-1.016525551676750183e-02,4.971542581915855408e-02,2.174193412065505981e-02,1.960535347461700439e-01,-1.442139968276023865e-02,-2.281461097300052643e-02,9.725612401962280273e-02,-6.907607555389404297e+00,-1.389802619814872742e-02,3.255147114396095276e-02
-4.281531646847724915e-02,-9.524999186396598816e-03,-9.436388313770294189e-02,7.778146862983703613e-02,-4.215217754244804382e-02,-4.872392490506172180e-02,9.669375605881214142e-03,-7.066780567169189453e+00,-5.185498297214508057e-02,-5.341842770576477051e-03
-3.710554540157318115e-02,-2.501948550343513489e-02,-4.190793260931968689e-02,8.702711202204227448e-03,-1.372089534997940063e-01,-4.736068844795227051e-02,-2.069868519902229309e-02,-4.842366218566894531e+00,-4.176881909370422363e-02,-1.882153563201427460e-02
1.018867135047912598e+00,4.886289834976196289e-01,-4.679025709629058838e-01,-1.197858572006225586e+00,6.157094240188598633e-01,5.088072642683982849e-02,-8.665630221366882324e-01,3.750883936882019043e-01,1.375752925872802734e+00,3.900209367275238037e-01
-1.014958135783672333e-02,1.191270276904106140e-01,5.592588186264038086e-01,-3.341597616672515869e-01,4.125683009624481201e-01,5.641378164291381836e-01,-2.958789765834808350e-01,1.427391823381185532e-02,1.528977155685424805e-01,-1.378238797187805176e-01
-5.195913463830947876e-02,-5.974781513214111328e-01,-9.041596949100494385e-02,3.131004273891448975e-01,-3.523495048284530640e-02,2.719768285751342773e-01,-2.405161038041114807e-02,-1.362973004579544067e-01,3.153851330280303955e-01,1.404359489679336548e-01
-5.928177013993263245e-02,-5.243692994117736816e-01,-1.166564375162124634e-01,-6.907076239585876465e-01,6.416058540344238281e-01,-5.018214136362075806e-02,-5.028564333915710449e-01,2.383346557617187500e-01,2.812693715095520020e-01,-7.854259014129638672e-01
-1.541533768177032471e-01,3.411483466625213623e-01,1.063954949378967285e+00,-2.551557123661041260e-01,-2.833785116672515869e-01,-4.834513366222381592e-01,6.829970479011535645e-01,-6.472215056419372559e-02,-6.230171918869018555e-01,-3.288216888904571533e-01
5.598824098706245422e-02,4.070607200264930725e-02,-4.371343553066253662e-01,-1.076735369861125946e-02,4.515026509761810303e-02,-6.944866478443145752e-02,-4.519528523087501526e-02,-4.547083284705877304e-03,-7.386810779571533203e-01,7.546836975961923599e-03
-5.644882321357727051e-01,1.377283483743667603e-01,-2.630823254585266113e-01,1.349764596670866013e-02,1.487522870302200317e-01,1.010724231600761414e-01,-3.827086836099624634e-02,2.019559592008590698e-02,-1.919977366924285889e-01,5.754920840263366699e-02
1.678096204996109009e-01,1.355313509702682495e-01,8.783616125583648682e-02,-8.612887263298034668e-01,1.713049411773681641e-01,-7.535054534673690796e-02,-4.725287854671478271e-01,7.869401574134826660e-02,-8.144401311874389648e-01,7.375345379114151001e-02
1.220705062150955200e-01,8.074023574590682983e-02,3.362537175416946411e-02,-2.211625814437866211e+00,1.635505259037017822e-01,9.123557247221469879e-03,-2.895934581756591797e-01,-7.494012825191020966e-03,6.956312060356140137e-02,-2.306925505399703979e-02
1.489653587341308594e-01,7.598944753408432007e-02,5.992528423666954041e-02,-3.893028736114501953e+00,1.963966786861419678e-01,-1.900672726333141327e-02,-4.581559821963310242e-02,-5.162282660603523254e-02,8.486489951610565186e-02,-7.733225822448730469e-02
2.669746279716491699e-01,1.297492086887359619e-01,1.935988515615463257e-01,-4.482228755950927734e+00,2.819490730762481689e-01,3.149094432592391968e-02,2.869114838540554047e-02,-3.911367058753967285e-02,1.564503908157348633e-01,-8.356885612010955811e-02
3.387716114521026611e-01,1.597660779953002930e-01,3.063804507255554199e-01,-2.032963275909423828e+00,2.943139672279357910e-01,6.898992508649826050e-02,1.220166012644767761e-01,-7.549939304590225220e-02,1.485699713230133057e-01,-1.393366754055023193e-01
3.028829991817474365e-01,1.602326333522796631e-01,3.468223214149475098e-01,-7.665493488311767578e-01,1.622169613838195801e-01,1.094044595956802368e-01,2.310166954994201660e-01,-1.797492355108261108e-01,4.491037130355834961e-02,-2.505042552947998047e-01
2.404649853706359863e-01,2.394496649503707886e-01,3.836545646190643311e-01,-2.446447908878326416e-01,4.601336643099784851e-02,2.187575697898864746e-01,3.890910446643829346e-01,-1.750519573688507080e-01,-2.422853372991085052e-02,-2.913361191749572754e-01
2.220602184534072876e-01,3.855836987495422363e-01,4.137474894523620605e-01,1.863886788487434387e-02,2.949457382783293724e-03,3.244989216327667236e-01,4.837007224559783936e-01,-3.727681702002882957e-03,-9.398973546922206879e-03,-2.338855266571044922e-01
1.799594014883041382e-01,4.360053539276123047e-01,3.570970594882965088e-01,2.967216968536376953e-01,-1.851202547550201416e-02,2.468208372592926025e-01,3.934471011161804199e-01,2.498979121446609497e-01,-2.674224041402339935e-02,-1.933917105197906494e-01
1.919105648994445801e-01,4.459403455257415771e-01,3.230141699314117432e-01,4.869801402091979980e-01,4.093913733959197998e-02,1.061880737543106079e-01,2.711250782012939453e-01,5.092507600784301758e-01,-4.155978094786405563e-03,-6.498661637306213379e-02
2.031811773777008057e-01,3.973609805107116699e-01,2.726269364356994629e-01,4.730849862098693848e-01,1.154171451926231384e-01,-8.039915561676025391e-02,1.627003103494644165e-01,4.926413893699645996e-01,1.191244367510080338e-02,1.617378890514373779e-01
2.049112766981124878e-01,3.334943652153015137e-01,2.036156654357910156e-01,3.292966783046722412e-01,1.586142629384994507e-01,-2.336777895689010620e-01,8.647142350673675537e-02,1.891317069530487061e-01,4.090931266546249390e-02,3.489301204681396484e-01
2.002409547567367554e-01,3.290534913539886475e-01,1.989559829235076904e-01,2.087805867195129395e-01,1.578048169612884521e-01,-3.079255819320678711e-01,1.135964244604110718e-01,-1.245624721050262451e-01,1.350985020399093628e-01,4.061752855777740479e-01
1.702615916728973389e-01,3.884312212467193604e-01,3.050470948219299316e-01,1.958693265914916992e-01,1.268563270568847656e-01,-2.871944010257720947e-01,2.447921335697174072e-01,-2.732559740543365479e-01,2.540841698646545410e-01,3.198629915714263916e-01
4.700635746121406555e-02,3.607587218284606934e-01,3.823978900909423828e-01,2.108629643917083740e-01,1.934345066547393799e-02,-2.618360817432403564e-01,2.964509725570678711e-01,-8.660072088241577148e-01,2.447986453771591187e-01,1.240632534027099609e-01
-4.883490502834320068e-02,2.659941911697387695e-01,4.035373330116271973e-01,2.443691790103912354e-01,-7.570064812898635864e-02,-2.352660447359085083e-01,2.504322230815887451e-01,-4.737991809844970703e+00,1.548829525709152222e-01,-9.033391252160072327e-03
-5.853149667382240295e-02,1.772073507308959961e-01,3.485501408576965332e-01,2.802475988864898682e-01,-8.670643717050552368e-02,-1.414450407028198242e-01,1.954507529735565186e-01,-5.110206604003906250e+00,7.730466127395629883e-02,-2.119960449635982513e-02
-4.965672641992568970e-02,8.765006810426712036e-02,2.111740410327911377e-01,2.425286620855331421e-01,-7.229945063591003418e-02,-7.755804806947708130e-02,1.239818036556243896e-01,-3.269089698791503906e+00,1.116315741091966629e-02,-3.389480989426374435e-03
3.349616006016731262e-02,1.058712750673294067e-01,-1.643494129180908203e+00,2.411965578794479370e-01,-6.924412399530410767e-02,2.553724870085716248e-02,1.363946497440338135e-01,-2.854794740676879883e+00,4.427609592676162720e-02,8.857848495244979858e-02
-5.839860066771507263e-02,-1.625490933656692505e-02,-2.342785447835922241e-01,5.177207291126251221e-02,-8.299044519662857056e-02,-6.150145828723907471e-02,-1.261818781495094299e-02,-1.239866495132446289e+00,-6.137883663177490234e-02,-1.323465444147586823e-02
-1.986747607588768005e-02,-5.787025205790996552e-03,-2.934126742184162140e-02,1.742778718471527100e-02,-5.564801096916198730e-01,-2.593999169766902924e-02,-5.671951919794082642e-03,-2.784902155399322510e-01,-6.070117279887199402e-02,-4.413845483213663101e-03
2.526487410068511963e-01,1.044712543487548828e+00,1.898201853036880493e-01,-1.737848281860351562e+00,5.375562608242034912e-02,5.954771637916564941e-01,-1.022178053855895996e+00,7.344196438789367676e-01,1.790607094764709473e+00,-2.375479340553283691e-01
4.777238667011260986e-01,-6.400724053382873535e-01,1.976365447044372559e-01,7.913495302200317383e-01,5.695179104804992676e-01,5.772308707237243652e-01,-4.681084156036376953e-01,-1.077040284872055054e-01,5.186862349510192871e-01,-5.297536849975585938e-01
3.874626383185386658e-02,-5.749495029449462891e-01,-1.833993494510650635e-01,2.108355462551116943e-01,6.115928664803504944e-02,-1.987140253186225891e-02,-1.540261227637529373e-02,2.089499831199645996e-01,-1.036622598767280579e-01,1.217326596379280090e-01
-2.125290483236312866e-01,-5.922399759292602539e-01,8.540102839469909668e-02,5.509765148162841797e-01,7.308401465415954590e-01,1.817215792834758759e-02,-5.094158053398132324e-01,3.953618705272674561e-01,-6.471844017505645752e-02,3.705680668354034424e-01
-9.419502690434455872e-03,9.581121057271957397e-02,9.515415877103805542e-02,-2.755558788776397705e-01,6.994938850402832031e-02,-4.620564877986907959e-01,-2.949701994657516479e-02,9.332089126110076904e-02,-1.020192027091979980e+00,-2.334261834621429443e-01
1.222480684518814087e-01,1.042049527168273926e-01,-5.642787814140319824e-01,5.014687031507492065e-02,9.542342275381088257e-02,-8.671918511390686035e-02,1.710856705904006958e-02,8.271768689155578613e-02,-1.256019353866577148e+00,-3.725307434797286987e-02
6.274275481700897217e-02,3.674465045332908630e-02,9.640069911256432533e-04,-2.412206679582595825e-01,2.928667142987251282e-02,-1.791472197510302067e-03,-1.670398861169815063e-01,-7.367227226495742798e-03,-1.288886182010173798e-03,-1.586240082979202271e-01
1.193623095750808716e-01,7.838235050439834595e-02,2.408100850880146027e-02,-1.176609754562377930e+00,7.851520925760269165e-02,8.833675645291805267e-03,-2.872870266437530518e-01,2.982323931064456701e-04,2.911841124296188354e-02,-4.169012904167175293e-01
1.588793992996215820e-01,8.930107206106185913e-02,4.941701143980026245e-02,-2.617434024810791016e+00,9.962542355060577393e-02,-1.502210553735494614e-02,-3.035694658756256104e-01,-3.994617611169815063e-02,3.903521224856376648e-02,-5.082244798541069031e-02
2.857210636138916016e-01,1.604764461517333984e-01,1.893557310104370117e-01,-3.097738504409790039e+00,1.626078486442565918e-01,2.782419882714748383e-02,6.583615671843290329e-03,-2.332403697073459625e-02,1.003393232822418213e-01,-4.898143559694290161e-02
3.538661599159240723e-01,1.608277410268783569e-01,2.759507000446319580e-01,-2.010008811950683594e+00,1.369129866361618042e-01,7.280424237251281738e-03,1.335121039301156998e-02,-1.017523035407066345e-01,4.682885855436325073e-02,-1.383034586906433105e-01
3.975048661231994629e-01,2.139372229576110840e-01,3.784474432468414307e-01,-1.078282356262207031e+00,8.397287130355834961e-02,5.584132298827171326e-02,1.117216646671295166e-01,-1.782086938619613647e-01,-3.385916724801063538e-02,-2.203186303377151489e-01
3.604531884193420410e-01,3.326480984687805176e-01,4.314967393875122070e-01,-2.378989458084106445e-01,7.930356077849864960e-03,1.950552463531494141e-01,2.894983589649200439e-01,-2.121324390172958374e-01,-1.032679602503776550e-01,-2.660404145717620850e-01
2.564300894737243652e-01,4.556847512722015381e-01,4.103008806705474854e-01,-1.626850478351116180e-02,-7.013117522001266479e-02,3.385335803031921387e-01,4.158141613006591797e-01,-1.648030877113342285e-01,-1.306181997060775757e-01,-2.518166601657867432e-01
1.437506973743438721e-01,4.831391274929046631e-01,3.180212080478668213e-01,3.023437559604644775e-01,-1.214242503046989441e-01,3.284323513507843018e-01,3.459480702877044678e-01,-2.312455326318740845e-02,-1.517060101032257080e-01,-2.091479301452636719e-01
8.316899091005325317e-02,4.187403619289398193e-01,2.319602668285369873e-01,5.277541279792785645e-01,-9.334482997655868530e-02,1.876024156808853149e-01,1.578232347965240479e-01,2.599363029003143311e-01,-1.467083096504211426e-01,-1.384320110082626343e-01
9.491475671529769897e-02,3.490226566791534424e-01,1.719429641962051392e-01,5.484901666641235352e-01,-1.317507936619222164e-03,8.612106554210186005e-03,1.007721293717622757e-02,5.230872035026550293e-01,-1.172193959355354309e-01,3.267725184559822083e-02
1.412009000778198242e-01,2.743040621280670166e-01,1.085319742560386658e-01,3.954093456268310547e-01,1.076658144593238831e-01,-1.349248439073562622e-01,-7.125478982925415039e-02,4.951269924640655518e-01,-8.249976485967636108e-02,3.012227714061737061e-01
2.314426451921463013e-01,2.486476451158523560e-01,4.993276298046112061e-02,2.049227952957153320e-01,1.741104573011398315e-01,-2.156905233860015869e-01,-5.997632443904876709e-02,2.015493810176849365e-01,5.489615141414105892e-04,4.830086827278137207e-01
3.208139538764953613e-01,3.204249739646911621e-01,6.135686486959457397e-02,8.259460330009460449e-02,1.715430170297622681e-01,-2.460532337427139282e-01,5.851991847157478333e-02,-1.062322705984115601e-01,1.544109880924224854e-01,4.701322317123413086e-01
2.362925708293914795e-01,3.722814619541168213e-01,1.073561310768127441e-01,1.792662963271141052e-02,4.583599790930747986e-02,-2.960580587387084961e-01,1.591181457042694092e-01,-3.168124854564666748e-01,2.298434525728225708e-01,2.134319096803665161e-01
1.572864204645156860e-01,4.565488100051879883e-01,3.197080790996551514e-01,1.276034712791442871e-01,-3.839186858385801315e-03,-2.087353914976119995e-01,2.781586050987243652e-01,-1.200007319450378418e+00,3.036834299564361572e-01,6.562036275863647461e-02
2.513914927840232849e-02,3.521247506141662598e-01,4.496252238750457764e-01,1.817811131477355957e-01,-9.103552252054214478e-02,-1.712775230407714844e-01,2.252222597599029541e-01,-6.716347694396972656e+00,1.966572850942611694e-01,-3.959309682250022888e-02
-6.798859685659408569e-02,1.697560995817184448e-01,4.354986548423767090e-01,1.710226684808731079e-01,-1.374547481536865234e-01,-1.487717330455780029e-01,1.103673949837684631e-01,-3.619675636291503906e+00,6.327637284994125366e-02,-7.966984808444976807e-02
-8.420671522617340088e-02,5.413290113210678101e-02,2.972155511379241943e-01,1.436505168676376343e-01,-1.165366247296333313e-01,-1.117448657751083374e-01,3.997184336185455322e-02,-2.381499528884887695e+00,-2.443735674023628235e-02,-5.385697633028030396e-02
-4.663744568824768066e-02,1.866955868899822235e-02,1.402531862258911133e-01,1.256858706474304199e-01,-1.462330669164657593e-01,-4.980708062648773193e-01,3.028151579201221466e-02,-1.119199395179748535e+00,-3.129832074046134949e-02,-1.557962270453572273e-03
-2.703576534986495972e-02,8.275636471807956696e-03,1.305742282420396805e-02,5.172632262110710144e-02,-5.490685254335403442e-02,-1.404512822628021240e-01,8.246021345257759094e-03,-5.612311959266662598e-01,-2.401677146553993225e-02,6.157829426229000092e-03
-1.149445213377475739e-02,1.554367248900234699e-03,-8.732574991881847382e-03,1.190827973186969757e-02,-5.280479043722152710e-02,-1.923631578683853149e-01,-2.042206674814224243e-01,-4.836668074131011963e-01,-3.578308224678039551e-02,-2.012430923059582710e-03
3.059923350811004639e-01,1.224205419421195984e-01,1.523763835430145264e-01,2.498669475317001343e-01,-1.401817053556442261e-01,1.573633551597595215e-01,-6.928045153617858887e-01,-1.779965460300445557e-01,3.761266767978668213e-01,-9.554853439331054688e-01
6.057589650154113770e-01,-8.016809225082397461e-01,3.774444460868835449e-01,7.398504018783569336e-01,4.349900186061859131e-01,8.542191386222839355e-01,-5.093056559562683105e-01,3.844701945781707764e-01,2.548290491104125977e-01,-1.068108677864074707e+00
-2.913433909416198730e-01,-5.079044103622436523e-01,-8.306961506605148315e-03,2.297555357217788696e-01,2.171689271926879883e-01,6.105670705437660217e-02,-4.719347134232521057e-02,2.363189756870269775e-01,-3.230771049857139587e-02,1.352477520704269409e-01
-3.047820627689361572e-01,-9.413813352584838867e-01,5.422484278678894043e-01,6.769996881484985352e-01,7.572469711303710938e-01,5.167955756187438965e-01,-5.413348078727722168e-01,3.869714736938476562e-01,-1.256310939788818359e-01,3.082660138607025146e-01
3.493853285908699036e-02,-3.570421636104583740e-01,1.373495347797870636e-02,-1.350626498460769653e-01,1.425149384886026382e-02,-2.639796435832977295e-01,-2.019359618425369263e-01,-7.829836010932922363e-02,-6.716766357421875000e-01,-3.367088139057159424e-01
7.209521532058715820e-02,6.184053421020507812e-02,-2.355019450187683105e-01,-2.670237720012664795e-01,4.678650572896003723e-02,4.047073423862457275e-02,-6.219855695962905884e-02,-2.040299773216247559e-01,-8.497711420059204102e-01,-3.253533244132995605e-01
6.029844656586647034e-02,3.193437308073043823e-02,2.357740653678774834e-03,-2.256807535886764526e-01,1.719428226351737976e-02,-3.026892896741628647e-03,-1.116123273968696594e-01,-1.340116187930107117e-02,-1.644963398575782776e-03,-8.947243541479110718e-02
1.244984194636344910e-01,6.969163566827774048e-02,4.713114351034164429e-02,-1.086406230926513672e+00,5.314530059695243835e-02,8.226959966123104095e-03,-2.801499664783477783e-01,-2.439265511929988861e-02,2.709906548261642456e-02,-1.833285577595233917e-02
2.333677113056182861e-01,1.261491626501083374e-01,1.560486704111099243e-01,-1.615446567535400391e+00,1.022485792636871338e-01,3.122390434145927429e-02,-1.776808351278305054e-01,-6.892897188663482666e-03,6.617506593465805054e-02,-1.499399635940790176e-02
3.060874044895172119e-01,1.133770942687988281e-01,2.560684084892272949e-01,-1.655890345573425293e+00,6.483861804008483887e-02,-2.007947303354740143e-03,-3.300980478525161743e-02,-8.840250968933105469e-02,1.610546745359897614e-02,-1.004846915602684021e-01
3.798355758190155029e-01,1.348853111267089844e-01,3.653064668178558350e-01,-8.774571418762207031e-01,2.166639268398284912e-02,-2.407554071396589279e-03,-2.215993404388427734e-02,-1.755507439374923706e-01,-7.843644917011260986e-02,-1.924367398023605347e-01
3.566056489944458008e-01,2.136022150516510010e-01,4.202337265014648438e-01,-2.683271467685699463e-01,-3.135721385478973389e-02,8.407746255397796631e-02,8.421454578638076782e-02,-2.515020072460174561e-01,-1.882715672254562378e-01,-2.861983478069305420e-01
2.765658199787139893e-01,3.776482045650482178e-01,4.238317906856536865e-01,-7.011097669601440430e-02,-3.182069212198257446e-02,2.942756116390228271e-01,3.013296723365783691e-01,-2.215438634157180786e-01,-2.071888148784637451e-01,-2.676950097084045410e-01
1.123278513550758362e-01,4.088621437549591064e-01,3.140437602996826172e-01,2.485740780830383301e-01,-5.281310528516769409e-02,3.879724144935607910e-01,3.691059052944183350e-01,-1.684672981500625610e-01,-2.203360199928283691e-01,-2.374425679445266724e-01
-1.627502404153347015e-02,2.943235933780670166e-01,1.643733978271484375e-01,5.089457631111145020e-01,-5.771817639470100403e-02,2.811542451381683350e-01,2.147105187177658081e-01,-3.380312398076057434e-02,-2.306995391845703125e-01,-1.837355494499206543e-01
1.145145948976278305e-02,2.303777635097503662e-01,1.369765102863311768e-01,6.324964761734008789e-01,7.656069099903106689e-02,1.433475613594055176e-01,7.854416221380233765e-02,3.355376124382019043e-01,-1.362154930830001831e-01,-1.807618513703346252e-02
1.234393334016203880e-03,1.156198307871818542e-01,5.115054547786712646e-02,4.510606229305267334e-01,1.607040017843246460e-01,-4.747945442795753479e-02,-7.209232449531555176e-02,5.721828937530517578e-01,-1.235145255923271179e-01,1.861333400011062622e-01
7.212982326745986938e-02,7.046789675951004028e-02,-1.102563459426164627e-02,2.247844040393829346e-01,2.521516382694244385e-01,-1.328875273466110229e-01,-9.295487403869628906e-02,5.279788970947265625e-01,-6.793584674596786499e-02,4.659250080585479736e-01
2.137825936079025269e-01,1.112125068902969360e-01,-7.171423733234405518e-02,3.774239495396614075e-02,2.623410522937774658e-01,-1.680465042591094971e-01,-7.692239712923765182e-03,1.991416662931442261e-01,3.504710644483566284e-02,5.829467773437500000e-01
3.324571549892425537e-01,2.554995417594909668e-01,-9.591070562601089478e-02,-6.287532299757003784e-02,1.706119030714035034e-01,-1.968834698200225830e-01,1.378760486841201782e-01,-1.357805579900741577e-01,1.848672926425933838e-01,4.280240535736083984e-01
3.454189300537109375e-01,4.384632706642150879e-01,1.281204633414745331e-02,-3.656413778662681580e-02,5.543737858533859253e-02,-1.669143736362457275e-01,2.708860039710998535e-01,-2.685049176216125488e-01,3.297691345214843750e-01,1.495987325906753540e-01
2.175862044095993042e-01,4.710003435611724854e-01,2.027623057365417480e-01,4.474659636616706848e-02,-4.669098183512687683e-02,-1.345105022192001343e-01,2.710538208484649658e-01,-1.928121209144592285e+00,3.343612551689147949e-01,-3.835834935307502747e-02
5.979673564434051514e-02,3.332569301128387451e-01,4.176052510738372803e-01,1.194370463490486145e-01,-1.134932935237884521e-01,-1.039805710315704346e-01,1.708723157644271851e-01,-5.740722179412841797e+00,2.057321369647979736e-01,-1.096489056944847107e-01
-7.816611975431442261e-02,1.173212900757789612e-01,4.704104065895080566e-01,8.653761446475982666e-02,-1.671221405267715454e-01,-1.235437318682670593e-01,2.352417446672916412e-02,-3.211926698684692383e+00,4.037924855947494507e-02,-1.328285485506057739e-01
-7.903400808572769165e-02,2.228648401796817780e-02,4.014714658260345459e-01,8.496382832527160645e-02,-2.766187191009521484e-01,-8.458007127046585083e-02,-5.997922271490097046e-03,-1.760227680206298828e+00,-2.335085719823837280e-02,-7.528121024370193481e-02
-7.064808905124664307e-02,-2.344603650271892548e-02,1.960218399763107300e-01,4.726533591747283936e-02,-2.243204414844512939e-01,-6.977868825197219849e-02,-4.645263552665710449e-01,-8.985360264778137207e-01,-5.120947211980819702e-02,-4.773623868823051453e-02
1.014491915702819824e+00,7.317405343055725098e-01,-9.605347514152526855e-01,-1.505035638809204102e+00,1.135698914527893066e+00,-1.381256133317947388e-01,-1.340794712305068970e-01,6.074322462081909180e-01,1.037668585777282715e+00,-5.059576630592346191e-01
6.375631093978881836e-01,1.473955065011978149e-01,6.414672732353210449e-01,1.197975315153598785e-02,-9.969463199377059937e-02,-2.905732393264770508e-01,-6.227101683616638184e-01,1.657069921493530273e-01,-5.795975029468536377e-02,-4.866802096366882324e-01
6.104364991188049316e-01,3.686378598213195801e-01,1.267367243766784668e+00,-1.637046188116073608e-01,-6.906363368034362793e-02,-3.621991276741027832e-01,-4.074946343898773193e-01,-5.537235736846923828e-01,1.169288158416748047e-01,-8.231152296066284180e-01
3.856043815612792969e-01,-5.518410205841064453e-01,4.323900938034057617e-01,4.234433770179748535e-01,-2.125317454338073730e-01,7.329235672950744629e-01,-3.664817810058593750e-01,-4.532597362995147705e-01,-3.228050172328948975e-01,-8.599400520324707031e-01
-5.662723779678344727e-01,-2.239897549152374268e-01,-1.544687896966934204e-02,1.464290469884872437e-01,1.372180879116058350e-01,-4.921595007181167603e-02,-1.202704980969429016e-01,1.245303228497505188e-01,-1.785671263933181763e-01,8.377408981323242188e-02
2.611681353300809860e-03,-6.828849315643310547e-01,6.025300025939941406e-01,6.809179782867431641e-01,-2.755286097526550293e-01,4.958725869655609131e-01,-6.601600646972656250e-01,3.992910981178283691e-01,4.810426235198974609e-01,4.682220220565795898e-01
-6.028178334236145020e-01,-7.206526994705200195e-01,8.681691288948059082e-01,9.130995869636535645e-01,-1.466008722782135010e-01,6.579673290252685547e-01,3.571084439754486084e-01,2.510416805744171143e-01,-1.449044495820999146e-01,5.787037014961242676e-01
-4.727651178836822510e-01,1.216704584658145905e-02,-5.420896410942077637e-02,4.001700878143310547e-01,-2.767904698848724365e-01,-3.063220679759979248e-01,2.864497900009155273e-01,-7.119906693696975708e-02,3.345831334590911865e-01,-1.521502882242202759e-01
3.176027163863182068e-02,5.681430455297231674e-03,-1.415111273527145386e-01,-4.971890151500701904e-02,-7.096067070960998535e-03,-2.837216667830944061e-02,-2.264904826879501343e-01,-1.996459513902664185e-01,-1.624974049627780914e-02,-5.920330435037612915e-02
1.020427569746971130e-01,2.984826266765594482e-02,5.467651039361953735e-02,-1.935758441686630249e-01,2.053538337349891663e-02,-1.412871573120355606e-02,-1.834538578987121582e-01,-8.663993328809738159e-02,8.889308199286460876e-03,-3.353917226195335388e-02
1.975424438714981079e-01,4.625038057565689087e-02,1.809714287519454956e-01,-5.554253458976745605e-01,2.787850238382816315e-02,-1.631714589893817902e-02,-1.750713139772415161e-01,-2.021925300359725952e-01,-2.879634266719222069e-03,-6.725205481052398682e-02
3.444818556308746338e-01,9.458974748849868774e-02,3.745890557765960693e-01,-4.495838582515716553e-01,4.834604263305664062e-02,1.771024242043495178e-02,-3.802573680877685547e-01,-1.606178134679794312e-01,-2.065123245120048523e-02,-1.036987975239753723e-01
3.678071796894073486e-01,1.224004849791526794e-01,4.557251632213592529e-01,-2.040761262178421021e-01,-1.126797683537006378e-02,3.205743432044982910e-02,-5.033197253942489624e-02,-2.195556163787841797e-01,-1.509962081909179688e-01,-2.235893309116363525e-01
3.200505971908569336e-01,2.614664435386657715e-01,4.728942811489105225e-01,-9.964468330144882202e-02,1.214738283306360245e-02,2.114914804697036743e-01,1.191722601652145386e-01,-2.328353673219680786e-01,-2.125450521707534790e-01,-2.620414197444915771e-01
1.433237493038177490e-01,3.105525374412536621e-01,3.455351293087005615e-01,1.642698049545288086e-01,3.846293315291404724e-02,3.782287538051605225e-01,2.913857698440551758e-01,-2.122881412506103516e-01,-2.500481307506561279e-01,-2.549638748168945312e-01
2.240925095975399017e-02,2.790459692478179932e-01,2.305047959089279175e-01,5.272229313850402832e-01,1.462172269821166992e-01,4.535120129585266113e-01,3.864513039588928223e-01,-9.972126781940460205e-02,-7.208083271980285645e-01,-1.466617882251739502e-01
-9.311087429523468018e-02,7.455670833587646484e-02,5.943603813648223877e-02,6.110238432884216309e-01,1.953218281269073486e-01,2.301443964242935181e-01,2.238835692405700684e-01,1.849731989204883575e-02,-2.081004083156585693e-01,-1.015662997961044312e-01
-1.183253377676010132e-01,-5.960005149245262146e-02,-2.842579595744609833e-02,4.853174686431884766e-01,2.801969945430755615e-01,4.418507218360900879e-03,4.109397903084754944e-02,3.368862867355346680e-01,-1.773445755243301392e-01,2.155986987054347992e-02
-1.104145795106887817e-01,-1.295616179704666138e-01,-9.131819009780883789e-02,2.247489392757415771e-01,3.436394929885864258e-01,-1.231443732976913452e-01,-6.606239080429077148e-02,5.748865008354187012e-01,-1.403307318687438965e-01,3.036241233348846436e-01
-1.007359568029642105e-02,-1.012573167681694031e-01,-1.297947764396667480e-01,3.456055000424385071e-02,3.784732520580291748e-01,-1.303513348102569580e-01,-1.266514696180820465e-02,5.075296163558959961e-01,-5.651055648922920227e-02,5.524201989173889160e-01
1.904532760381698608e-01,6.279794126749038696e-02,-1.418931335210800171e-01,-5.520499870181083679e-02,3.347549438476562500e-01,-8.958353102207183838e-02,1.593172550201416016e-01,1.588462591171264648e-01,9.064520150423049927e-02,5.871379971504211426e-01
3.315998315811157227e-01,2.867006361484527588e-01,-1.771948188543319702e-01,-1.158381775021553040e-01,1.680466830730438232e-01,-9.334625303745269775e-02,2.657013535499572754e-01,-1.764812320470809937e-01,2.387116402387619019e-01,2.920718491077423096e-01
3.971923887729644775e-01,5.103058218955993652e-01,-5.766831338405609131e-02,-2.865580469369888306e-02,5.590622872114181519e-02,-1.052669994533061981e-02,3.260563313961029053e-01,-2.539370059967041016e-01,3.912029564380645752e-01,2.455869689583778381e-02
2.375949323177337646e-01,4.453164339065551758e-01,1.047623082995414734e-01,3.725887835025787354e-02,-7.513221353292465210e-02,-8.485523052513599396e-03,2.012419253587722778e-01,-2.263207197189331055e+00,3.286308646202087402e-01,-1.480233967304229736e-01
6.851340085268020630e-02,2.546137571334838867e-01,3.667907714843750000e-01,1.042111590504646301e-01,-1.253449469804763794e-01,-4.581411834806203842e-03,7.631555944681167603e-02,-4.493546485900878906e+00,1.843069642782211304e-01,-1.572578102350234985e-01
-3.056334331631660461e-02,8.406928926706314087e-02,5.358458757400512695e-01,1.022580116987228394e-01,-1.169604435563087463e-01,-1.287385914474725723e-02,-9.976807981729507446e-03,-1.991168618202209473e+00,5.640151351690292358e-02,-1.111909970641136169e-01
-8.148846030235290527e-02,-3.133686259388923645e-02,4.682388305664062500e-01,4.350161924958229065e-02,-2.762702703475952148e-01,-5.024571344256401062e-02,-6.316698342561721802e-02,-7.594062089920043945e-01,-4.013255238533020020e-02,-9.895890951156616211e-02
-5.939966067671775818e-02,-4.059991985559463501e-02,2.814299762248992920e-01,2.320063300430774689e-02,-5.250578522682189941e-01,-4.024538770318031311e-02,-4.281684383749961853e-02,-3.832721710205078125e-01,-4.109156131744384766e-02,-5.650689452886581421e-02
-6.092765834182500839e-03,-4.016039371490478516e-01,9.547866135835647583e-02,1.502655167132616043e-02,-1.451208889484405518e-01,-1.987538998946547508e-04,5.598320625722408295e-03,-4.270113632082939148e-02,-2.899759681895375252e-03,-1.484805792570114136e-01
4.418136179447174072e-02,-3.617728352546691895e-01,7.344169020652770996e-01,-9.262615442276000977e-01,-1.591744273900985718e-01,4.054260253906250000e-01,9.103213250637054443e-02,-4.869147017598152161e-02,1.399849653244018555e-01,-5.227158665657043457e-01
-1.364118605852127075e-01,-1.767470836639404297e-01,1.403100252151489258e+00,5.777067542076110840e-01,4.693748950958251953e-01,-6.717106103897094727e-01,2.267228811979293823e-01,-5.976775288581848145e-01,-8.012198209762573242e-01,1.809803247451782227e-01
3.869504034519195557e-01,-3.535311520099639893e-01,4.890502691268920898e-01,4.760407209396362305e-01,-1.104210391640663147e-01,-5.192099213600158691e-01,-5.958843231201171875e-01,9.017042815685272217e-02,-2.850171029567718506e-01,-3.831184804439544678e-01
-6.055279374122619629e-01,3.163178265094757080e-02,-1.345214396715164185e-01,-1.203712373971939087e-01,-9.794514626264572144e-02,-8.509477972984313965e-02,-8.717476576566696167e-02,-4.587361961603164673e-02,-5.976828560233116150e-02,-1.422029584646224976e-01
-6.370610594749450684e-01,7.103489637374877930e-01,3.419229686260223389e-01,7.615146636962890625e-01,-4.009012877941131592e-02,3.168473243713378906e-01,-4.853683412075042725e-01,3.075412809848785400e-01,-1.875817477703094482e-01,3.397294878959655762e-01
-6.525388360023498535e-01,-5.562714934349060059e-01,3.679307997226715088e-01,1.273889183998107910e+00,-6.800434738397598267e-02,6.410610079765319824e-01,1.499655693769454956e-01,2.573114037513732910e-01,7.799772024154663086e-01,4.153967201709747314e-01
7.927215099334716797e-02,-4.075426161289215088e-01,3.524534031748771667e-02,4.932958260178565979e-02,-1.833759546279907227e-01,-6.567077636718750000e-01,4.327397793531417847e-02,-2.944908440113067627e-01,5.993132665753364563e-02,5.708497762680053711e-02
4.354080185294151306e-02,1.568781584501266479e-02,1.511537004262208939e-02,-2.123337052762508392e-02,6.776177324354648590e-03,-2.045782208442687988e-01,-2.794789373874664307e-01,-1.898678541183471680e-01,3.271461697295308113e-03,-2.613858692348003387e-02
5.514863133430480957e-02,-3.343217819929122925e-02,5.500789731740951538e-02,-1.183126717805862427e-01,-3.808251768350601196e-02,-6.129188835620880127e-02,-2.580014467239379883e-01,-1.989265978336334229e-01,-3.898684307932853699e-02,-7.870627194643020630e-02
2.282609641551971436e-01,4.412498325109481812e-02,2.972965538501739502e-01,-1.523899286985397339e-01,3.624415025115013123e-02,1.251189503818750381e-02,-2.753195464611053467e-01,-1.827547699213027954e-01,1.236287131905555725e-02,-4.938241466879844666e-02
2.466219067573547363e-01,-1.765013113617897034e-02,3.753015398979187012e-01,-1.898077875375747681e-01,-7.259873300790786743e-02,-6.651993095874786377e-02,-1.681917160749435425e-01,-5.965954661369323730e-01,-1.472879797220230103e-01,-2.258042246103286743e-01
3.639004826545715332e-01,1.433362364768981934e-01,5.158650875091552734e-01,-9.536661207675933838e-02,2.074695006012916565e-02,1.083614900708198547e-01,-5.564768239855766296e-02,-2.945108413696289062e-01,-1.571716368198394775e-01,-2.164277434349060059e-01
2.622445225715637207e-01,2.408271580934524536e-01,4.242105185985565186e-01,9.207099676132202148e-02,8.447829633951187134e-02,3.062722980976104736e-01,9.276227653026580811e-02,-2.314185500144958496e-01,-2.207069694995880127e-01,-2.500152885913848877e-01
6.208075210452079773e-02,2.179272770881652832e-01,2.310650050640106201e-01,3.834898471832275391e-01,1.917838752269744873e-01,4.357311427593231201e-01,2.744779884815216064e-01,-1.958596557378768921e-01,-6.477045416831970215e-01,-2.217019051313400269e-01
-1.128095909953117371e-01,4.532729461789131165e-02,2.060934714972972870e-02,5.545799732208251953e-01,2.874774932861328125e-01,3.360042572021484375e-01,3.223393261432647705e-01,-1.431215554475784302e-01,-3.453536927700042725e-01,-1.813422143459320068e-01
-1.433815956115722656e-01,-8.055467158555984497e-02,-6.731578707695007324e-02,5.491129159927368164e-01,4.244138002395629883e-01,1.359424889087677002e-01,2.934005558490753174e-01,3.294708952307701111e-02,-1.766587942838668823e-01,-6.270100921392440796e-02
-1.515646725893020630e-01,-1.539885252714157104e-01,-1.257227808237075806e-01,3.235181272029876709e-01,4.941798746585845947e-01,-3.947325050830841064e-02,1.765985339879989624e-01,3.703511357307434082e-01,-1.330607235431671143e-01,1.411134302616119385e-01
-1.135357320308685303e-01,-1.615674942731857300e-01,-1.573406606912612915e-01,9.691376239061355591e-02,5.146990418434143066e-01,-7.912068068981170654e-02,1.260779052972793579e-01,6.031450033187866211e-01,-8.294008672237396240e-02,4.634153842926025391e-01
-4.069247096776962280e-02,-1.181758642196655273e-01,-2.224243730306625366e-01,-5.994017422199249268e-02,4.384754300117492676e-01,-6.754629313945770264e-02,1.649820208549499512e-01,4.587707519531250000e-01,-3.872029110789299011e-02,5.658397078514099121e-01
1.508059203624725342e-01,1.141868755221366882e-01,-2.561710178852081299e-01,-1.052182391285896301e-01,3.352799713611602783e-01,-4.936804529279470444e-03,2.749657034873962402e-01,3.617188706994056702e-02,9.640216827392578125e-02,4.403412938117980957e-01
3.356420397758483887e-01,3.910559415817260742e-01,-2.497784793376922607e-01,-8.936236798763275146e-02,1.845732033252716064e-01,6.955540925264358521e-02,2.954840660095214844e-01,-2.347219139337539673e-01,2.659804821014404297e-01,7.955067604780197144e-02
3.947950303554534912e-01,5.250517725944519043e-01,-1.269447803497314453e-01,1.242731045931577682e-02,7.955978810787200928e-02,1.628821641206741333e-01,2.276860773563385010e-01,-2.811381220817565918e-01,3.786762058734893799e-01,-1.395901292562484741e-01
2.393438369035720825e-01,3.701105713844299316e-01,5.767656490206718445e-02,8.418273925781250000e-02,-2.423917688429355621e-02,1.754452288150787354e-01,6.724955886602401733e-02,-1.749187946319580078e+00,2.875228822231292725e-01,-2.010150700807571411e-01
5.205214396119117737e-02,1.399861872196197510e-01,3.324253559112548828e-01,1.146706417202949524e-01,-9.135698527097702026e-02,1.509986668825149536e-01,-4.106438159942626953e-02,-1.721890687942504883e+00,1.310372799634933472e-01,-1.700826138257980347e-01
-6.404580175876617432e-02,-2.900812402367591858e-02,5.179480314254760742e-01,6.839509308338165283e-02,-1.303215622901916504e-01,6.640631705522537231e-02,-1.024046391248703003e-01,-6.978769898414611816e-01,-8.552380837500095367e-03,-1.419266015291213989e-01
-1.016192659735679626e-01,-9.383743256330490112e-02,4.863608479499816895e-01,3.044353565201163292e-03,-2.763921022415161133e-01,-1.466872636228799820e-02,-2.986376583576202393e-01,-3.129228651523590088e-01,-7.474407553672790527e-02,-1.246358081698417664e-01
-5.037014931440353394e-02,-5.551036819815635681e-02,3.303719162940979004e-01,1.412876765243709087e-03,-4.220691919326782227e-01,-1.082253362983465195e-02,-4.311214387416839600e-01,-8.583710342645645142e-02,-4.073003306984901428e-02,-6.213420629501342773e-02
-5.076488479971885681e-02,-2.511402368545532227e-01,9.019637107849121094e-02,-3.943427652120590210e-02,-1.662833094596862793e-01,-3.003771789371967316e-02,-4.427734017372131348e-02,-5.526598915457725525e-02,-4.345773532986640930e-02,-1.776065230369567871e-01
-3.753447160124778748e-02,4.298313856124877930e-01,-1.906166374683380127e-01,-8.530604839324951172e-01,3.541971743106842041e-01,-3.050785064697265625e-01,6.139523386955261230e-01,-1.449678391218185425e-01,-4.062870740890502930e-01,2.690317928791046143e-01
8.716553449630737305e-01,3.628135919570922852e-01,8.810365796089172363e-01,-1.183183789253234863e-01,5.304613113403320312e-01,-1.028848171234130859e+00,3.643772751092910767e-02,-1.252964287996292114e-01,-4.986463785171508789e-01,4.933524727821350098e-01
5.241944193840026855e-01,6.637977957725524902e-01,3.237880766391754150e-01,5.186867117881774902e-01,-1.762416362762451172e-01,-3.924351632595062256e-01,-6.852509975433349609e-01,2.308243811130523682e-01,4.306228756904602051e-01,-5.345445275306701660e-01
-1.070739403367042542e-01,-6.214612349867820740e-02,-2.064000628888607025e-02,-4.769248142838478088e-02,-2.733838930726051331e-02,-2.013793215155601501e-02,-1.987496949732303619e-02,-2.705712020397186279e-01,-1.037592440843582153e-01,-4.046956822276115417e-02
-3.131161034107208252e-01,6.624836325645446777e-01,-2.701905369758605957e-01,6.152043938636779785e-01,-3.514433503150939941e-01,2.712044417858123779e-01,-3.554163500666618347e-02,7.452199608087539673e-02,-2.916913032531738281e-01,-1.504793167114257812e-01
-2.880961894989013672e-01,5.000520348548889160e-01,-1.751514375209808350e-01,8.921901583671569824e-01,-1.812298595905303955e-01,4.280150532722473145e-01,1.166758611798286438e-01,3.219227790832519531e-01,4.498448371887207031e-01,-1.831036210060119629e-01
-8.058405518531799316e-01,2.526125907897949219e-01,1.107457056641578674e-01,2.367470711469650269e-01,-1.534248143434524536e-01,-4.197012782096862793e-01,8.123438954353332520e-01,6.702812314033508301e-01,5.026521086692810059e-01,5.097210407257080078e-01
1.337155103683471680e-01,1.101624667644500732e-01,-9.641152024269104004e-01,7.520219683647155762e-02,1.003832146525382996e-01,9.511654078960418701e-02,-4.509425535798072815e-02,-1.242670491337776184e-01,1.027329787611961365e-01,8.802536875009536743e-02
1.035542339086532593e-01,1.029251608997583389e-02,1.635026484727859497e-01,-3.931355848908424377e-02,-7.042475626803934574e-04,-1.078369375318288803e-02,-4.035772383213043213e-01,-1.650793999433517456e-01,9.522173553705215454e-03,-3.451245650649070740e-02
1.983636170625686646e-01,-7.783508393913507462e-03,3.393971025943756104e-01,-7.078224420547485352e-02,-2.565036900341510773e-02,-2.540976740419864655e-02,-4.094365239143371582e-01,-2.599992454051971436e-01,-3.080994822084903717e-02,-1.027252003550529480e-01
3.023113608360290527e-01,2.658934332430362701e-02,4.913631975650787354e-01,-7.992470264434814453e-02,-4.415261745452880859e-02,1.468253321945667267e-02,-4.913338124752044678e-01,-4.399793446063995361e-01,-9.766478091478347778e-02,-1.709481924772262573e-01
3.422558307647705078e-01,1.175556033849716187e-01,4.955154359340667725e-01,2.216975577175617218e-02,5.482019390910863876e-03,1.694984287023544312e-01,-1.073443815112113953e-01,-3.394625484943389893e-01,-1.648042201995849609e-01,-2.310723811388015747e-01
2.586598992347717285e-01,2.024110108613967896e-01,3.325270116329193115e-01,2.697826921939849854e-01,1.362906098365783691e-01,3.864261209964752197e-01,5.475857853889465332e-02,-2.224701642990112305e-01,-1.988529562950134277e-01,-2.293978482484817505e-01
7.099670916795730591e-02,1.355387270450592041e-01,9.722514450550079346e-02,4.847411513328552246e-01,2.726476490497589111e-01,4.351479411125183105e-01,2.261989414691925049e-01,-1.846206486225128174e-01,-2.098338454961776733e-01,-2.069173604249954224e-01
-6.852986663579940796e-02,-1.528744120150804520e-03,-9.536728262901306152e-02,5.235468745231628418e-01,3.838534355163574219e-01,2.720168232917785645e-01,3.494832217693328857e-01,-1.246619299054145813e-01,-1.806480735540390015e-01,-1.537517905235290527e-01
-5.577246099710464478e-02,-4.051603004336357117e-02,-1.279803365468978882e-01,4.396271407604217529e-01,5.210581421852111816e-01,1.156413704156875610e-01,4.571325778961181641e-01,6.839980185031890869e-02,-7.209635525941848755e-02,3.077014908194541931e-02
-8.728539943695068359e-02,-1.076362133026123047e-01,-1.951126754283905029e-01,1.865857243537902832e-01,5.086044669151306152e-01,-6.442594807595014572e-03,3.960933983325958252e-01,3.831578195095062256e-01,-6.394033879041671753e-02,3.066305816173553467e-01
-6.577879190444946289e-02,-1.096382290124893188e-01,-2.412247508764266968e-01,3.402664512395858765e-02,4.608345925807952881e-01,1.497657969594001770e-02,3.478817343711853027e-01,5.686777830123901367e-01,-3.926971182227134705e-02,5.445636510848999023e-01
2.423594333231449127e-02,1.735661178827285767e-02,-2.948843240737915039e-01,-3.195303305983543396e-02,3.917021453380584717e-01,9.405536949634552002e-02,3.568857908248901367e-01,4.172263145446777344e-01,2.790723182260990143e-02,5.470681786537170410e-01
2.241854518651962280e-01,3.193874657154083252e-01,-2.923107147216796875e-01,-1.701952517032623291e-02,3.453809916973114014e-01,2.140661776065826416e-01,3.722392320632934570e-01,2.730786334723234177e-03,1.939303427934646606e-01,2.857551276683807373e-01
3.637313246726989746e-01,4.887219965457916260e-01,-3.015750348567962646e-01,-9.116015397012233734e-03,2.332971841096878052e-01,2.479360252618789673e-01,2.180836051702499390e-01,-2.647771239280700684e-01,2.874051332473754883e-01,-1.103621274232864380e-01
3.966688513755798340e-01,4.748136997222900391e-01,-1.701072603464126587e-01,9.662120789289474487e-02,1.846632659435272217e-01,3.186508417129516602e-01,6.761385500431060791e-02,-2.871367037296295166e-01,3.289808630943298340e-01,-2.286726534366607666e-01
2.515314221382141113e-01,2.604490816593170166e-01,5.216312780976295471e-02,1.678146421909332275e-01,1.062043085694313049e-01,3.528908193111419678e-01,-5.465819314122200012e-02,-9.522578120231628418e-01,2.301879227161407471e-01,-1.972437649965286255e-01
2.649403177201747894e-02,1.782779768109321594e-02,3.107795417308807373e-01,1.253684014081954956e-01,-2.158325538039207458e-02,2.826510071754455566e-01,-1.413782835006713867e-01,-9.611124992370605469e-01,4.694888740777969360e-02,-2.323550581932067871e-01
-4.985702782869338989e-02,-7.122250646352767944e-02,5.376092195510864258e-01,7.258541882038116455e-02,-7.933337241411209106e-02,2.026111334562301636e-01,-1.289587169885635376e-01,-4.352114796638488770e-01,-3.793518990278244019e-02,-1.306950300931930542e-01
-1.064621284604072571e-01,-1.142021268606185913e-01,4.920125901699066162e-01,-3.101005032658576965e-02,-1.200262978672981262e-01,6.094558537006378174e-02,-3.041427135467529297e-01,-2.818913459777832031e-01,-9.341434389352798462e-02,-1.264760047197341919e-01
-8.691130578517913818e-02,-1.011713743209838867e-01,3.122514486312866211e-01,-6.457928568124771118e-02,-4.466058611869812012e-01,-1.191165111958980560e-02,-1.406641155481338501e-01,-1.101918444037437439e-01,-7.563860714435577393e-02,-9.955165535211563110e-02
-4.747333750128746033e-02,-5.921135097742080688e-02,1.032503843307495117e-01,-4.993664473295211792e-02,-2.206948101520538330e-01,-1.707918196916580200e-02,-5.188086256384849548e-02,-5.877254158258438110e-02,-4.199787229299545288e-02,-6.552312523126602173e-02
1.323664933443069458e-01,8.715056777000427246e-01,-2.878716289997100830e-01,-1.663795709609985352e-01,-6.195501610636711121e-02,-3.632698357105255127e-01,4.383568465709686279e-02,4.684792757034301758e-01,-8.731364607810974121e-01,1.897109299898147583e-02
6.880210638046264648e-01,7.303749918937683105e-01,7.617469429969787598e-01,2.960049211978912354e-01,7.277198135852813721e-02,-7.344658374786376953e-01,-8.281170725822448730e-01,-2.794959545135498047e-01,-5.359425544738769531e-01,-5.916780326515436172e-03
